/*!
 * The following copyright notice may not be removed under any circumstances.
 * 
 * Copyright:
 * Copyright (c) Andrew Paglinawan, 2008. All rights reserved.
 * 
 * Trademark:
 * Dashling is a trademark of the Andrew Paglinawan.
 * 
 * Manufacturer:
 * Andrew Paglinawan
 * 
 * Designer:
 * Andrew Paglinawan
 */
Cufon.registerFont({"w":613,"face":{"font-family":"Quicksand Book Oblique","font-weight":400,"font-style":"oblique","font-stretch":"normal","units-per-em":"1000","panose-1":"2 7 3 3 0 0 0 6 0 0","ascent":"800","descent":"-200","cap-height":"2","bbox":"-21.0418 -923.532 1136.46 206.256","underline-thickness":"50","underline-position":"-50","unicode-range":"U+0020-U+2122"},"glyphs":{" ":{"w":300},"\u00a0":{"w":300},"!":{"d":"211,-678v0,-20,34,-28,43,-10v4,6,6,12,5,19r-89,502v-2,15,-12,22,-28,20v-16,-2,-23,-13,-20,-29xm110,-66v18,-13,42,3,38,25v-4,21,-6,45,-32,43v-29,-3,-23,-55,-6,-68","w":252},"\"":{"d":"250,-461r30,-215v3,-25,20,-28,47,-26v11,0,16,6,16,17v0,1,-1,9,-5,24r-57,201v-4,12,-10,18,-17,18v-11,0,-16,-6,-14,-19xm70,-461r30,-215v3,-25,20,-28,47,-26v11,0,16,6,16,17v0,1,-1,9,-5,24r-57,201v-4,12,-10,18,-17,18v-11,0,-16,-6,-14,-19","w":410},"#":{"d":"596,-234v22,-1,26,29,10,40v-6,5,-11,7,-18,7r-117,0r-57,169v-4,21,-34,31,-45,14v-3,-5,-4,-13,-1,-21r55,-162r-207,0r-57,169v-4,21,-34,31,-45,14v-3,-5,-4,-13,-1,-21r55,-162r-101,0v-22,1,-27,-29,-11,-40v6,-5,12,-7,19,-7r109,0r81,-236r-110,0v-22,2,-27,-29,-11,-40v6,-5,12,-7,19,-7r118,0r55,-165v4,-21,34,-31,45,-14v3,5,3,13,1,21r-53,158r207,0r55,-165v4,-21,34,-31,45,-14v3,5,3,13,1,21r-53,158r100,0v22,-1,26,29,10,40v-6,5,-11,7,-18,7r-108,0r-81,236r109,0xm232,-234r207,0r81,-236r-207,0","w":700},"$":{"d":"445,-700v6,-27,8,-62,40,-62v31,0,11,42,8,64v61,5,115,29,160,70v22,20,-2,48,-24,48v-7,0,-12,-2,-16,-7v-37,-37,-82,-59,-134,-65r-71,280v72,16,121,38,148,68v27,30,34,70,22,119v-24,103,-137,183,-261,185r-19,78v-3,17,-32,34,-46,17v-3,-5,-4,-10,-2,-17r19,-79v-81,-7,-148,-39,-201,-97v-21,-24,21,-63,42,-39v46,52,101,84,172,91r73,-285v-71,-17,-119,-40,-145,-69v-26,-29,-32,-69,-20,-119v23,-98,136,-180,255,-181xm326,-45v95,0,183,-59,200,-136v9,-36,4,-65,-14,-87v-18,-22,-57,-39,-116,-53xm436,-655v-92,-1,-177,59,-194,132v-9,36,-5,65,12,87v17,22,55,39,114,54","w":632},"&":{"d":"473,-319v47,3,77,-27,73,-76v-2,-20,25,-35,40,-20v7,7,10,14,9,27v1,61,-32,100,-82,114v0,18,-2,36,-4,50v-17,117,-135,225,-264,225v-109,0,-199,-83,-196,-193v3,-111,65,-182,137,-227v-18,-25,-27,-54,-27,-86v2,-109,91,-191,196,-194v83,-3,146,62,146,144v0,24,-4,53,-31,49v-12,-2,-23,-14,-20,-28v11,-69,-30,-116,-95,-116v-75,0,-148,66,-147,145v0,32,11,57,33,73v17,12,8,35,-6,42v-72,33,-137,100,-137,198v0,83,63,144,147,144v103,0,204,-91,216,-184v2,-13,3,-24,3,-38v-67,-5,-132,10,-157,43v-14,19,-24,39,-21,64v1,15,-9,28,-25,27v-17,-1,-25,-14,-25,-33v8,-117,103,-160,237,-150","w":696},"'":{"d":"82,-509v-19,0,-13,-22,-1,-28v38,-18,59,-44,64,-77v-27,-5,-21,-32,-16,-56v5,-23,44,-47,63,-23v11,14,1,32,-2,48v-9,52,-26,86,-48,104v-27,22,-47,32,-60,32","w":230},"(":{"d":"244,95v-85,1,-132,-55,-152,-125v-20,-69,-19,-161,1,-275v20,-113,51,-205,96,-275v53,-83,118,-125,196,-125v25,-1,31,34,11,47v-7,5,-14,9,-21,9v-53,1,-100,31,-140,93v-39,60,-68,144,-87,251v-19,107,-19,191,-1,251v17,56,41,93,107,93v25,0,31,35,11,48v-7,5,-14,8,-21,8","w":430},")":{"d":"227,-705v85,-1,132,55,152,125v20,69,19,161,-1,275v-20,113,-51,205,-96,275v-53,83,-118,125,-196,125v-25,1,-31,-34,-11,-47v7,-5,14,-9,21,-9v53,-1,100,-31,140,-93v39,-60,68,-144,87,-251v19,-107,19,-191,1,-251v-18,-62,-54,-93,-107,-93v-25,1,-31,-35,-11,-48v7,-5,14,-8,21,-8","w":430},"*":{"d":"186,-422r27,-109r-102,62v-14,13,-37,3,-33,-15v2,-9,8,-15,17,-19r112,-49r-94,-49v-23,-10,-8,-40,13,-40v4,0,9,2,15,6r80,62r11,-109v0,-16,27,-31,38,-16v3,4,3,10,2,16r-27,109r102,-62v14,-13,37,-3,33,15v-1,9,-7,15,-17,19r-112,49r94,49v24,10,4,41,-13,40v-4,0,-9,-2,-15,-6r-80,-62r-11,109v0,16,-27,31,-38,16v-3,-4,-3,-10,-2,-16","w":430},"+":{"d":"64,-348v0,-18,16,-33,33,-33r185,0r33,-185v1,-27,45,-37,59,-13v5,7,6,15,5,24r-31,174r174,0v17,0,32,15,32,33v0,18,-15,33,-32,33r-185,0r-33,185v-2,30,-45,36,-58,13v-5,-7,-7,-15,-6,-24r30,-174r-173,0v-17,0,-33,-15,-33,-33","w":620},",":{"d":"68,104v-19,0,-13,-22,-1,-28v38,-18,59,-44,64,-77v-27,-5,-21,-32,-16,-56v5,-23,44,-47,63,-23v11,14,1,32,-2,48v-9,52,-26,86,-48,104v-27,22,-47,32,-60,32","w":230},"-":{"d":"317,-348v0,11,-8,20,-19,20r-213,0v-13,0,-19,-7,-19,-20v0,-12,6,-18,19,-18r213,0v13,0,19,6,19,18","w":408},"\u00ad":{"d":"317,-348v0,11,-8,20,-19,20r-213,0v-13,0,-19,-7,-19,-20v0,-12,6,-18,19,-18r213,0v13,0,19,6,19,18","w":408},".":{"d":"192,-98v30,39,-9,98,-57,98v-32,0,-52,-24,-47,-58v6,-43,73,-80,104,-40","w":230},"\/":{"d":"22,0v-22,0,-30,-18,-23,-34r273,-648v9,-22,39,-18,46,0v2,6,2,12,-1,19r-273,648v-4,10,-11,15,-22,15","w":500},"0":{"d":"258,0v-150,-1,-219,-184,-185,-354v19,-95,54,-176,110,-242v59,-69,122,-104,189,-104v152,1,219,184,185,354r-24,-4r24,4v-16,93,-52,174,-110,242v-59,70,-122,104,-189,104xm410,-136v64,-77,106,-167,106,-297v0,-66,-14,-119,-42,-160v-27,-39,-61,-58,-102,-58v-53,0,-104,28,-152,86v-65,79,-106,168,-106,298v0,66,14,119,42,160v27,39,61,58,102,58v53,0,103,-29,152,-87","w":710},"1":{"d":"197,-698v20,-6,38,5,35,26r-115,652v-2,23,-32,26,-44,10v-4,-6,-5,-12,-4,-19r106,-601r-106,57v-13,7,-26,2,-33,-10v-7,-15,-4,-26,10,-33r151,-81r0,-1","w":335},"2":{"d":"376,-701v110,0,196,81,196,193v0,88,-50,162,-107,206r-322,252r322,0v13,0,25,11,25,24v0,13,-11,26,-25,25r-393,0v-23,2,-32,-30,-15,-44r378,-295v47,-36,87,-95,88,-168v1,-85,-64,-144,-147,-144v-64,0,-129,42,-171,79v-23,20,-56,-20,-31,-39r40,-31v49,-39,103,-58,162,-58","w":590},"3":{"d":"571,-700v25,-2,23,32,9,44r-214,186v101,20,166,114,148,232v-19,121,-148,240,-280,238v-65,0,-117,-23,-155,-70v-18,-23,22,-59,42,-35v65,76,189,67,265,0v43,-37,69,-82,78,-133v20,-105,-55,-187,-154,-187v-20,0,-35,-27,-13,-46r206,-179r-268,0v-23,2,-28,-32,-10,-43v6,-5,12,-7,19,-7r327,0","w":610},"4":{"d":"554,-694v16,-14,47,-4,42,22r-85,478r43,0v13,0,25,11,25,24v0,13,-12,25,-25,25r-51,0r-22,124v-2,23,-32,25,-44,9v-4,-6,-5,-11,-4,-18r20,-115r-379,0v-19,1,-34,-25,-17,-42xm132,-194r330,0r72,-409","w":664},"5":{"d":"456,-274v0,-87,-65,-150,-153,-150v-53,0,-101,19,-145,57v-19,16,-48,-2,-41,-28r85,-285v3,-10,13,-18,26,-19r326,0v14,-1,26,12,26,25v0,13,-12,26,-26,25r-309,0r-61,204v40,-19,80,-29,119,-29v114,0,205,86,203,200v-3,155,-133,275,-279,275v-66,0,-119,-24,-158,-71v-10,-11,-7,-28,3,-36v14,-10,26,-9,36,4v62,78,190,63,264,-4v44,-39,84,-96,84,-168","w":605},"6":{"d":"474,-696v16,14,4,43,-16,43v-99,3,-183,55,-249,155v-20,30,-37,66,-54,107v53,-49,113,-73,180,-73v122,-1,221,101,195,235r-24,-4r24,4v-17,118,-137,227,-268,227v-116,0,-207,-90,-197,-213v9,-114,42,-217,103,-310v75,-113,171,-172,288,-177v7,-1,13,1,18,6xm482,-237v15,-104,-50,-178,-148,-178v-103,0,-204,93,-218,186v-16,102,49,176,146,178v103,2,206,-94,220,-186","w":642},"7":{"d":"494,-697v10,4,14,22,8,33r-389,651v-8,20,-43,12,-45,-7v-2,-7,0,-13,3,-18r367,-614r-334,0v-13,0,-24,-12,-24,-25v0,-13,11,-24,24,-24r390,3r0,1","w":587},"8":{"d":"491,-576v-2,72,-32,107,-82,141v71,33,120,111,104,212v-18,115,-135,223,-263,223v-107,0,-198,-84,-195,-191v4,-127,87,-210,183,-247v-31,-27,-49,-69,-40,-121v11,-73,85,-140,167,-141v71,-1,128,54,126,124xm221,-554r24,4v-8,54,25,91,77,93v80,3,163,-106,100,-173v-33,-36,-96,-27,-134,8v-23,21,-38,45,-43,72xm321,-406v-101,-1,-203,93,-215,183r-23,-4r23,4v-18,100,49,173,144,175v101,2,201,-92,215,-183v15,-102,-49,-174,-144,-175","w":630},"9":{"d":"337,-700v117,1,207,86,198,213v-8,115,-44,218,-104,309v-75,114,-170,174,-288,178v-13,0,-24,-11,-25,-24v0,-13,11,-25,24,-25v100,0,183,-57,248,-156v21,-32,39,-67,54,-106v-52,47,-112,72,-180,73v-124,1,-216,-99,-195,-235v18,-117,138,-227,268,-227xm118,-465v-18,103,49,176,146,178v103,2,205,-94,219,-186v15,-102,-48,-176,-146,-178v-103,-2,-207,93,-219,186r-24,-4","w":642},":":{"d":"226,-599v32,0,38,46,14,61v-22,22,-63,7,-56,-25v4,-18,22,-36,42,-36xm132,-70v33,0,39,45,15,60v-21,22,-65,6,-56,-24v1,-18,22,-36,41,-36","w":240},";":{"d":"200,-540v-26,-35,30,-81,60,-50v27,33,-30,82,-60,50xm115,-82v20,-20,57,-6,54,24v-5,55,-17,109,-41,129v-13,11,-38,30,-55,32v-17,2,-17,-22,-4,-28v37,-18,55,-45,55,-77v-26,-5,-25,-30,-21,-56v1,-9,5,-18,12,-24","w":240},"<":{"d":"66,-331v-9,-10,-7,-35,4,-40r376,-321v19,-18,51,1,47,24v-1,8,-4,15,-10,20r-354,303r244,299v14,19,2,48,-22,47v-10,0,-17,-3,-22,-10","w":620},"=":{"d":"79,-239v0,-14,14,-29,28,-28r370,0v16,-1,29,13,29,28v0,16,-12,30,-29,29r-370,0v-15,0,-28,-14,-28,-29xm118,-462v0,-15,14,-29,29,-28r370,0v14,-1,28,14,28,28v0,15,-13,29,-28,29r-370,0v-16,0,-30,-12,-29,-29","w":620},">":{"d":"519,-369v7,9,8,31,-2,37v0,1,-1,2,-2,3r-376,321v-18,17,-50,0,-47,-24v1,-8,4,-14,10,-19r354,-303r-244,-300v-16,-20,2,-50,25,-47v8,1,14,4,19,11","w":620},"?":{"d":"112,-49v2,-18,32,-26,42,-9v7,12,1,26,0,39v-1,23,-31,24,-42,9v-8,-11,-2,-26,0,-39xm382,-487v14,-96,-46,-166,-135,-166v-72,0,-131,41,-165,87v-20,26,-55,-5,-37,-28v43,-55,113,-104,202,-105v115,-1,203,95,181,220v-19,106,-118,201,-230,210r-19,111v-1,22,-32,26,-43,10v-4,-5,-4,-11,-3,-18r22,-125v3,-13,8,-24,24,-23v96,3,190,-87,203,-173","w":534},"@":{"d":"438,-10v-230,52,-418,-105,-380,-344v28,-178,209,-346,407,-346v185,0,331,153,292,355v-19,97,-67,203,-166,230v-63,17,-95,-38,-79,-101v-41,36,-85,54,-133,54v-97,1,-167,-87,-148,-192v16,-93,104,-183,206,-183v101,-1,166,91,146,203r-27,154v-1,16,10,19,24,17v26,-4,59,-36,71,-52v41,-59,62,-111,63,-191v2,-141,-106,-245,-249,-245v-171,0,-336,152,-359,306v-29,198,121,336,321,287v21,-5,38,17,27,37v-4,6,-9,10,-16,11xm437,-488v-85,0,-161,79,-161,169v0,62,42,108,103,108v84,0,161,-78,160,-169v-1,-62,-40,-108,-102,-108","w":980},"A":{"d":"518,-182r-321,0r-93,169v-5,12,-20,16,-33,10v-14,-8,-17,-19,-10,-33r360,-651v7,-20,42,-16,47,7r130,651v2,15,-7,30,-24,29v-14,0,-22,-7,-24,-20xm508,-231r-75,-377r-209,377r284,0","w":646},"B":{"d":"459,-389v69,29,117,97,101,192v-17,101,-117,196,-230,196r-204,0v-16,-4,-22,-14,-19,-29r114,-651v3,-14,12,-20,27,-20r153,0v83,-1,153,62,150,148v-3,79,-36,124,-92,164xm330,-50v95,-1,185,-84,185,-182v0,-69,-52,-120,-123,-120r-179,0r-53,302r170,0xm348,-402v78,-1,155,-69,154,-151v-1,-58,-42,-99,-101,-99r-135,0r-44,250r126,0","w":594},"C":{"d":"126,-346v-29,174,91,297,253,297v73,0,142,-22,207,-66v13,-9,24,-7,34,6v9,13,8,25,-6,34v-73,51,-152,75,-235,75v-190,2,-334,-148,-301,-354v29,-180,215,-347,416,-346v83,0,154,26,212,77v10,8,11,25,2,35v-11,12,-22,13,-34,2v-117,-102,-301,-77,-418,24v-71,62,-115,133,-130,216","w":719},"D":{"d":"376,-699v187,-1,325,150,292,354v-28,177,-209,347,-407,346r-135,0v-15,-3,-23,-13,-20,-29r115,-651v1,-12,12,-20,25,-20r130,0xm620,-353v25,-172,-85,-297,-244,-297r-110,0r-106,602r101,0v170,4,337,-153,359,-305","w":719},"E":{"d":"515,-22v0,13,-11,24,-24,24r-365,0v-15,-3,-23,-13,-20,-29r115,-651v2,-14,11,-20,26,-20r359,0v13,0,24,12,24,25v0,13,-11,24,-24,24r-340,0r-49,277r290,0v13,0,24,11,24,24v0,13,-11,25,-24,25r-299,0r-49,276r332,0v13,0,24,12,24,25","w":593},"F":{"d":"531,-352v0,13,-11,25,-24,25r-298,0r-54,305v-1,13,-14,23,-29,20v-16,-3,-22,-14,-19,-29r114,-651v2,-14,11,-21,27,-20r358,0v13,0,24,12,24,25v0,13,-11,24,-24,24r-340,0r-49,277r290,0v13,0,24,11,24,24","w":600},"G":{"d":"405,-337v0,-13,11,-25,24,-25r218,1v12,1,23,14,20,28r-45,247v-3,5,-6,8,-8,9v-73,50,-151,75,-234,75v-191,2,-339,-151,-301,-354v24,-134,119,-244,229,-300v131,-67,298,-62,399,31v25,23,-10,58,-33,37v-116,-103,-301,-78,-417,24v-85,74,-132,146,-135,267v-4,143,112,248,258,246v69,0,135,-20,199,-61r35,-201r-185,0v-13,0,-24,-11,-24,-24","w":800},"H":{"d":"130,2v-16,0,-26,-13,-24,-28r115,-651v0,-20,33,-29,44,-11v4,6,5,12,4,19r-52,297r359,0r54,-305v0,-20,33,-29,44,-11v4,6,5,12,4,19r-115,651v-1,13,-13,21,-28,20v-12,-1,-23,-14,-20,-28r52,-297r-359,0r-54,305v-2,13,-10,20,-24,20","w":760},"I":{"d":"137,2v-16,0,-26,-13,-24,-28r115,-651v0,-20,33,-29,44,-11v4,6,5,12,4,19r-115,651v-2,13,-10,20,-24,20","w":305},"J":{"d":"93,-174v9,73,69,126,152,126v108,0,210,-96,227,-192r77,-438v0,-20,33,-28,44,-10v4,6,5,11,4,18r-77,438v-18,121,-140,233,-276,233v-105,0,-188,-75,-200,-168v-2,-21,22,-36,40,-23v6,4,8,9,9,16","w":594},"K":{"d":"130,-2v-16,0,-26,-13,-24,-28r115,-651v0,-20,33,-29,44,-11v4,6,5,12,4,19r-70,400r497,-423v16,-13,43,0,40,20v-1,7,-4,13,-9,18r-318,271r225,348v11,15,0,38,-20,37v-9,0,-16,-4,-21,-11r-222,-343r-186,158r-31,176v-2,13,-10,20,-24,20","w":715},"L":{"d":"490,-47v13,0,25,11,25,24v0,13,-11,24,-25,24r-364,0v-12,-1,-23,-14,-20,-28r115,-651v0,-20,33,-28,44,-10v4,6,5,11,4,18r-110,623r331,0","w":619},"M":{"d":"155,-19v-6,34,-54,21,-49,-8r115,-651v3,-21,36,-29,48,-8r186,344r312,-348v16,-20,48,-3,44,20r-115,651v-2,15,-11,21,-28,20v-12,-1,-23,-14,-20,-28r101,-569r-279,310v-9,12,-34,10,-42,-5r-170,-312","w":868},"N":{"d":"130,-2v-16,0,-26,-13,-24,-28r115,-649v0,-7,3,-15,12,-20v14,-8,26,-4,33,10r322,591r102,-580v1,-12,14,-23,28,-20v15,3,23,13,20,29r-114,647v-2,21,-35,28,-46,8r-321,-590r-103,582v-2,13,-10,20,-24,20","w":790},"O":{"d":"352,0v-182,0,-306,-156,-273,-354v29,-174,196,-346,388,-346v180,0,311,159,273,355r-24,-5r24,5v-25,174,-197,345,-388,345xm127,-345v-26,167,73,296,225,297v163,2,317,-156,340,-306v26,-168,-73,-296,-227,-297v-163,-1,-315,157,-338,306","w":850},"P":{"d":"443,-700v106,0,187,86,168,204v-17,101,-118,196,-230,196r-178,0r-49,280v-1,23,-33,26,-44,10v-4,-6,-5,-12,-4,-19r115,-651v1,-12,12,-20,25,-20r197,0xm563,-504v12,-85,-40,-147,-120,-147r-178,0r-53,302r169,0v84,3,172,-79,182,-155","w":583},"Q":{"d":"328,-2v-154,-16,-260,-171,-231,-351v29,-177,204,-358,398,-357v130,1,225,78,260,179v20,55,24,114,13,178v-24,145,-140,276,-263,327r-109,46v20,4,39,12,56,24v105,67,175,69,278,2v12,-8,28,-8,34,4v7,13,4,25,-11,35v-115,78,-217,83,-333,2v-45,-31,-135,-21,-177,0v-11,6,-19,3,-28,-2v-13,-17,-7,-36,13,-45xm486,-660v-165,0,-314,155,-340,307v-28,164,79,305,233,305v163,0,315,-155,340,-305v28,-166,-78,-307,-233,-307","w":844},"R":{"d":"522,-10v-70,0,-42,-109,-42,-176v0,-59,-55,-114,-115,-114r-175,0r-49,280v-2,23,-33,26,-45,10v-4,-6,-5,-12,-4,-19r115,-651v2,-14,11,-20,26,-20r196,0v98,-2,174,73,172,169v-2,109,-72,178,-150,214v52,31,78,75,77,131v0,39,-18,95,-4,126v17,-4,35,18,24,36v-5,9,-11,14,-26,14xm550,-504v12,-88,-41,-147,-121,-147r-177,0r-53,302r168,0v86,3,172,-78,183,-155","w":625},"S":{"d":"73,-100v-18,-18,13,-51,33,-33v102,99,248,119,370,43v46,-29,70,-64,77,-103v6,-37,-6,-68,-39,-93v-31,-23,-82,-43,-152,-56v-67,-13,-118,-33,-152,-58v-42,-31,-57,-72,-49,-121v21,-123,200,-216,351,-165v58,20,72,33,117,66v11,7,11,18,1,30v-10,12,-21,14,-32,6v-52,-39,-95,-69,-176,-73v-95,-5,-206,60,-218,136v-6,33,6,61,36,84v32,23,78,41,140,52v72,13,127,35,164,63v45,33,61,76,53,129v-18,110,-158,195,-289,193v-88,-1,-166,-34,-235,-100","w":667},"T":{"d":"569,-677v0,13,-11,25,-24,25r-215,0r-111,631v-2,23,-32,25,-44,9v-4,-6,-5,-11,-4,-18r109,-622r-206,0v-13,0,-24,-12,-24,-25v0,-13,11,-24,24,-24r471,0v13,0,24,11,24,24","w":648},"U":{"d":"347,-1v-150,0,-266,-123,-237,-287r69,-393v1,-12,14,-23,28,-20v15,3,23,13,20,29r-69,392v-24,129,63,230,189,230v132,0,258,-120,279,-238r70,-393v1,-12,14,-23,28,-20v15,3,23,13,20,29r-70,392v-21,143,-168,279,-327,279","w":814},"V":{"d":"264,-13v-11,16,-40,13,-45,-7r-159,-651v-6,-21,16,-37,36,-27v6,3,10,8,11,15r145,594r359,-600v8,-18,42,-14,45,6v2,7,0,13,-3,19","w":750},"W":{"d":"222,-18r-159,-651v-7,-21,17,-38,37,-27v6,3,9,8,10,15r146,594r254,-426v10,-19,43,-13,48,6r103,420r358,-600v5,-11,21,-17,34,-9v14,8,16,20,8,34r-394,657v-15,11,-36,2,-40,-13r-103,-423r-258,431v-9,16,-39,11,-44,-8","w":1102},"X":{"d":"426,-345r172,310v11,18,-2,36,-22,37v-9,0,-16,-4,-21,-13r-164,-296r-272,301v-9,10,-25,11,-35,1v-12,-11,-13,-22,-2,-34r284,-313r-172,-310v-10,-19,6,-41,28,-36v7,2,12,6,15,12r164,296r272,-300v14,-18,44,-3,43,16v0,7,-2,12,-7,17","w":722},"Y":{"d":"232,-19v-6,33,-54,22,-49,-8r56,-314r-178,-321v-10,-19,6,-41,28,-36v7,2,12,6,15,12r165,299r275,-303v9,-10,25,-11,35,-2v12,11,13,22,2,34r-294,324","w":604},"Z":{"d":"96,2v-20,0,-32,-26,-18,-41r553,-610r-420,0v-14,1,-25,-12,-25,-25v0,-13,12,-24,25,-24r488,3v12,6,16,26,6,38r-554,610r421,0v13,0,24,11,24,24v0,13,-11,25,-24,25r-476,0","w":667},"[":{"d":"101,104r163,-778v2,-12,17,-26,32,-26r232,0v16,0,21,23,6,32v-5,4,-10,6,-15,6r-212,0r-157,754r212,0v16,0,19,24,6,32v-5,4,-10,6,-15,6r-232,0v-13,0,-23,-12,-20,-26","w":430},"\\":{"d":"333,-36v7,16,-1,34,-23,34v-11,0,-18,-5,-22,-15r-273,-648v-13,-31,33,-48,45,-19","w":500},"]":{"d":"499,-674r-163,778v-2,12,-17,26,-32,26r-232,0v-16,0,-21,-23,-6,-32v5,-4,10,-6,15,-6r212,0r157,-754r-212,0v-16,0,-19,-24,-6,-32v5,-4,10,-6,15,-6r232,0v13,0,23,12,20,26","w":430},"^":{"d":"93,-488v-14,-1,-15,-13,-5,-24r164,-176v22,-23,48,-28,64,0r102,176v6,12,2,24,-14,24v-17,0,-29,-5,-34,-14r-92,-157r-148,157v-9,9,-21,14,-37,14","w":500},"_":{"d":"-5,160v-21,1,-20,-30,-5,-38v6,-4,12,-6,18,-6r604,0v21,0,19,30,4,38v-6,3,-11,6,-17,6r-604,0","w":600},"`":{"d":"271,-592v-12,0,-22,-4,-30,-13r-69,-77v-26,-24,16,-41,37,-41v11,0,19,6,25,18r49,93v5,10,3,21,-12,20","w":500},"a":{"d":"313,-488v74,-1,141,43,170,99r14,-79v1,-20,33,-27,43,-10v4,5,5,11,4,18r-78,440v0,22,-34,26,-44,10v-4,-5,-4,-11,-3,-18r11,-64v-54,60,-119,91,-195,92v-125,1,-214,-109,-191,-248v20,-121,136,-238,269,-240xm458,-248v16,-109,-46,-192,-146,-192v-118,0,-224,111,-225,237v0,88,61,154,148,155v107,1,209,-101,223,-200","w":619},"b":{"d":"333,2v-78,1,-145,-42,-175,-99r-14,79v-1,13,-14,23,-29,20v-16,-3,-22,-14,-19,-29r114,-651v3,-15,13,-23,29,-20v15,3,23,13,20,29r-49,273v56,-60,123,-91,200,-92v129,-1,224,108,198,249r-24,-4r24,4v-18,124,-139,239,-275,241xm560,-247v16,-110,-48,-192,-151,-192v-107,0,-211,103,-226,200v-17,107,46,192,150,192v108,0,213,-102,227,-200","w":660},"c":{"d":"273,-1v-132,1,-235,-105,-211,-248v21,-125,148,-242,288,-241v60,0,110,18,150,54v12,11,12,23,1,34v-11,12,-22,12,-33,2v-76,-66,-198,-51,-274,17v-55,49,-86,95,-88,175v-3,93,73,160,167,159v48,0,93,-15,136,-44v11,-7,28,-3,33,7v8,13,6,24,-6,33v-52,35,-106,52,-163,52","w":571},"d":{"d":"340,-491v79,0,140,38,175,99r50,-289v2,-12,15,-22,29,-20v15,3,23,13,20,29r-115,651v0,21,-36,27,-45,9v-4,-6,-4,-11,-3,-18r11,-63v-57,62,-123,92,-201,92v-128,1,-220,-108,-197,-249v21,-124,139,-241,276,-241xm88,-246r24,4v-18,109,46,190,150,192v108,2,214,-102,228,-200v16,-108,-47,-190,-150,-192v-108,-2,-216,102,-228,200","w":660},"e":{"d":"539,-286v1,18,-4,51,-26,51r-405,0v-16,106,53,186,151,186v76,-1,140,-43,177,-90v9,-10,23,-13,34,-3v12,10,13,21,3,32v-45,59,-120,108,-215,109v-127,1,-220,-109,-196,-249v21,-123,140,-240,276,-240v113,0,203,92,201,204xm491,-284v1,-91,-63,-158,-153,-158v-99,-1,-190,79,-217,158r370,0","w":609},"f":{"d":"279,-498v22,-1,27,30,11,42v-19,15,-58,4,-88,7r-76,426v-1,19,-30,33,-44,17v-4,-5,-5,-10,-4,-17r75,-426r-66,0v-22,1,-25,-31,-9,-42v19,-13,54,-4,83,-7v9,-65,25,-135,61,-166v26,-23,61,-35,105,-35v22,-1,25,31,9,42v-6,4,-11,7,-18,7v-72,2,-84,32,-99,100r-9,52r69,0","w":362},"g":{"d":"333,-488v74,-1,143,42,171,100r14,-80v2,-24,34,-26,44,-10v4,6,4,12,3,19r-75,427v-21,145,-204,285,-366,203v-10,-5,-17,-19,-10,-32v8,-13,19,-16,32,-9v132,65,281,-56,297,-171r8,-48v-57,60,-121,90,-194,90v-126,1,-217,-110,-192,-248v21,-119,137,-239,268,-241xm479,-247v17,-107,-45,-192,-147,-192v-103,0,-205,104,-220,201v-16,107,45,191,146,191v106,0,206,-101,221,-200","w":660},"h":{"d":"142,-19v-3,13,-12,22,-29,20v-13,-2,-21,-15,-19,-28r114,-651v1,-21,34,-28,45,-10v4,6,5,11,4,18r-42,248v47,-44,101,-67,162,-68v106,-1,194,89,172,208r-48,263v0,20,-35,28,-45,10v-4,-5,-4,-11,-3,-18r48,-263v13,-90,-41,-148,-124,-151v-87,-3,-173,81,-187,159"},"i":{"d":"120,0v-16,0,-25,-13,-23,-27r77,-443v1,-13,15,-22,28,-20v16,3,22,14,19,29r-78,442v-2,13,-10,19,-23,19xm247,-606v-3,21,-5,46,-32,42v-32,-5,-22,-76,12,-70v12,2,23,14,20,28","w":281},"j":{"d":"242,-608v-4,19,-5,45,-32,42v-11,-2,-20,-14,-18,-28v2,-21,6,-45,29,-41v16,3,24,12,21,27xm-5,166v0,-13,11,-23,24,-23v19,2,43,-22,46,-40r103,-575v1,-11,14,-21,27,-18v15,3,21,12,18,27r-102,574v-6,41,-46,78,-92,79v-13,0,-24,-11,-24,-24","w":249},"k":{"d":"120,2v-17,0,-27,-13,-25,-28r115,-651v1,-21,34,-28,44,-10v4,5,5,11,4,18r-81,463r338,-287v9,-10,26,-7,34,3v10,13,10,23,-2,34r-225,191r149,230v12,16,-1,37,-20,37v-9,0,-16,-4,-21,-11r-145,-224r-122,103r-19,112v-3,13,-11,20,-24,20","w":560},"l":{"d":"126,0v-16,0,-26,-13,-24,-28r115,-651v0,-20,33,-29,44,-11v4,6,5,12,4,19r-115,651v-2,13,-10,20,-24,20","w":249},"m":{"d":"493,-292v16,-85,-39,-146,-121,-148v-86,-2,-169,79,-183,156r-51,276v-10,20,-48,8,-43,-18r78,-442v3,-24,32,-26,43,-10v11,15,-1,38,-2,57v45,-43,97,-66,158,-67v77,-2,137,45,159,105v40,-55,106,-104,192,-105v106,-2,189,88,168,204r-47,267v0,21,-35,25,-44,9v-4,-5,-4,-11,-3,-18r47,-266v13,-88,-41,-146,-121,-148v-87,-1,-169,78,-183,156r-47,267v-3,13,-11,20,-28,19v-12,-1,-22,-14,-19,-28","w":951},"n":{"d":"370,-488v109,-1,188,88,168,204r-47,265v0,21,-34,25,-43,9v-4,-5,-4,-11,-3,-18r46,-264v13,-88,-39,-146,-121,-148v-85,-3,-169,79,-182,155r-48,272v-5,8,-11,15,-26,13v-12,-1,-22,-14,-19,-28r77,-440v2,-19,33,-27,44,-10v11,16,-2,38,-3,57v46,-43,98,-66,157,-67"},"o":{"d":"345,-490v125,0,219,110,192,250r-23,-5r23,5v-18,121,-136,240,-271,240v-125,0,-215,-110,-192,-249v20,-121,138,-241,271,-241xm490,-249v17,-109,-46,-193,-147,-193v-106,-1,-208,104,-222,202v-16,107,45,191,146,193v107,2,208,-104,223,-202","w":625},"p":{"d":"367,-5v-79,0,-138,-36,-174,-96r-50,285v-2,15,-12,22,-28,20v-16,-2,-22,-13,-20,-29r114,-643v0,-21,35,-28,45,-10v4,6,4,12,3,19r-11,62v57,-59,122,-91,195,-91v60,0,107,21,144,59v45,47,65,110,53,188v-18,120,-138,237,-271,236xm590,-249v15,-109,-48,-190,-150,-190v-104,0,-208,102,-222,198v-16,107,48,186,149,188v105,2,210,-100,223,-196","w":660},"q":{"d":"338,-488v78,0,138,38,173,99r14,-79v1,-12,14,-23,28,-20v15,3,23,13,20,29r-115,645v-1,12,-14,22,-28,20v-15,-2,-23,-13,-20,-29r48,-271v-54,60,-120,91,-198,92v-127,1,-219,-110,-196,-247v21,-121,139,-239,274,-239xm112,-241v-19,108,50,188,148,190v108,2,211,-101,226,-198v16,-107,-48,-188,-148,-190v-108,-2,-214,99,-226,198r-24,-4","w":660},"r":{"d":"446,-464v0,13,-11,24,-24,24v-53,-1,-106,26,-159,81v-29,31,-58,73,-82,121r-38,217v-1,23,-32,25,-43,9v-4,-5,-5,-10,-4,-17r78,-439v1,-19,32,-28,42,-10v4,6,5,11,4,18r-17,99v61,-77,140,-130,219,-127v13,0,24,11,24,24","w":439},"s":{"d":"60,-69v-18,-16,3,-42,20,-43v7,-1,12,1,17,6v62,64,160,77,237,29v47,-30,68,-78,23,-117v-38,-33,-165,-44,-204,-77v-67,-57,-33,-144,33,-184v53,-32,118,-47,182,-25v41,14,49,20,80,45v22,18,-9,57,-33,40v-75,-54,-134,-65,-208,-21v-42,25,-62,70,-21,105v19,16,53,26,91,34v49,10,87,23,114,43v33,24,44,55,38,95v-12,76,-112,141,-205,139v-61,-1,-115,-25,-164,-69","w":492},"t":{"d":"42,-465v0,-14,11,-25,25,-25r73,0r31,-191v2,-23,34,-26,45,-10v4,5,5,11,4,18r-31,183r126,0v13,0,24,12,24,25v0,13,-11,24,-24,24r-134,0r-66,365v1,17,10,25,27,26v13,0,25,11,25,24v0,13,-12,25,-25,25v-46,0,-84,-39,-75,-90r64,-350v-35,-3,-88,11,-89,-24","w":400},"u":{"d":"253,-1v-105,1,-188,-88,-167,-203r47,-264v2,-19,33,-28,43,-10v4,5,4,11,3,18r-46,265v-13,86,39,144,120,146v85,3,168,-79,182,-155r47,-264v1,-20,32,-27,42,-10v4,5,5,11,4,18r-46,265v-15,101,-117,194,-229,194"},"v":{"d":"163,-20r-107,-437v-5,-20,16,-37,35,-26v5,3,9,8,10,15r94,381r231,-388v11,-21,40,-12,44,7v2,7,0,13,-3,18r-262,437v-8,16,-38,11,-42,-7","w":582},"w":{"d":"208,-10v-10,15,-36,5,-40,-11r-107,-436v-7,-20,16,-37,35,-26v6,3,10,8,11,15r94,381r161,-270v8,-18,38,-16,44,6r66,264r231,-388v11,-22,39,-12,43,7v2,7,0,13,-3,18r-260,436v-5,10,-22,15,-34,8v-4,-3,-9,-10,-10,-15r-65,-266r-163,274v0,1,-1,2,-3,3","w":861},"x":{"d":"472,-478v11,-12,22,-13,34,-2v12,11,12,23,1,34r-187,205r113,203v10,17,-2,35,-21,36v-9,0,-16,-4,-20,-13r-104,-190r-176,195v-21,23,-57,-9,-36,-32r187,-205r-113,-204v-7,-12,0,-27,9,-32v14,-8,25,-5,33,9r104,190","w":570},"y":{"d":"112,-194v-13,84,41,146,121,146v85,0,167,-78,181,-155r47,-266v1,-18,30,-26,41,-11v5,6,8,12,6,20r-75,426v-21,145,-202,283,-365,204v-15,-7,-17,-19,-10,-34v7,-13,18,-16,32,-9v130,65,281,-55,296,-169r4,-23v-46,43,-98,64,-157,64v-107,1,-187,-85,-167,-202r46,-266v2,-11,15,-22,28,-19v16,3,22,13,19,28","w":588},"z":{"d":"488,-490v23,-1,31,26,18,40r-367,404r271,0v13,0,24,11,24,24v0,13,-11,24,-24,24r-341,-7v-9,-6,-9,-25,-2,-33r367,-405r-271,0v-13,0,-24,-10,-24,-23v0,-13,11,-24,24,-24r325,0","w":554},"{":{"d":"287,139v-51,-11,-90,-27,-115,-45v-51,-36,-47,-85,-28,-156v11,-43,34,-98,32,-146v-2,-46,-43,-60,-99,-60v-17,0,-22,-6,-18,-19v4,-12,13,-19,29,-19v104,0,138,-45,163,-127v24,-80,38,-158,95,-205v47,-39,108,-59,186,-75v12,-3,21,4,17,16v-3,8,-9,13,-17,16v-139,37,-173,53,-211,175v-18,62,-35,136,-76,171v-25,21,-54,38,-91,48v61,19,86,67,62,144v-15,48,-54,141,-28,185v14,25,53,46,117,65v8,2,9,9,7,16v-4,13,-12,19,-25,16","w":480},"|":{"d":"123,116r157,-890v4,-20,26,-30,40,-16v4,4,5,10,4,16r-157,890v-2,21,-26,29,-39,16v-4,-4,-6,-10,-5,-16","w":286},"}":{"d":"318,-713v51,11,89,27,114,45v51,36,48,85,29,156v-11,43,-34,98,-32,146v2,46,43,60,99,60v17,0,22,6,18,19v-4,12,-13,19,-29,19v-104,0,-138,45,-163,127v-24,80,-38,158,-95,205v-47,39,-108,59,-186,75v-12,3,-21,-4,-17,-16v3,-8,9,-13,17,-16v139,-37,173,-53,211,-175v18,-62,35,-136,76,-171v25,-21,54,-38,91,-48v-61,-19,-86,-67,-62,-144v15,-48,53,-141,27,-185v-14,-25,-52,-46,-116,-65v-8,-2,-9,-9,-7,-16v4,-13,12,-19,25,-16","w":480},"~":{"d":"294,-251v-20,2,-110,-43,-128,-41v-27,3,-36,14,-45,38v-8,19,-36,19,-36,-3v12,-51,30,-82,81,-87v20,-2,110,43,128,41v27,-3,36,-14,45,-38v8,-19,36,-19,36,3v-12,51,-30,82,-81,87","w":460},"\u00a1":{"d":"143,-20v0,20,-34,28,-43,10v-4,-6,-6,-12,-5,-19r89,-502v2,-15,12,-22,28,-20v16,2,23,13,20,29xm244,-632v-18,13,-42,-3,-38,-25v4,-21,6,-45,32,-43v29,3,23,55,6,68","w":252},"\u00a2":{"d":"181,-21r31,-82v-88,-30,-151,-132,-129,-252v25,-136,160,-276,322,-267r25,-68v6,-20,32,-27,45,-11v4,6,4,13,1,22r-24,64v42,11,80,36,115,75v15,18,0,45,-22,45v-8,0,-14,-3,-18,-8v-30,-35,-62,-57,-95,-66r-161,432v87,12,140,-12,209,-70v17,-15,42,-8,38,14v-1,6,-4,11,-10,16v-79,67,-146,97,-251,87r-30,80v-6,20,-33,28,-45,11v-4,-6,-4,-13,-1,-22xm390,-576v-132,-4,-235,106,-254,221v-17,99,28,179,97,206","w":581},"\u00a3":{"d":"67,-13v2,-7,7,-12,16,-14r81,-18r63,-260r-66,0v-23,1,-24,-30,-8,-41v20,-13,56,-4,85,-7r28,-118v29,-129,127,-239,273,-239v81,0,140,31,177,93v17,29,-27,60,-46,34v-35,-48,-65,-80,-144,-80v-116,0,-182,85,-208,191r-29,119r278,0v22,-1,23,31,7,41v-6,5,-11,7,-18,7r-278,0r-62,258r354,0v22,-1,23,32,7,41v-6,4,-12,6,-19,6r-481,0v-8,0,-12,-4,-10,-13","w":644},"\u00a5":{"d":"213,-24r21,-143r-154,0v-26,2,-32,-34,-13,-47v6,-5,13,-8,21,-8r154,0r14,-100r-154,0v-26,2,-32,-34,-13,-47v6,-5,13,-8,21,-8r124,0r-163,-280v-13,-26,28,-56,43,-30r175,301r264,-301v14,-20,41,-10,42,11v0,7,-2,14,-7,19r-248,280r126,0v26,-2,32,34,13,47v-6,5,-13,8,-21,8r-154,0r-14,100r154,0v26,-2,32,34,13,47v-6,5,-13,8,-21,8r-154,0r-21,143v-2,18,-30,33,-44,17v-4,-5,-5,-10,-4,-17","w":686},"\u00a8":{"d":"144,-606v-30,-40,35,-101,72,-62v31,40,-35,101,-72,62xm310,-606v-30,-40,35,-101,72,-62v31,40,-35,101,-72,62","w":500},"\u00a9":{"d":"777,-352v0,196,-167,364,-363,364v-196,0,-361,-166,-361,-362v0,-194,168,-362,363,-362v195,0,361,166,361,360xm83,-350v0,183,148,334,331,334v183,0,333,-153,333,-336v0,-180,-149,-332,-331,-332v-183,0,-333,153,-333,334xm526,-250v20,-18,47,14,27,30v-41,36,-86,54,-134,54v-101,0,-182,-87,-182,-190v0,-100,83,-189,183,-189v48,0,90,18,129,50v16,13,8,40,-13,39v-5,0,-10,-2,-16,-7v-33,-28,-66,-42,-101,-42v-78,-2,-138,70,-138,150v0,78,62,149,139,149v38,0,73,-15,106,-44","w":830},"\u00ab":{"d":"210,-65v-1,22,-31,28,-42,10r-106,-179v-10,-21,-7,-28,8,-44r168,-179v13,-18,42,-13,40,10v-1,7,-4,12,-9,17r-157,173r95,175v3,5,4,11,3,17xm411,-82v18,27,-24,53,-39,27r-106,-179v-10,-21,-7,-28,8,-44r168,-179v13,-18,42,-13,40,10v-1,7,-4,12,-9,17r-157,173","w":515},"\u00ae":{"d":"382,-536v0,94,-80,176,-174,176v-95,0,-174,-80,-174,-175v0,-93,81,-175,174,-175v94,0,174,80,174,174xm54,-535v0,84,70,156,154,156v84,0,154,-73,154,-157v0,-83,-70,-155,-154,-155v-84,0,-154,73,-154,156xm258,-471v0,26,3,49,25,45v8,-1,5,-16,-4,-15v-5,-6,-6,-16,-6,-30v0,-23,-11,-42,-33,-51v24,-11,36,-30,36,-57v1,-34,-28,-64,-62,-63r-63,0v-5,0,-7,3,-7,8r0,204v0,5,3,8,8,8v5,0,8,-3,8,-8r0,-87r53,0v23,7,45,20,45,46xm214,-626v26,-1,48,22,47,47v0,25,-21,47,-49,47r-52,0r0,-94r54,0","w":416},"\u00b4":{"d":"216,-592v-15,1,-17,-10,-12,-20r49,-93v10,-23,32,-22,54,-11v18,10,22,18,8,34r-69,77v-8,9,-18,13,-30,13","w":500},"\u00bb":{"d":"341,-447v0,-18,30,-30,42,-10r106,179v10,21,7,28,-8,44r-168,179v-13,18,-42,13,-40,-10v1,-7,4,-12,9,-17r157,-173r-95,-175v-3,-5,-4,-11,-3,-17xm140,-430v-18,-27,24,-53,39,-27r106,179v10,21,7,28,-8,44r-168,179v-13,18,-42,13,-40,-10v1,-7,4,-12,9,-17r157,-173","w":515},"\u00bf":{"d":"372,-649v-2,18,-32,26,-42,9v-7,-12,-1,-26,0,-39v1,-23,31,-24,42,-9v8,11,2,26,0,39xm102,-211v-14,96,46,166,135,166v72,0,131,-41,165,-87v20,-26,55,5,37,28v-43,55,-113,104,-202,105v-115,1,-203,-95,-181,-220v19,-106,118,-201,230,-210r19,-111v1,-22,32,-26,43,-10v4,5,4,11,3,18r-22,125v-3,13,-8,24,-24,23v-96,-3,-190,87,-203,173","w":534},"\u00c0":{"d":"519,-182r-321,0r-93,169v-6,12,-20,17,-33,10v-14,-8,-17,-19,-10,-33r360,-651v7,-20,42,-16,47,7r130,651v2,15,-7,30,-24,29v-14,0,-22,-7,-24,-20xm509,-231r-75,-377r-209,377r284,0xm522,-792v-12,0,-22,-4,-30,-13r-69,-77v-26,-24,16,-41,37,-41v11,0,19,6,25,18r49,93v5,10,3,21,-12,20","w":790},"\u00c1":{"d":"519,-182r-321,0r-93,169v-6,12,-20,17,-33,10v-14,-8,-17,-19,-10,-33r360,-651v7,-20,42,-16,47,7r130,651v2,15,-7,30,-24,29v-14,0,-22,-7,-24,-20xm509,-231r-75,-377r-209,377r284,0xm420,-792v-15,1,-17,-10,-12,-20r49,-93v10,-23,32,-22,54,-11v18,10,22,18,8,34r-69,77v-8,9,-18,13,-30,13","w":790},"\u00c2":{"d":"518,-182r-321,0r-93,169v-5,12,-20,16,-33,10v-14,-8,-17,-19,-10,-33r360,-651v7,-20,42,-16,47,7r130,651v2,15,-7,30,-24,29v-14,0,-22,-7,-24,-20xm508,-231r-75,-377r-209,377r284,0xm470,-863r-70,58v-11,9,-23,13,-34,13v-16,1,-12,-15,-5,-22r84,-88v20,-23,45,-27,64,0r60,88v6,11,4,22,-12,22v-13,0,-23,-4,-31,-13","w":646},"\u00c3":{"d":"519,-182r-321,0r-93,169v-6,12,-20,17,-33,10v-14,-8,-17,-19,-10,-33r360,-651v7,-20,42,-16,47,7r130,651v2,15,-7,30,-24,29v-14,0,-22,-7,-24,-20xm509,-231r-75,-377r-209,377r284,0xm542,-795v-21,2,-103,-41,-122,-41v-19,0,-36,13,-50,38v-8,14,-21,19,-32,9v-7,-7,-3,-16,0,-24v22,-45,38,-70,89,-75v20,-2,103,41,122,41v19,0,36,-13,50,-38v6,-10,13,-14,20,-14v15,-1,19,16,12,29v-23,44,-38,69,-89,75","w":790},"\u00c4":{"d":"518,-182r-321,0r-93,169v-5,12,-20,16,-33,10v-14,-8,-17,-19,-10,-33r360,-651v7,-20,42,-16,47,7r130,651v2,15,-7,30,-24,29v-14,0,-22,-7,-24,-20xm508,-231r-75,-377r-209,377r284,0xm356,-806v-30,-40,35,-101,72,-62v31,40,-35,101,-72,62xm520,-806v-30,-40,35,-101,72,-62v31,40,-35,101,-72,62","w":646},"\u00c5":{"d":"135,-16v-9,19,-40,23,-46,2v-2,-6,-1,-13,3,-19r330,-600v-52,-32,-36,-103,6,-137v39,-31,95,-36,127,0v45,51,-3,125,-48,140r119,597v8,28,-41,49,-48,17r-33,-165r-319,0xm488,-757v-38,0,-76,54,-45,84v40,39,112,-22,77,-69v-8,-10,-18,-15,-32,-15xm252,-230r283,0r-74,-376","w":790},"\u00c6":{"d":"969,-54v22,-1,28,30,11,41v-6,5,-12,7,-19,7r-442,0v-13,0,-25,-12,-22,-26r30,-170r-300,0r-146,188v-12,21,-49,15,-44,-11v1,-3,2,-8,7,-14r509,-651v9,-11,18,-16,29,-16r497,0v22,-1,28,30,11,41v-6,5,-12,7,-19,7r-411,0r-49,275r366,0v22,-1,28,30,11,41v-6,5,-12,7,-19,7r-366,0r-50,281r416,0xm264,-249r272,0r72,-410r-26,0","w":1045},"\u00c7":{"d":"646,-143v18,-15,44,-5,40,17v-1,7,-4,13,-11,18v-87,70,-178,106,-271,109r-74,110v-13,21,-32,26,-51,12v-13,-10,-8,-21,0,-31r79,-93v-173,-11,-285,-165,-252,-360v31,-183,208,-364,414,-362v116,1,179,37,240,98v24,24,-20,64,-42,40v-114,-125,-311,-115,-434,-1v-67,62,-107,137,-124,225v-34,173,77,315,241,315v84,0,167,-31,245,-97","w":738},"\u00c8":{"d":"515,-22v0,13,-11,24,-24,24r-365,0v-15,-3,-23,-13,-20,-29r115,-651v2,-14,11,-20,26,-20r359,0v13,0,24,12,24,25v0,13,-11,24,-24,24r-340,0r-49,277r290,0v13,0,24,11,24,24v0,13,-11,25,-24,25r-299,0r-49,276r332,0v13,0,24,12,24,25xm491,-792v-12,0,-22,-4,-30,-13r-69,-77v-26,-24,16,-41,37,-41v11,0,19,6,25,18r49,93v5,10,3,21,-12,20","w":670},"\u00c9":{"d":"515,-22v0,13,-11,24,-24,24r-365,0v-15,-3,-23,-13,-20,-29r115,-651v2,-14,11,-20,26,-20r359,0v13,0,24,12,24,25v0,13,-11,24,-24,24r-340,0r-49,277r290,0v13,0,24,11,24,24v0,13,-11,25,-24,25r-299,0r-49,276r332,0v13,0,24,12,24,25xm432,-792v-15,1,-17,-10,-12,-20r49,-93v10,-23,32,-22,54,-11v18,10,22,18,8,34r-69,77v-8,9,-18,13,-30,13","w":670},"\u00ca":{"d":"515,-22v0,13,-11,24,-24,24r-365,0v-15,-3,-23,-13,-20,-29r115,-651v2,-14,11,-20,26,-20r359,0v13,0,24,12,24,25v0,13,-11,24,-24,24r-340,0r-49,277r290,0v13,0,24,11,24,24v0,13,-11,25,-24,25r-299,0r-49,276r332,0v13,0,24,12,24,25xm461,-863r-70,58v-11,9,-23,13,-34,13v-16,1,-12,-15,-5,-22r84,-88v20,-23,45,-27,64,0r60,88v6,11,4,22,-12,22v-13,0,-23,-4,-31,-13","w":593},"\u00cb":{"d":"515,-22v0,13,-11,24,-24,24r-365,0v-15,-3,-23,-13,-20,-29r115,-651v2,-14,11,-20,26,-20r359,0v13,0,24,12,24,25v0,13,-11,24,-24,24r-340,0r-49,277r290,0v13,0,24,11,24,24v0,13,-11,25,-24,25r-299,0r-49,276r332,0v13,0,24,12,24,25xm346,-806v-30,-40,35,-101,72,-62v31,40,-35,101,-72,62xm512,-806v-30,-40,35,-101,72,-62v31,40,-35,101,-72,62","w":593},"\u00cc":{"d":"41,2v-16,0,-26,-13,-24,-28r115,-651v0,-20,33,-29,44,-11v4,6,5,12,4,19r-115,651v-2,13,-10,20,-24,20xm202,-792v-12,0,-22,-4,-30,-13r-69,-77v-26,-24,16,-41,37,-41v11,0,19,6,25,18r49,93v5,10,3,21,-12,20","w":274},"\u00cd":{"d":"137,2v-16,0,-26,-13,-24,-28r115,-651v0,-20,33,-29,44,-11v4,6,5,12,4,19r-115,651v-2,13,-10,20,-24,20xm221,-792v-15,1,-17,-10,-12,-20r49,-93v10,-23,32,-22,54,-11v18,10,22,18,8,34r-69,77v-8,9,-18,13,-30,13","w":274},"\u00ce":{"d":"54,2v-16,0,-26,-13,-24,-28r115,-651v0,-20,33,-29,44,-11v4,6,5,12,4,19r-115,651v-2,13,-10,20,-24,20xm195,-863r-70,58v-11,9,-23,13,-34,13v-16,1,-12,-15,-5,-22r84,-88v20,-23,45,-27,64,0r60,88v6,11,4,22,-12,22v-13,0,-23,-4,-31,-13","w":274},"\u00cf":{"d":"46,2v-16,0,-26,-13,-24,-28r115,-651v0,-20,33,-29,44,-11v4,6,5,12,4,19r-115,651v-2,13,-10,20,-24,20","w":274},"\u00d0":{"d":"72,-331v-12,0,-17,-7,-15,-20v2,-12,9,-18,22,-18r84,0r54,-308v2,-12,15,-24,29,-24r131,0v185,-6,325,159,288,351v-26,134,-118,247,-228,302v-59,31,-121,47,-184,47r-133,0v-14,-1,-20,-9,-18,-24r54,-306r-84,0xm262,-50v170,3,328,-149,354,-300v28,-167,-89,-306,-248,-302r-106,0r-50,283r80,0v18,-1,21,25,8,33v-5,4,-10,5,-15,5r-80,0r-49,281r106,0","w":812},"\u00d1":{"d":"130,-2v-16,0,-26,-13,-24,-28r115,-649v0,-7,3,-15,12,-20v14,-8,26,-4,33,10r322,591r102,-580v1,-12,14,-23,28,-20v15,3,23,13,20,29r-114,647v-2,21,-35,28,-46,8r-321,-590r-103,582v-2,13,-10,20,-24,20xm596,-795v-21,2,-103,-41,-122,-41v-19,0,-36,13,-50,38v-8,14,-21,19,-32,9v-7,-7,-3,-16,0,-24v22,-45,38,-70,89,-75v20,-2,103,41,122,41v19,0,36,-13,50,-38v6,-10,13,-14,20,-14v15,-1,19,16,12,29v-23,44,-38,69,-89,75","w":790},"\u00d2":{"d":"352,0v-182,0,-306,-156,-273,-354v29,-174,196,-346,388,-346v180,0,311,159,273,355r-24,-5r24,5v-25,174,-197,345,-388,345xm127,-345v-26,167,73,296,225,297v163,2,317,-156,340,-306v26,-168,-73,-296,-227,-297v-163,-1,-315,157,-338,306xm596,-792v-12,0,-22,-4,-30,-13r-69,-77v-26,-24,16,-41,37,-41v11,0,19,6,25,18r49,93v5,10,3,21,-12,20","w":850},"\u00d3":{"d":"352,0v-182,0,-306,-156,-273,-354v29,-174,196,-346,388,-346v180,0,311,159,273,355r-24,-5r24,5v-25,174,-197,345,-388,345xm127,-345v-26,167,73,296,225,297v163,2,317,-156,340,-306v26,-168,-73,-296,-227,-297v-163,-1,-315,157,-338,306xm465,-792v-15,1,-17,-10,-12,-20r49,-93v10,-23,32,-22,54,-11v18,10,22,18,8,34r-69,77v-8,9,-18,13,-30,13","w":850},"\u00d4":{"d":"352,0v-182,0,-306,-156,-273,-354v29,-174,196,-346,388,-346v180,0,311,159,273,355r-24,-5r24,5v-25,174,-197,345,-388,345xm127,-345v-26,167,73,296,225,297v163,2,317,-156,340,-306v26,-168,-73,-296,-227,-297v-163,-1,-315,157,-338,306xm533,-863r-70,58v-11,9,-23,13,-34,13v-16,1,-12,-15,-5,-22r84,-88v20,-23,45,-27,64,0r60,88v6,11,4,22,-12,22v-13,0,-23,-4,-31,-13","w":850},"\u00d5":{"d":"352,0v-182,0,-306,-156,-273,-354v29,-174,196,-346,388,-346v180,0,311,159,273,355r-24,-5r24,5v-25,174,-197,345,-388,345xm127,-345v-26,167,73,296,225,297v163,2,317,-156,340,-306v26,-168,-73,-296,-227,-297v-163,-1,-315,157,-338,306xm595,-795v-20,2,-103,-41,-122,-41v-19,0,-36,13,-50,38v-8,14,-22,19,-33,9v-7,-7,-2,-16,1,-24v22,-45,38,-69,89,-75v21,-2,103,41,122,41v19,0,36,-13,50,-38v6,-10,13,-14,20,-14v15,-1,19,16,12,29v-23,44,-38,70,-89,75","w":850},"\u00d6":{"d":"352,0v-182,0,-306,-156,-273,-354v29,-174,196,-346,388,-346v180,0,311,159,273,355r-24,-5r24,5v-25,174,-197,345,-388,345xm127,-345v-26,167,73,296,225,297v163,2,317,-156,340,-306v26,-168,-73,-296,-227,-297v-163,-1,-315,157,-338,306xm458,-806v-30,-40,35,-101,72,-62v31,40,-35,101,-72,62xm622,-806v-30,-40,35,-101,72,-62v31,40,-35,101,-72,62","w":850},"\u00d7":{"d":"141,-150v-16,16,-43,6,-39,-16v1,-7,4,-13,11,-18r199,-167r-139,-166v-22,-25,21,-62,42,-36r137,168r197,-169v14,-16,45,-5,39,16v-1,5,-4,12,-11,18r-199,167r139,166v22,25,-21,62,-42,36r-137,-168","w":620},"\u00d8":{"d":"822,-361v-29,186,-207,364,-417,364v-89,0,-160,-27,-213,-82r-80,71v-14,15,-40,8,-37,-13v1,-7,4,-12,9,-16r81,-73v-49,-71,-62,-153,-47,-249v29,-184,207,-362,417,-362v88,0,159,28,213,83r80,-72v14,-15,41,-8,37,13v-1,7,-5,13,-9,16r-82,74v49,69,63,150,48,246xm524,-674v-178,-1,-328,153,-352,315v-12,82,-2,151,37,210r498,-450v-47,-50,-108,-75,-183,-75xm415,-44v178,1,329,-154,353,-315v12,-80,2,-149,-37,-209r-499,449v46,50,107,75,183,75","w":850},"\u00d9":{"d":"335,-1v-150,0,-266,-123,-237,-287r69,-393v1,-12,14,-23,28,-20v15,3,23,13,20,29r-69,392v-24,129,63,230,189,230v132,0,258,-120,279,-238r70,-393v1,-12,14,-23,28,-20v15,3,23,13,20,29r-70,392v-21,143,-168,279,-327,279xm523,-792v-12,0,-22,-4,-30,-13r-69,-77v-26,-24,16,-41,37,-41v11,0,19,6,25,18r49,93v5,10,3,21,-12,20","w":760},"\u00da":{"d":"335,-1v-150,0,-266,-123,-237,-287r69,-393v1,-12,14,-23,28,-20v15,3,23,13,20,29r-69,392v-24,129,63,230,189,230v132,0,258,-120,279,-238r70,-393v1,-12,14,-23,28,-20v15,3,23,13,20,29r-70,392v-21,143,-168,279,-327,279xm451,-792v-15,1,-17,-10,-12,-20r49,-93v10,-23,32,-22,54,-11v18,10,22,18,8,34r-69,77v-8,9,-18,13,-30,13","w":760},"\u00db":{"d":"335,-1v-150,0,-266,-123,-237,-287r69,-393v1,-12,14,-23,28,-20v15,3,23,13,20,29r-69,392v-24,129,63,230,189,230v132,0,258,-120,279,-238r70,-393v1,-12,14,-23,28,-20v15,3,23,13,20,29r-70,392v-21,143,-168,279,-327,279xm500,-863r-70,58v-11,9,-23,13,-34,13v-16,1,-12,-15,-5,-22r84,-88v20,-23,45,-27,64,0r60,88v6,11,4,22,-12,22v-13,0,-23,-4,-31,-13","w":760},"\u00dc":{"d":"347,-1v-150,0,-266,-123,-237,-287r69,-393v1,-12,14,-23,28,-20v15,3,23,13,20,29r-69,392v-24,129,63,230,189,230v132,0,258,-120,279,-238r70,-393v1,-12,14,-23,28,-20v15,3,23,13,20,29r-70,392v-21,143,-168,279,-327,279xm384,-806v-30,-40,35,-101,72,-62v31,40,-35,101,-72,62xm548,-806v-30,-40,35,-101,72,-62v31,40,-35,101,-72,62","w":814},"\u00dd":{"d":"232,-19v-6,33,-54,22,-49,-8r56,-314r-178,-321v-10,-19,6,-41,28,-36v7,2,12,6,15,12r165,299r275,-303v9,-10,25,-11,35,-2v12,11,13,22,2,34r-294,324xm364,-792v-15,1,-17,-10,-12,-20r49,-93v10,-23,32,-22,54,-11v18,10,22,18,8,34r-69,77v-8,9,-18,13,-30,13","w":716},"\u00e0":{"d":"336,-488v74,-1,141,43,170,99r14,-79v1,-20,32,-27,42,-10v4,5,6,11,5,18r-78,440v0,22,-33,26,-43,10v-4,-5,-5,-11,-4,-18r11,-64v-54,60,-119,91,-195,92v-125,1,-214,-109,-191,-248v20,-121,136,-238,269,-240xm481,-248v16,-109,-46,-192,-146,-192v-118,0,-224,111,-225,237v0,88,61,154,148,155v107,1,209,-101,223,-200xm473,-592v-12,0,-22,-4,-30,-13r-69,-77v-26,-24,16,-41,37,-41v11,0,19,6,25,18r49,93v5,10,3,21,-12,20","w":574},"\u00e1":{"d":"336,-488v74,-1,141,43,170,99r14,-79v1,-20,32,-27,42,-10v4,5,6,11,5,18r-78,440v0,22,-33,26,-43,10v-4,-5,-5,-11,-4,-18r11,-64v-54,60,-119,91,-195,92v-125,1,-214,-109,-191,-248v20,-121,136,-238,269,-240xm481,-248v16,-109,-46,-192,-146,-192v-118,0,-224,111,-225,237v0,88,61,154,148,155v107,1,209,-101,223,-200xm301,-592v-15,1,-17,-10,-12,-20r49,-93v10,-23,32,-22,54,-11v18,10,22,18,8,34r-69,77v-8,9,-18,13,-30,13","w":574},"\u00e2":{"d":"336,-488v74,-1,141,43,170,99r14,-79v1,-20,32,-27,42,-10v4,5,6,11,5,18r-78,440v0,22,-33,26,-43,10v-4,-5,-5,-11,-4,-18r11,-64v-54,60,-119,91,-195,92v-125,1,-214,-109,-191,-248v20,-121,136,-238,269,-240xm481,-248v16,-109,-46,-192,-146,-192v-118,0,-224,111,-225,237v0,88,61,154,148,155v107,1,209,-101,223,-200xm414,-663r-70,58v-11,9,-23,13,-34,13v-16,1,-12,-15,-5,-22r84,-88v20,-23,45,-27,64,0r60,88v6,11,4,22,-12,22v-13,0,-23,-4,-31,-13","w":574},"\u00e3":{"d":"336,-488v74,-1,141,43,170,99r14,-79v1,-20,32,-27,42,-10v4,5,6,11,5,18r-78,440v0,22,-33,26,-43,10v-4,-5,-5,-11,-4,-18r11,-64v-54,60,-119,91,-195,92v-125,1,-214,-109,-191,-248v20,-121,136,-238,269,-240xm481,-248v16,-109,-46,-192,-146,-192v-118,0,-224,111,-225,237v0,88,61,154,148,155v107,1,209,-101,223,-200xm476,-595v-21,2,-103,-41,-122,-41v-19,0,-36,13,-50,38v-8,14,-21,19,-32,9v-7,-7,-3,-16,0,-24v22,-45,38,-70,89,-75v20,-2,103,41,122,41v19,0,36,-13,50,-38v6,-10,13,-14,20,-14v15,-1,19,16,12,29v-23,44,-38,69,-89,75","w":574},"\u00e4":{"d":"313,-488v74,-1,141,43,170,99r14,-79v1,-20,33,-27,43,-10v4,5,5,11,4,18r-78,440v0,22,-34,26,-44,10v-4,-5,-4,-11,-3,-18r11,-64v-54,60,-119,91,-195,92v-125,1,-214,-109,-191,-248v20,-121,136,-238,269,-240xm458,-248v16,-109,-46,-192,-146,-192v-118,0,-224,111,-225,237v0,88,61,154,148,155v107,1,209,-101,223,-200xm284,-606v-30,-40,35,-101,72,-62v31,40,-35,101,-72,62xm450,-606v-30,-40,35,-101,72,-62v31,40,-35,101,-72,62","w":619},"\u00e5":{"d":"304,-490v78,0,140,42,168,96r12,-72v2,-22,29,-32,44,-17v4,5,5,10,4,17r-78,442v-1,19,-30,33,-44,17v-4,-5,-5,-10,-4,-17r13,-73v-45,52,-115,95,-201,97v-125,3,-211,-113,-189,-245v20,-121,141,-246,275,-245xm108,-106v63,82,184,70,259,0v42,-39,67,-85,78,-139v21,-106,-50,-198,-149,-198v-106,0,-204,101,-219,198v-8,55,1,101,31,139xm424,-648v-7,45,-58,88,-107,88v-44,0,-82,-42,-74,-88v8,-43,57,-88,105,-88v46,0,84,39,76,88xm374,-682v-26,-36,-83,-1,-88,35v-3,24,15,46,38,46v40,0,76,-46,50,-81","w":574},"\u00e6":{"d":"958,-286v0,18,-2,50,-26,50r-406,0v-16,107,52,187,152,187v76,-1,140,-43,177,-91v12,-18,42,-7,43,12v1,6,-1,13,-6,18v-46,58,-121,107,-215,109v-83,2,-153,-49,-182,-112r-16,93v0,22,-33,26,-43,10v-4,-5,-5,-11,-4,-18r11,-64v-55,60,-120,91,-196,92v-127,1,-215,-109,-192,-249v20,-121,137,-239,270,-241v75,-1,141,43,171,99r14,-79v1,-20,32,-27,42,-10v4,5,6,11,5,18r-14,77v58,-69,129,-105,213,-106v115,-3,204,91,202,205xm471,-249v16,-109,-46,-193,-147,-193v-106,-1,-206,104,-222,201v-17,105,44,192,145,193v107,1,210,-103,224,-201xm910,-284v1,-92,-63,-159,-154,-159v-100,-1,-190,79,-217,159r371,0","w":954},"\u00e7":{"d":"478,-122v17,-15,40,-5,37,16v0,6,-3,11,-8,15v-64,55,-131,85,-201,88r-73,110v-9,13,-19,20,-30,20v-20,0,-39,-19,-22,-39r80,-93v-120,-12,-202,-127,-180,-265v22,-133,158,-269,307,-267v71,0,131,26,178,81v18,21,-20,60,-41,37v-83,-95,-211,-92,-303,-9v-48,43,-76,97,-88,158v-24,120,57,221,171,221v59,0,118,-23,173,-73","w":571},"\u00e8":{"d":"542,-286v1,18,-4,51,-26,51r-405,0v-16,106,53,186,151,186v76,-1,140,-43,177,-90v9,-10,23,-13,34,-3v12,10,13,21,3,32v-45,59,-120,108,-215,109v-127,1,-220,-109,-196,-249v21,-123,140,-240,276,-240v113,0,203,92,201,204xm494,-284v1,-91,-63,-158,-153,-158v-99,-1,-190,79,-217,158r370,0xm442,-592v-12,0,-22,-4,-30,-13r-69,-77v-26,-24,16,-41,37,-41v11,0,19,6,25,18r49,93v5,10,3,21,-12,20","w":584},"\u00e9":{"d":"542,-286v1,18,-4,51,-26,51r-405,0v-16,106,53,186,151,186v76,-1,140,-43,177,-90v9,-10,23,-13,34,-3v12,10,13,21,3,32v-45,59,-120,108,-215,109v-127,1,-220,-109,-196,-249v21,-123,140,-240,276,-240v113,0,203,92,201,204xm494,-284v1,-91,-63,-158,-153,-158v-99,-1,-190,79,-217,158r370,0xm292,-592v-15,1,-17,-10,-12,-20r49,-93v10,-23,32,-22,54,-11v18,10,22,18,8,34r-69,77v-8,9,-18,13,-30,13","w":584},"\u00ea":{"d":"542,-286v1,18,-4,51,-26,51r-405,0v-16,106,53,186,151,186v76,-1,140,-43,177,-90v9,-10,23,-13,34,-3v12,10,13,21,3,32v-45,59,-120,108,-215,109v-127,1,-220,-109,-196,-249v21,-123,140,-240,276,-240v113,0,203,92,201,204xm494,-284v1,-91,-63,-158,-153,-158v-99,-1,-190,79,-217,158r370,0xm395,-663r-70,58v-11,9,-23,13,-34,13v-16,1,-12,-15,-5,-22r84,-88v20,-23,45,-27,64,0r60,88v6,11,4,22,-12,22v-13,0,-23,-4,-31,-13","w":584},"\u00eb":{"d":"539,-286v1,18,-4,51,-26,51r-405,0v-16,106,53,186,151,186v76,-1,140,-43,177,-90v9,-10,23,-13,34,-3v12,10,13,21,3,32v-45,59,-120,108,-215,109v-127,1,-220,-109,-196,-249v21,-123,140,-240,276,-240v113,0,203,92,201,204xm491,-284v1,-91,-63,-158,-153,-158v-99,-1,-190,79,-217,158r370,0xm278,-606v-30,-40,35,-101,72,-62v31,40,-35,101,-72,62xm442,-606v-30,-40,35,-101,72,-62v31,40,-35,101,-72,62","w":609},"\u00ec":{"d":"28,0v-16,0,-25,-13,-23,-27r77,-442v1,-13,15,-22,28,-20v16,3,22,14,19,29r-78,441v-2,13,-10,19,-23,19xm169,-592v-12,0,-22,-4,-30,-13r-69,-77v-26,-24,16,-41,37,-41v11,0,19,6,25,18r49,93v5,10,3,21,-12,20","w":249},"\u00ed":{"d":"126,0v-16,0,-25,-13,-23,-27r77,-442v1,-13,15,-22,28,-20v16,3,22,14,19,29r-78,441v-2,13,-10,19,-23,19xm191,-592v-15,1,-17,-10,-12,-20r49,-93v10,-23,32,-22,54,-11v18,10,22,18,8,34r-69,77v-8,9,-18,13,-30,13","w":249},"\u00ee":{"d":"41,0v-16,0,-25,-13,-23,-27r77,-442v1,-13,15,-22,28,-20v16,3,22,14,19,29r-78,441v-2,13,-10,19,-23,19xm144,-663r-70,58v-11,9,-23,13,-34,13v-16,1,-12,-15,-5,-22r84,-88v20,-23,45,-27,64,0r60,88v6,11,4,22,-12,22v-13,0,-23,-4,-31,-13","w":249},"\u00ef":{"d":"120,0v-16,0,-25,-13,-23,-27r77,-443v1,-13,15,-22,28,-20v16,3,22,14,19,29r-78,442v-2,13,-10,19,-23,19xm104,-606v-30,-40,35,-101,72,-62v31,40,-35,101,-72,62xm270,-606v-30,-40,35,-101,72,-62v31,40,-35,101,-72,62","w":281},"\u00f0":{"d":"531,-433r-111,-208r-133,62v-15,9,-34,-3,-30,-20v2,-9,8,-15,18,-20r127,-57v-6,-13,-19,-25,-17,-44v3,-25,38,-34,50,-11r16,32r93,-44v17,-9,34,3,31,20v-2,9,-8,15,-18,20r-88,40v40,87,101,183,124,281v8,37,7,79,0,124v-21,134,-151,260,-305,260v-136,0,-229,-116,-206,-256v21,-128,144,-242,283,-242v64,0,119,21,166,63xm301,-44v120,0,220,-103,238,-209v19,-112,-65,-199,-176,-199v-120,0,-209,94,-228,201v-19,111,57,207,166,207","w":628},"\u00f1":{"d":"370,-488v109,-1,188,88,168,204r-47,265v0,21,-34,25,-43,9v-4,-5,-4,-11,-3,-18r46,-264v13,-88,-39,-146,-121,-148v-85,-3,-169,79,-182,155r-48,272v-5,8,-11,15,-26,13v-12,-1,-22,-14,-19,-28r77,-440v2,-19,33,-27,44,-10v11,16,-2,38,-3,57v46,-43,98,-66,157,-67xm478,-595v-21,2,-103,-41,-122,-41v-19,0,-36,13,-50,38v-8,14,-21,19,-32,9v-7,-7,-3,-16,0,-24v22,-45,38,-70,89,-75v20,-2,103,41,122,41v19,0,36,-13,50,-38v6,-10,13,-14,20,-14v15,-1,19,16,12,29v-23,44,-38,69,-89,75"},"\u00f2":{"d":"333,-490v125,0,219,110,192,250r-23,-5r23,5v-18,121,-136,240,-271,240v-125,0,-215,-110,-192,-249v20,-121,138,-241,271,-241xm478,-249v17,-109,-46,-193,-147,-193v-106,-1,-208,104,-222,202v-16,107,45,191,146,193v107,2,208,-104,223,-202xm511,-592v-12,0,-22,-4,-30,-13r-69,-77v-26,-24,16,-41,37,-41v11,0,19,6,25,18r49,93v5,10,3,21,-12,20","w":640},"\u00f3":{"d":"333,-490v125,0,219,110,192,250r-23,-5r23,5v-18,121,-136,240,-271,240v-125,0,-215,-110,-192,-249v20,-121,138,-241,271,-241xm478,-249v17,-109,-46,-193,-147,-193v-106,-1,-208,104,-222,202v-16,107,45,191,146,193v107,2,208,-104,223,-202xm278,-592v-15,1,-17,-10,-12,-20r49,-93v10,-23,32,-22,54,-11v18,10,22,18,8,34r-69,77v-8,9,-18,13,-30,13","w":640},"\u00f4":{"d":"333,-490v125,0,219,110,192,250r-23,-5r23,5v-18,121,-136,240,-271,240v-125,0,-215,-110,-192,-249v20,-121,138,-241,271,-241xm478,-249v17,-109,-46,-193,-147,-193v-106,-1,-208,104,-222,202v-16,107,45,191,146,193v107,2,208,-104,223,-202xm409,-663r-70,58v-11,9,-23,13,-34,13v-16,1,-12,-15,-5,-22r84,-88v20,-23,45,-27,64,0r60,88v6,11,4,22,-12,22v-13,0,-23,-4,-31,-13","w":640},"\u00f5":{"d":"333,-490v125,0,219,110,192,250r-23,-5r23,5v-18,121,-136,240,-271,240v-125,0,-215,-110,-192,-249v20,-121,138,-241,271,-241xm478,-249v17,-109,-46,-193,-147,-193v-106,-1,-208,104,-222,202v-16,107,45,191,146,193v107,2,208,-104,223,-202xm429,-595v-20,2,-103,-41,-122,-41v-19,0,-36,13,-50,38v-8,14,-22,19,-33,9v-7,-7,-2,-16,1,-24v22,-45,38,-69,89,-75v21,-2,103,41,122,41v19,0,36,-13,50,-38v6,-10,13,-14,20,-14v15,-1,19,16,12,29v-23,44,-38,70,-89,75","w":640},"\u00f6":{"d":"345,-490v125,0,219,110,192,250r-23,-5r23,5v-18,121,-136,240,-271,240v-125,0,-215,-110,-192,-249v20,-121,138,-241,271,-241xm490,-249v17,-109,-46,-193,-147,-193v-106,-1,-208,104,-222,202v-16,107,45,191,146,193v107,2,208,-104,223,-202xm288,-606v-30,-40,35,-101,72,-62v31,40,-35,101,-72,62xm452,-606v-30,-40,35,-101,72,-62v31,40,-35,101,-72,62","w":625},"\u00f7":{"d":"84,-244r444,0v16,2,41,-21,28,-41v-4,-5,-8,-7,-15,-7r-444,0v-19,0,-36,22,-27,41v3,5,7,7,14,7xm332,-469v5,-25,51,-57,76,-28v10,13,2,31,-1,45v-6,27,-54,56,-77,28v-10,-12,-1,-31,2,-45xm218,-84v5,-25,52,-57,76,-28v10,12,2,31,-1,45v-6,28,-54,57,-77,28v-10,-13,-1,-31,2,-45","w":620},"\u00f8":{"d":"619,-270v-20,137,-158,271,-310,269v-63,0,-116,-20,-157,-60r-56,49v-13,12,-41,12,-36,-11v1,-6,4,-11,8,-15r60,-52v-35,-51,-43,-110,-33,-178v20,-135,158,-267,310,-267v65,0,117,20,156,61r57,-52v13,-12,40,-12,37,11v-1,6,-4,11,-9,15r-61,54v35,49,44,108,34,176xm319,-47v124,1,231,-108,247,-221v8,-54,1,-101,-23,-141r-352,310v33,35,75,52,128,52xm395,-489v-124,-1,-230,108,-247,221v-8,54,-3,100,22,141r353,-309v-34,-35,-77,-53,-128,-53","w":640},"\u00f9":{"d":"253,-1v-105,1,-188,-88,-167,-203r47,-264v2,-19,33,-28,43,-10v4,5,4,11,3,18r-46,265v-13,86,39,144,120,146v85,3,168,-79,182,-155r47,-264v1,-20,32,-27,42,-10v4,5,5,11,4,18r-46,265v-15,101,-117,194,-229,194xm410,-592v-12,0,-22,-4,-30,-13r-69,-77v-26,-24,16,-41,37,-41v11,0,19,6,25,18r49,93v5,10,3,21,-12,20"},"\u00fa":{"d":"253,-1v-105,1,-188,-88,-167,-203r47,-264v2,-19,33,-28,43,-10v4,5,4,11,3,18r-46,265v-13,86,39,144,120,146v85,3,168,-79,182,-155r47,-264v1,-20,32,-27,42,-10v4,5,5,11,4,18r-46,265v-15,101,-117,194,-229,194xm321,-592v-15,1,-17,-10,-12,-20r49,-93v10,-23,32,-22,54,-11v18,10,22,18,8,34r-69,77v-8,9,-18,13,-30,13"},"\u00fb":{"d":"253,-1v-105,1,-188,-88,-167,-203r47,-264v2,-19,33,-28,43,-10v4,5,4,11,3,18r-46,265v-13,86,39,144,120,146v85,3,168,-79,182,-155r47,-264v1,-20,32,-27,42,-10v4,5,5,11,4,18r-46,265v-15,101,-117,194,-229,194xm377,-663r-70,58v-11,9,-23,13,-34,13v-16,1,-12,-15,-5,-22r84,-88v20,-23,45,-27,64,0r60,88v6,11,4,22,-12,22v-13,0,-23,-4,-31,-13"},"\u00fc":{"d":"253,-1v-105,1,-188,-88,-167,-203r47,-264v2,-19,33,-28,43,-10v4,5,4,11,3,18r-46,265v-13,86,39,144,120,146v85,3,168,-79,182,-155r47,-264v1,-20,32,-27,42,-10v4,5,5,11,4,18r-46,265v-15,101,-117,194,-229,194xm248,-606v-30,-40,35,-101,72,-62v31,40,-35,101,-72,62xm412,-606v-30,-40,35,-101,72,-62v31,40,-35,101,-72,62"},"\u00fd":{"d":"112,-194v-13,84,41,146,121,146v85,0,167,-78,181,-155r47,-266v1,-18,30,-26,41,-11v5,6,8,12,6,20r-75,426v-21,145,-202,283,-365,204v-15,-7,-17,-19,-10,-34v7,-13,18,-16,32,-9v130,65,281,-55,296,-169r4,-23v-46,43,-98,64,-157,64v-107,1,-187,-85,-167,-202r46,-266v2,-11,15,-22,28,-19v16,3,22,13,19,28xm326,-592v-15,1,-17,-10,-12,-20r49,-93v10,-23,32,-22,54,-11v18,10,22,18,8,34r-69,77v-8,9,-18,13,-30,13","w":588},"\u00ff":{"d":"112,-194v-13,84,41,146,121,146v85,0,167,-78,181,-155r47,-266v1,-18,30,-26,41,-11v5,6,8,12,6,20r-75,426v-21,145,-202,283,-365,204v-15,-7,-17,-19,-10,-34v7,-13,18,-16,32,-9v130,65,281,-55,296,-169r4,-23v-46,43,-98,64,-157,64v-107,1,-187,-85,-167,-202r46,-266v2,-11,15,-22,28,-19v16,3,22,13,19,28xm234,-606v-30,-40,35,-101,72,-62v31,40,-35,101,-72,62xm400,-606v-30,-40,35,-101,72,-62v31,40,-35,101,-72,62","w":588},"\u0152":{"d":"630,0v-11,-1,-20,-12,-17,-24r29,-165v-65,99,-183,185,-330,189v-183,4,-309,-161,-275,-355v31,-178,204,-355,401,-355v134,0,229,83,262,189r28,-155v1,-13,15,-24,28,-24r360,0v23,-1,27,31,10,42v-6,5,-12,7,-19,7r-335,0r-49,277r293,0v21,-1,26,31,10,42v-6,5,-11,7,-18,7r-293,0r-49,276r335,0v13,0,23,11,20,25v-4,16,-14,24,-29,24r-362,0xm429,-660v-168,0,-318,151,-343,305v-27,167,78,306,235,306v164,0,314,-156,339,-306v28,-166,-77,-305,-231,-305","w":1152},"\u0153":{"d":"967,-286v0,18,-2,50,-26,50r-406,0v-16,107,52,187,152,187v76,-1,140,-43,177,-91v12,-18,42,-7,43,12v1,6,-1,13,-6,18v-46,58,-121,108,-215,109v-98,1,-174,-63,-195,-149v-42,77,-129,147,-237,148v-125,1,-215,-110,-192,-249v20,-121,138,-240,271,-241v94,-1,172,64,189,150v43,-78,133,-146,243,-149v115,-3,204,91,202,205xm478,-251v17,-109,-46,-193,-147,-193v-106,-1,-208,104,-222,202v-16,107,45,191,146,193v107,2,208,-104,223,-202xm919,-284v1,-92,-63,-159,-154,-159v-100,-1,-190,79,-217,159r371,0","w":1055},"\u0178":{"d":"287,-841v33,0,39,46,15,61v-21,22,-65,5,-56,-25v1,-18,22,-36,41,-36xm454,-841v33,0,39,46,15,61v-21,22,-65,5,-56,-25v1,-18,22,-36,41,-36xm232,-19v-6,33,-54,22,-49,-8r56,-314r-178,-321v-10,-19,6,-41,28,-36v7,2,12,6,15,12r165,299r275,-303v9,-10,25,-11,35,-2v12,11,13,22,2,34r-294,324","w":716},"\u02c6":{"d":"257,-663r-70,58v-11,9,-23,13,-34,13v-16,1,-12,-15,-5,-22r84,-88v20,-23,45,-27,64,0r60,88v6,11,4,22,-12,22v-13,0,-23,-4,-31,-13","w":500},"\u02dc":{"d":"314,-595v-21,2,-103,-41,-122,-41v-19,0,-36,13,-50,38v-8,14,-21,19,-32,9v-7,-7,-3,-16,0,-24v22,-45,38,-70,89,-75v20,-2,103,41,122,41v19,0,36,-13,50,-38v6,-10,13,-14,20,-14v15,-1,19,16,12,29v-23,44,-38,69,-89,75","w":500},"\u2013":{"d":"90,-271v-23,1,-28,-32,-11,-44v6,-5,13,-8,20,-8r344,0v24,-1,30,33,11,45v-7,4,-13,7,-20,7r-344,0","w":528},"\u2014":{"d":"89,-271v-24,1,-24,-32,-7,-44v7,-5,13,-8,20,-8r714,0v24,-1,25,35,7,45v-7,4,-13,7,-20,7r-714,0","w":898},"\u2018":{"d":"196,-537v12,6,18,29,-1,28v-13,0,-33,-11,-60,-32v-24,-18,-41,-76,-53,-129v-7,-30,28,-43,50,-24v13,11,16,26,20,45v3,19,-3,30,-20,35v5,33,26,59,64,77","w":230},"\u2019":{"d":"73,-509v-19,0,-13,-22,-1,-28v38,-18,59,-44,64,-77v-27,-5,-21,-32,-16,-56v5,-23,43,-47,62,-23v11,14,2,32,-1,48v-10,52,-27,87,-48,104v-27,22,-47,32,-60,32","w":230},"\u201c":{"d":"375,-703v19,0,13,22,1,28v-38,18,-59,44,-64,77v27,5,21,32,16,56v-5,23,-43,47,-62,23v-11,-14,-2,-32,1,-48v10,-52,27,-87,48,-104v27,-22,47,-32,60,-32xm195,-703v19,0,13,22,1,28v-38,18,-59,44,-64,77v27,5,21,32,16,56v-5,23,-43,47,-62,23v-11,-14,-2,-32,1,-48v10,-52,27,-87,48,-104v27,-22,47,-32,60,-32","w":410},"\u201d":{"d":"73,-509v-19,0,-13,-22,-1,-28v38,-18,59,-44,64,-77v-27,-5,-21,-32,-16,-56v5,-23,43,-47,62,-23v11,14,2,32,-1,48v-10,52,-27,87,-48,104v-27,22,-47,32,-60,32xm253,-509v-19,0,-13,-22,-1,-28v38,-18,59,-44,64,-77v-27,-5,-21,-32,-16,-56v5,-23,43,-47,62,-23v11,14,2,32,-1,48v-10,52,-27,87,-48,104v-27,22,-47,32,-60,32","w":410},"\u201e":{"d":"68,97v-19,0,-13,-22,-1,-28v38,-18,59,-44,64,-77v-27,-5,-21,-32,-16,-56v5,-23,44,-47,63,-23v11,14,1,32,-2,48v-9,52,-26,86,-48,104v-27,22,-47,32,-60,32xm248,97v-19,0,-13,-22,-1,-28v38,-18,59,-44,64,-77v-27,-5,-21,-32,-16,-56v5,-23,44,-47,63,-23v11,14,1,32,-2,48v-9,52,-26,86,-48,104v-27,22,-47,32,-60,32","w":410},"\u2022":{"d":"318,-264v-51,44,-133,52,-174,0v-69,-89,30,-212,127,-212v63,0,115,60,100,125v-8,34,-25,62,-53,87","w":470},"\u2026":{"d":"193,-98v31,41,-12,98,-60,98v-32,0,-48,-24,-44,-58v5,-44,73,-80,104,-40xm434,-98v31,41,-12,98,-60,98v-32,0,-48,-24,-44,-58v5,-44,73,-80,104,-40xm675,-98v31,41,-12,98,-60,98v-32,0,-48,-24,-44,-58v5,-44,73,-80,104,-40","w":680},"\u2039":{"d":"210,-66v-1,22,-31,28,-42,10r-106,-179v-10,-21,-7,-28,8,-44r168,-179v13,-18,42,-13,40,10v-1,7,-4,12,-9,17r-157,173r95,175v3,5,4,11,3,17","w":311},"\u203a":{"d":"137,-448v0,-18,30,-30,42,-10r106,179v10,21,7,28,-8,44r-168,179v-13,18,-42,13,-40,-10v1,-7,4,-12,9,-17r157,-173r-95,-175v-3,-5,-4,-11,-3,-17","w":311},"\u2122":{"d":"84,-400v-8,-1,-11,-5,-10,-12r47,-268r-89,0v-7,0,-10,-4,-10,-11v0,-7,3,-10,10,-10r203,0v7,0,10,3,10,10v0,7,-3,11,-10,11r-93,0r-47,271v-1,6,-5,9,-11,9xm515,-399v-8,0,-11,-5,-10,-12r43,-245r-120,134v-5,5,-14,4,-18,-3r-73,-134r-44,251v-1,7,-5,9,-13,9v-6,-1,-10,-5,-9,-12r50,-280v2,-11,14,-12,21,-4r80,148r134,-149v6,-8,21,-3,19,8r-50,280v-1,6,-4,9,-10,9","w":690}}});
