/*!
 * The following copyright notice may not be removed under any circumstances.
 * 
 * Copyright:
 * Copyright (c) Andrew Paglinawan, 2008. All rights reserved.
 * 
 * Trademark:
 * Quicksand Bold is a trademark of the Andrew Paglinawan.
 * 
 * Manufacturer:
 * Andrew Paglinawan
 * 
 * Designer:
 * Andrew Paglinawan
 */
Cufon.registerFont({"w":613,"face":{"font-family":"Quicksand Bold","font-weight":700,"font-stretch":"normal","units-per-em":"1000","panose-1":"0 0 0 0 0 0 0 0 0 0","ascent":"800","descent":"-200","x-height":"3","bbox":"-24 -950 1097 188","underline-thickness":"50","underline-position":"-50","unicode-range":"U+0020-U+2122"},"glyphs":{" ":{"w":300},"\u00a0":{"w":300},"!":{"d":"202,-241v1,30,-24,55,-54,55v-30,0,-56,-25,-55,-55r0,-404v-1,-29,26,-55,55,-55v29,0,55,26,54,55r0,404xm148,-130v36,1,54,31,54,75v0,30,-24,56,-54,55v-37,-1,-55,-31,-55,-75v0,-29,26,-56,55,-55","w":252},"\"":{"d":"322,-395v-20,0,-35,-16,-33,-38r17,-214v2,-30,25,-57,57,-56r40,0v28,1,38,25,28,55r-73,222v-7,21,-19,31,-36,31xm103,-395v-20,0,-36,-16,-34,-38r18,-214v2,-30,25,-57,57,-56r39,0v29,1,40,25,29,55r-73,222v-7,21,-19,31,-36,31","w":410},"#":{"d":"640,-213v0,28,-24,53,-52,52r-75,0r-21,123v-3,41,-65,58,-92,24v-10,-13,-15,-26,-12,-42r19,-105r-157,0r-21,123v-3,40,-66,59,-93,25v-10,-12,-14,-26,-11,-43r18,-105r-46,0v-29,1,-52,-23,-52,-52v0,-28,24,-53,52,-52r64,0r30,-174r-58,0v-27,1,-52,-25,-52,-52v0,-27,25,-53,52,-52r76,0r20,-119v3,-41,65,-58,91,-24v10,13,16,26,13,42r-18,101r157,0r20,-119v3,-41,66,-59,92,-24v10,13,15,27,12,42r-17,101r46,0v28,-1,52,24,52,52v0,27,-25,53,-52,52r-64,0r-30,174r57,0v29,-1,52,23,52,52xm268,-265r156,0r30,-174r-156,0","w":700},"$":{"d":"83,-508v0,-115,97,-183,210,-191v-5,-38,13,-64,44,-64v32,0,48,27,43,65v55,7,107,26,155,55v20,12,30,27,30,48v1,41,-48,70,-86,46v-36,-23,-70,-37,-103,-44r0,192v76,19,132,45,166,77v34,32,51,76,51,129v-1,117,-97,186,-213,195r0,60v1,23,-20,43,-43,43v-23,0,-45,-20,-44,-43r0,-62v-74,-8,-142,-35,-205,-78v-18,-12,-27,-27,-27,-48v0,-43,53,-71,88,-44v49,37,99,58,148,67r0,-197v-75,-19,-129,-45,-163,-76v-34,-31,-51,-75,-51,-130xm376,-101v56,-5,99,-32,99,-87v0,-61,-39,-75,-99,-95r0,182xm297,-599v-55,4,-96,32,-96,84v0,61,37,72,96,93r0,-177","w":632},"&":{"d":"421,-357v23,0,37,5,51,-2v0,-25,-7,-43,5,-63v14,-23,49,-36,77,-18v23,15,28,39,29,74v0,45,-21,87,-54,102v15,148,-103,264,-240,264v-130,0,-240,-110,-240,-240v0,-71,26,-129,78,-176v-19,-30,-28,-63,-28,-98v-3,-100,86,-186,186,-186v100,0,186,86,186,186v0,30,-25,55,-55,55v-30,0,-57,-25,-56,-55v1,-41,-34,-75,-75,-75v-40,0,-76,35,-75,75v0,26,10,47,32,61v32,20,27,79,-4,93v-42,19,-77,62,-78,120v-1,70,59,129,129,129v72,0,134,-59,130,-135v-58,4,-89,5,-83,52v5,38,-15,70,-53,71v-28,0,-46,-13,-53,-40v-4,-6,-6,-20,-6,-42v0,-101,86,-152,197,-152","w":696},"'":{"d":"103,-395v-20,0,-36,-16,-34,-38r18,-214v2,-30,25,-57,57,-56r39,0v29,1,40,24,30,55r-73,222v-7,21,-20,31,-37,31","w":230},"(":{"d":"373,31v0,34,-29,64,-65,63v-96,-2,-155,-62,-190,-135v-53,-110,-61,-338,-22,-471v21,-69,52,-121,95,-154v34,-27,74,-40,119,-40v34,-1,63,29,63,63v0,34,-29,64,-63,64v-45,0,-58,25,-77,62v-55,112,-51,401,35,471v11,9,25,14,42,14v34,0,63,29,63,63","w":430},")":{"d":"60,-643v0,-34,29,-64,63,-63v45,0,85,13,119,40v84,66,121,199,120,360v-1,163,-32,291,-120,361v-34,27,-73,39,-119,39v-34,0,-63,-29,-63,-63v0,-34,29,-63,63,-63v17,0,31,-5,42,-14v21,-15,37,-45,50,-89v36,-129,31,-366,-50,-431v-11,-9,-25,-13,-42,-13v-34,1,-63,-30,-63,-64","w":430},"*":{"d":"361,-504v37,11,25,66,-11,65v-6,0,-14,-3,-24,-10r-75,-55r10,89v7,32,-35,51,-55,27v-6,-7,-8,-15,-7,-26r10,-90r-75,55v-25,22,-57,5,-58,-24v0,-14,8,-24,23,-31r88,-38r-88,-39v-37,-12,-25,-65,11,-64v7,0,15,3,24,10r75,55r-10,-89v-7,-32,35,-51,55,-27v6,7,8,15,7,26r-10,90r75,-55v22,-21,58,-6,58,23v0,14,-8,24,-23,31r-88,39","w":430},"+":{"d":"318,-101v-31,0,-58,-26,-57,-57r0,-139r-142,0v-30,1,-55,-25,-55,-55v0,-29,26,-55,55,-55r142,0r0,-139v-1,-31,26,-57,57,-57v30,0,57,26,57,57r0,139r142,0v29,-1,55,26,55,55v0,30,-25,56,-55,55r-142,0r0,139v1,31,-27,57,-57,57","w":620},",":{"d":"228,-55v0,111,-54,200,-143,200v-21,0,-31,-9,-31,-28v0,-15,8,-23,23,-27v48,-14,70,-45,68,-90v-31,-10,-57,-34,-57,-76v0,-38,29,-68,68,-67v48,0,72,37,72,88","w":230},"-":{"d":"372,-306v0,31,-28,60,-59,59r-188,0v-31,1,-59,-28,-59,-59v0,-32,28,-61,59,-60r188,0v31,-1,59,28,59,60","w":408},".":{"d":"156,7v-40,0,-74,-34,-74,-74v0,-40,34,-75,74,-75v40,0,75,35,75,75v0,40,-35,74,-75,74","w":230},"\/":{"d":"135,0v-39,-1,-67,-36,-50,-76r245,-583v9,-24,39,-41,73,-29v22,8,41,40,28,71r-245,584v-9,22,-26,33,-51,33","w":422},"0":{"d":"133,-111v-87,-123,-87,-355,0,-478v51,-72,111,-111,186,-111v86,0,146,55,185,111v88,127,88,351,0,478v-39,56,-100,111,-185,111v-75,0,-135,-38,-186,-111xm412,-173v63,-92,64,-263,0,-355v-57,-83,-130,-82,-188,0v-64,92,-63,263,0,355v56,81,132,82,188,0","w":710},"1":{"d":"188,-692v34,-19,79,0,83,37r2,10r0,590v1,30,-26,55,-56,55v-30,0,-56,-25,-55,-55r0,-492v-22,10,-39,29,-68,31v-33,2,-62,-34,-54,-70v4,-15,12,-26,25,-33","w":335},"2":{"d":"277,-700v129,0,240,107,240,240v0,71,-26,131,-79,178r-189,171r213,0v30,-1,55,26,55,56v0,30,-25,56,-55,55r-356,0v-50,3,-74,-63,-38,-96r296,-268v28,-25,42,-57,42,-96v1,-71,-59,-129,-129,-129v-49,0,-90,33,-118,61v-35,35,-96,0,-92,-44v3,-32,31,-48,49,-66v44,-41,98,-62,161,-62","w":590},"3":{"d":"460,-701v41,-1,72,44,50,83v-4,7,-7,11,-10,14r-126,130v81,36,143,124,143,224v0,134,-115,249,-249,249v-68,0,-126,-24,-175,-73v-11,-11,-17,-24,-17,-40v-2,-48,63,-75,97,-40v26,26,58,39,95,39v73,0,136,-62,136,-135v0,-73,-60,-135,-135,-135v-44,0,-82,-62,-44,-99r102,-104r-162,0v-30,1,-56,-26,-56,-57v0,-30,26,-57,56,-56r295,0","w":610},"4":{"d":"534,-645r0,404v38,-4,66,22,66,55v0,33,-28,59,-66,55r0,76v1,30,-25,55,-55,55v-30,0,-56,-25,-55,-55r0,-76r-315,0v-47,1,-72,-54,-43,-89r375,-466v34,-28,93,-10,93,41xm424,-241r0,-247r-199,247r199,0","w":664},"5":{"d":"163,-344v-35,35,-103,9,-96,-47r30,-259v5,-28,25,-50,58,-50r295,0v31,-1,57,26,57,57v0,30,-26,57,-57,56r-246,0r-12,99v170,-46,315,85,315,240v0,133,-115,248,-250,248v-69,0,-126,-26,-174,-73v-35,-34,-9,-99,39,-97v16,0,30,6,41,17v26,27,58,40,96,40v72,0,135,-64,135,-135v0,-73,-61,-137,-135,-135v-39,0,-71,13,-96,39","w":605},"6":{"d":"67,-217v-16,-193,47,-360,161,-435v44,-29,94,-44,150,-47v47,-3,78,58,43,92v-11,11,-24,18,-39,19v-86,3,-142,56,-170,124v166,-73,339,59,339,222v0,130,-112,242,-243,242v-125,0,-231,-100,-241,-217xm177,-242v0,72,60,131,131,131v71,0,132,-60,132,-131v0,-70,-61,-132,-132,-132v-70,0,-131,62,-131,132","w":642},"7":{"d":"462,-700v35,0,68,36,51,76r-250,591v-9,28,-42,41,-72,29v-23,-9,-43,-40,-30,-72r216,-513r-258,0v-29,1,-55,-27,-55,-56v0,-30,25,-56,55,-55r343,0","w":587},"8":{"d":"295,-700v87,0,164,76,164,164v0,38,-11,71,-33,99v58,39,105,109,107,199v3,127,-111,238,-238,238v-128,0,-243,-111,-240,-238v2,-90,48,-161,107,-199v-22,-28,-33,-61,-33,-99v0,-89,77,-164,166,-164xm350,-536v0,-29,-26,-55,-55,-55v-31,0,-57,25,-57,55v0,30,26,57,57,57v29,0,55,-28,55,-57xm295,-368v-71,0,-131,60,-131,130v0,69,61,129,131,129v69,0,129,-60,129,-129v0,-69,-60,-130,-129,-130","w":630},"9":{"d":"550,-483v16,193,-47,360,-161,435v-44,29,-94,44,-150,47v-47,3,-78,-58,-43,-92v11,-11,24,-18,39,-19v86,-3,142,-56,170,-124v-166,73,-339,-59,-339,-222v0,-130,112,-242,243,-242v125,0,231,100,241,217xm440,-458v0,-72,-60,-131,-131,-131v-71,0,-132,60,-132,131v0,70,61,132,132,132v70,0,131,-62,131,-132","w":642},":":{"d":"161,7v-40,0,-74,-34,-74,-74v0,-40,34,-75,74,-75v40,0,75,35,75,75v0,40,-35,74,-75,74xm161,-391v-40,0,-74,-34,-74,-74v0,-40,34,-75,74,-75v40,0,75,35,75,75v0,40,-35,74,-75,74","w":240},";":{"d":"183,-370v-48,0,-87,-38,-87,-87v0,-47,39,-85,87,-85v48,0,87,38,87,87v0,47,-39,85,-87,85xm268,-54v0,118,-64,212,-171,216v-25,0,-38,-11,-38,-34v0,-17,10,-28,30,-33v46,-10,79,-42,77,-95v-36,-8,-70,-40,-70,-84v0,-48,35,-83,83,-82v60,0,89,48,89,112","w":240},"<":{"d":"74,-309v-18,-15,-17,-60,-1,-75v1,-3,3,-5,6,-7r281,-285v13,-12,28,-18,46,-18v54,-3,83,69,44,108r-237,239r237,239v13,13,19,29,19,46v2,52,-70,84,-109,44r-281,-285v-2,-1,-4,-3,-5,-6","w":620},"=":{"d":"336,-295v0,19,-15,37,-35,36r-186,0v-19,1,-36,-17,-36,-36v0,-19,17,-37,36,-36r186,0v20,-1,35,17,35,36xm336,-407v0,20,-15,35,-35,35r-186,0v-19,0,-37,-15,-36,-35v0,-18,17,-36,36,-35r186,0v19,-1,35,17,35,35","w":620},">":{"d":"485,-391v24,16,24,73,0,88r-281,285v-12,12,-27,18,-45,18v-54,2,-85,-68,-45,-108r237,-239r-237,-239v-41,-37,-11,-111,44,-108v18,0,33,6,46,18","w":620},"?":{"d":"183,-49v0,-39,17,-67,49,-67v33,0,49,28,49,67v0,27,-22,49,-49,49v-26,0,-49,-22,-49,-49xm232,-700v113,-2,211,97,211,210v0,102,-76,185,-162,204r0,65v1,27,-22,49,-49,49v-26,0,-50,-22,-49,-49r1,-106v-5,-25,23,-52,48,-51v60,2,114,-52,114,-112v0,-61,-53,-112,-114,-112v-43,0,-75,18,-96,55v-12,21,-41,33,-68,18v-21,-12,-31,-41,-17,-67v32,-57,98,-102,181,-104","w":534},"@":{"d":"53,-351v0,-187,161,-349,349,-349v188,0,350,162,350,349v0,75,-22,153,-64,197v-32,33,-56,50,-104,51v-47,1,-80,-31,-92,-67v-28,15,-58,22,-90,22v-108,3,-193,-96,-193,-203v0,-108,87,-202,193,-202v108,0,202,95,194,214r0,119v34,-27,44,-81,45,-131v3,-129,-110,-238,-239,-238v-127,0,-238,111,-238,238v0,147,135,272,298,233v48,-11,85,37,60,82v-19,34,-76,35,-120,36v-188,5,-349,-162,-349,-351xm402,-259v46,0,83,-44,83,-92v0,-25,-7,-48,-25,-66v-17,-17,-37,-25,-58,-25v-45,-1,-82,44,-82,91v0,48,34,92,82,92","w":980},"A":{"d":"510,-35r-49,-130r-243,0r-49,130v-12,46,-87,44,-103,3v-5,-14,-6,-28,-1,-43r221,-589v8,-19,28,-35,53,-35v25,0,44,10,53,35r221,589v12,41,-11,74,-52,75v-25,0,-42,-12,-51,-35xm258,-275r162,0r-81,-215","w":646},"B":{"d":"554,-215v2,115,-99,216,-214,215r-178,-1v-30,5,-58,-24,-58,-54r0,-590v0,-31,25,-55,59,-55r138,0v103,-3,190,87,190,190v0,42,-13,80,-38,114v55,34,99,99,101,181xm380,-510v0,-43,-36,-79,-79,-79r-86,0r0,160r86,0v43,1,79,-38,79,-81xm443,-215v0,-56,-48,-103,-103,-103r-125,0r0,207r125,0v55,0,103,-48,103,-104","w":594},"C":{"d":"187,-360v0,136,121,246,253,246v61,0,114,-19,161,-55v39,-30,100,5,91,53v-3,16,-9,29,-21,38v-67,52,-144,78,-231,78v-194,0,-367,-167,-367,-360v0,-193,174,-360,367,-360v87,0,164,26,231,78v23,18,30,54,10,80v-16,23,-56,31,-80,11v-96,-80,-253,-72,-341,17v-49,50,-73,108,-73,174","w":771},"D":{"d":"626,-351v0,189,-160,356,-349,351r-118,0v-30,1,-56,-25,-55,-55r0,-590v-1,-30,25,-56,55,-55r118,0v188,-5,349,162,349,349xm515,-351v0,-127,-110,-242,-238,-238r-62,0r0,478r62,0v128,2,238,-110,238,-240","w":719},"E":{"d":"541,-55v0,28,-27,56,-55,55r-326,-1v-28,5,-56,-25,-56,-54r0,-590v0,-31,25,-55,58,-55r324,0v29,-1,55,26,55,55v0,29,-26,57,-55,56r-271,0r0,183r233,0v28,-1,55,27,55,55v0,30,-25,57,-55,56r-233,0r0,184r271,0v29,-1,55,27,55,56","w":593},"F":{"d":"215,-55v1,30,-26,55,-56,55v-30,0,-56,-25,-55,-55r0,-590v0,-31,25,-55,58,-55r324,0v28,-1,55,27,55,55v0,29,-26,57,-55,56r-271,0r0,183r233,0v28,-1,55,27,55,55v0,30,-25,57,-55,56r-233,0r0,240","w":605},"G":{"d":"693,-125v-4,21,-9,35,-24,47v-68,51,-142,78,-227,78v-197,0,-369,-163,-369,-359v0,-196,172,-361,369,-361v86,0,161,27,228,78v23,17,31,55,11,81v-17,23,-56,30,-81,9v-98,-79,-252,-66,-338,19v-95,95,-97,251,0,346v80,78,212,97,317,35r0,-137r-143,0v-30,1,-57,-27,-57,-57v0,-31,26,-57,57,-56r199,0v31,-1,59,25,58,56r0,221","w":814},"H":{"d":"215,-55v1,30,-26,55,-56,55v-30,0,-56,-25,-55,-55r0,-590v-1,-30,25,-55,55,-55v30,0,57,25,56,55r0,240r259,0r0,-240v-1,-30,25,-55,55,-55v30,0,57,25,56,55r0,590v1,30,-26,55,-56,55v-30,0,-56,-25,-55,-55r0,-240r-259,0r0,240","w":709},"I":{"d":"166,0v-30,0,-56,-25,-55,-55r0,-590v-1,-30,25,-55,55,-55v30,0,57,25,56,55r0,590v1,30,-26,55,-56,55","w":305},"J":{"d":"537,-248v4,134,-115,248,-249,248v-115,0,-209,-79,-236,-172v-14,-47,30,-87,78,-66v14,7,22,17,27,32v16,51,67,95,131,95v73,0,138,-64,138,-137r0,-397v-1,-30,26,-55,56,-55v30,0,56,25,55,55r0,397","w":594},"K":{"d":"214,-55v1,30,-25,55,-55,55v-30,0,-56,-25,-55,-55r0,-585v-1,-29,26,-55,55,-55v29,0,56,26,55,55r0,287r324,-325v32,-35,97,-8,94,39v0,15,-5,28,-16,39r-220,219r222,291v31,35,0,92,-43,90v-16,0,-30,-6,-41,-20r-216,-283r-104,106r0,142","w":715},"L":{"d":"541,-55v0,28,-27,56,-55,55r-327,0v-30,1,-56,-25,-55,-55r0,-590v-1,-30,25,-55,55,-55v30,0,57,25,56,55r0,534r271,0v29,-1,55,27,55,56","w":563},"M":{"d":"104,-645v0,-31,25,-55,58,-55v19,0,33,8,44,23r199,276r199,-276v27,-44,102,-19,102,32r0,590v1,29,-27,55,-56,55v-30,0,-56,-25,-55,-55r0,-421r-144,200v-21,31,-72,31,-93,0r-143,-200r0,421v1,30,-26,55,-56,55v-30,0,-56,-25,-55,-55r0,-590","w":844},"N":{"d":"635,-55v2,48,-66,76,-96,35r-325,-450r0,415v1,28,-26,55,-54,55v-30,0,-56,-25,-55,-55r0,-582v-4,-33,29,-61,63,-55v15,2,26,9,35,21r323,447r0,-412v-1,-28,26,-54,54,-54v28,0,56,26,55,54r0,581","w":771},"O":{"d":"73,-360v0,-235,234,-439,475,-332v117,51,209,188,209,332v0,146,-93,280,-209,332v-84,38,-183,37,-266,0v-117,-52,-209,-182,-209,-332xm417,-114v122,0,226,-118,226,-246v0,-127,-102,-246,-226,-246v-128,0,-230,115,-230,246v0,131,104,246,230,246","w":850},"P":{"d":"338,-700v115,-3,215,100,215,215v0,115,-100,213,-215,213r-123,0r0,217v1,30,-26,55,-56,55v-30,0,-56,-25,-55,-55r0,-590v-1,-30,25,-55,56,-55r178,0xm338,-383v56,2,104,-48,104,-102v0,-56,-47,-104,-104,-104r-123,0r0,206r123,0","w":583},"Q":{"d":"66,-341v0,-192,159,-369,350,-369v100,0,179,40,248,111v134,138,135,383,0,519v-37,38,-80,68,-134,88v85,45,138,53,210,-2v41,-32,101,5,93,53v-2,16,-10,29,-23,40v-117,88,-222,82,-351,3v-35,-22,-102,-15,-132,2v-21,12,-41,11,-58,-3r-8,-3v-32,-33,-22,-87,16,-102v-41,-19,-80,-43,-111,-76v-69,-72,-100,-161,-100,-261xm650,-341v0,-135,-107,-253,-234,-251v-65,0,-119,25,-163,73v-45,48,-69,107,-69,178v0,132,101,252,232,252v128,0,234,-119,234,-252","w":844},"R":{"d":"460,-321v39,29,69,85,68,145v-1,22,1,42,4,59v28,7,46,42,32,76v-13,30,-63,40,-94,20v-41,-27,-52,-82,-53,-155v-1,-59,-50,-82,-98,-96r-118,0r0,217v1,30,-26,55,-56,55v-30,0,-56,-25,-55,-55r0,-590v-1,-30,25,-55,56,-55r178,0v116,-3,214,100,214,215v0,66,-26,121,-78,164xm427,-485v0,-56,-47,-104,-103,-104r-123,0r0,206r123,0v55,2,103,-47,103,-102","w":625},"S":{"d":"593,-298v90,156,-83,303,-247,297v-87,-3,-173,-34,-256,-100v-20,-15,-26,-51,-8,-73v16,-20,51,-25,73,-7v63,53,128,78,191,77v50,0,92,-12,125,-37v38,-29,55,-62,34,-104v-7,-11,-17,-21,-30,-30v-31,-20,-77,-36,-139,-47v-101,-18,-182,-49,-222,-117v-87,-146,75,-289,230,-281v94,4,158,38,218,80v21,13,30,46,14,71v-14,21,-46,32,-71,15v-54,-34,-88,-61,-161,-64v-68,-2,-150,37,-150,97v0,30,14,39,34,54v53,41,203,53,265,86v45,24,81,50,100,83","w":667},"T":{"d":"532,-700v30,-1,55,25,55,55v0,29,-26,57,-55,56r-159,0r0,534v1,30,-25,55,-55,55v-30,0,-56,-25,-55,-55r0,-534r-158,0v-30,1,-55,-26,-55,-56v0,-30,25,-56,55,-55r427,0","w":648},"U":{"d":"628,-700v30,0,56,25,55,55r0,356v4,155,-134,289,-289,289v-156,0,-289,-133,-289,-289r0,-356v-1,-30,25,-55,55,-55v30,0,57,25,56,55r0,356v-3,95,82,178,178,178v96,0,178,-82,178,-178r0,-356v-1,-30,26,-55,56,-55","w":814},"V":{"d":"414,-33v-9,33,-65,44,-90,17v-3,-7,-8,-12,-11,-17r-245,-584v-17,-45,21,-88,71,-71v14,5,24,15,30,29r195,463r195,-463v8,-23,40,-41,72,-29v23,8,43,40,30,71","w":750},"W":{"d":"398,-10v-24,20,-67,5,-78,-20r-249,-587v-15,-46,21,-88,71,-71v15,5,25,15,30,29r196,463r129,-307v15,-45,85,-44,104,0r129,307r195,-463v9,-24,39,-41,73,-29v22,8,41,40,28,71r-245,583v-2,9,-8,9,-11,18v-19,22,-74,19,-84,-8v-4,-1,-4,-3,-6,-10r-131,-310r-136,320v-6,4,-6,11,-15,14","w":1102},"X":{"d":"552,-692v46,-7,82,46,53,87r-190,258r190,260v27,36,-3,88,-44,87v-18,0,-34,-7,-45,-23r-168,-231r-169,231v-27,42,-95,20,-99,-23v-1,-15,1,-29,10,-41r190,-260r-190,-258v-29,-40,9,-95,54,-87v15,2,26,10,35,23r169,230r168,-230v9,-13,21,-21,36,-23","w":722},"Y":{"d":"331,0v-29,0,-55,-26,-55,-55r0,-270r-203,-281v-32,-38,7,-94,52,-86v15,2,26,9,35,22r171,234r171,-234v16,-23,51,-31,77,-12v22,16,30,51,12,76r-205,281r0,270v1,30,-25,55,-55,55","w":604},"Z":{"d":"610,-662v7,19,1,39,-7,50r-368,501r322,0v30,-1,56,26,56,56v0,30,-26,56,-56,55r-431,0v-15,0,-23,-5,-32,-10v-20,-11,-30,-53,-12,-77r367,-502r-323,0v-30,1,-55,-26,-55,-56v0,-30,25,-56,55,-55r449,2v16,7,29,19,35,36","w":667},"[":{"d":"157,130v-33,1,-60,-28,-59,-60r0,-710v-1,-32,26,-61,59,-60r206,0v25,-1,48,22,48,48v0,25,-23,48,-48,47r-149,0r0,640r149,0v26,-1,48,22,48,47v0,26,-23,49,-48,48r-206,0","w":430},"\\":{"d":"419,-76v14,41,-11,76,-50,76v-25,0,-42,-11,-51,-33r-245,-584v-17,-45,21,-88,71,-71v14,6,24,15,30,29","w":448},"]":{"d":"308,-700v32,-1,61,28,60,60r0,710v1,32,-28,61,-60,60r-206,0v-25,1,-47,-22,-47,-48v0,-26,21,-48,47,-47r150,0r0,-640r-150,0v-26,1,-47,-21,-47,-47v0,-26,22,-49,47,-48r206,0","w":430},"^":{"d":"252,-625r-72,93v-23,28,-32,43,-72,44v-36,1,-31,-29,-16,-50r95,-130v32,-49,97,-48,132,0r95,130v15,22,19,51,-17,50v-41,-1,-50,-15,-73,-44","w":500},"_":{"d":"674,113v0,25,-22,48,-47,47r-604,0v-25,1,-47,-22,-47,-47v0,-25,22,-48,47,-47r604,0v25,-1,47,22,47,47","w":600},"`":{"d":"163,-711v1,-21,46,-39,72,-39v20,0,36,10,48,29r57,88v16,21,11,44,-22,43v-28,0,-51,-9,-70,-27r-68,-64v-11,-10,-17,-20,-17,-30","w":500},"a":{"d":"463,-500v29,-1,54,26,53,54r0,393v1,29,-24,54,-53,53v-27,0,-46,-20,-52,-43v-41,29,-85,43,-133,43v-131,0,-238,-116,-238,-249v0,-136,108,-253,238,-251v47,0,92,15,133,44v6,-23,25,-44,52,-44xm278,-107v77,0,132,-66,132,-142v0,-77,-55,-144,-132,-144v-78,0,-131,65,-131,144v0,78,53,142,131,142","w":619},"b":{"d":"147,0v-28,0,-55,-26,-54,-54r0,-592v-1,-28,26,-54,54,-54v29,0,56,25,55,54r0,188v40,-28,85,-42,134,-42v132,0,243,119,243,251v0,132,-111,249,-243,249v-49,0,-94,-14,-136,-43v-5,23,-26,43,-53,43xm336,-391v-73,0,-134,66,-134,142v0,75,61,140,134,140v73,0,134,-65,134,-140v0,-77,-61,-142,-134,-142","w":660},"c":{"d":"164,-249v0,76,70,143,148,143v34,0,66,-10,95,-32v35,-27,92,3,84,48v-2,14,-8,28,-20,37v-49,36,-102,53,-159,53v-134,0,-254,-116,-254,-249v0,-136,120,-251,254,-251v58,0,110,19,159,55v20,15,28,51,11,74v-17,22,-50,29,-75,10v-29,-22,-61,-32,-95,-32v-77,0,-148,68,-148,144","w":571},"d":{"d":"492,-700v28,0,55,26,54,54r0,592v1,28,-26,54,-54,54v-27,0,-48,-20,-53,-43v-42,29,-87,43,-136,43v-132,0,-243,-117,-243,-249v0,-133,111,-251,243,-251v49,0,94,14,134,42r0,-188v-1,-29,26,-54,55,-54xm437,-249v0,-77,-61,-142,-134,-142v-73,0,-134,66,-134,142v0,75,61,140,134,140v73,0,134,-65,134,-140","w":660},"e":{"d":"543,-268v2,35,-21,53,-53,54r-318,0v6,29,20,49,34,66v41,49,146,62,200,20v15,-20,60,-21,75,-3v16,20,21,45,0,65v-47,45,-108,66,-179,66v-133,0,-244,-117,-244,-250v0,-133,110,-250,244,-250v132,0,237,104,241,232xm450,-299v-15,-52,-78,-106,-148,-106v-70,0,-124,52,-135,106r283,0","w":609},"f":{"d":"353,-646v0,30,-25,57,-55,56v-18,0,-24,1,-32,6v-9,12,-9,41,-9,65r30,0v30,-1,55,25,55,55v0,29,-26,55,-55,55r-30,0r0,353v1,30,-25,55,-55,55v-30,0,-56,-25,-55,-55r0,-353v-47,6,-81,-15,-82,-55v-1,-30,26,-56,56,-55r26,0v-3,-116,40,-182,151,-182v28,0,55,27,55,55","w":362},"g":{"d":"487,-500v29,-1,54,24,53,53r0,386v5,165,-181,296,-345,215v-23,-11,-38,-42,-24,-72v11,-23,41,-40,72,-25v83,41,178,-20,188,-93v-39,27,-82,40,-131,40v-130,3,-240,-119,-240,-252v0,-130,110,-252,240,-252v51,0,95,14,134,42v4,-22,27,-42,53,-42xm300,-104v75,1,133,-64,133,-144v0,-78,-60,-146,-133,-145v-37,0,-65,16,-92,43v-51,51,-51,156,0,205v26,25,55,41,92,41","w":660},"h":{"d":"419,-281v1,-58,-51,-108,-108,-108v-57,0,-107,51,-107,108r0,226v1,30,-26,56,-56,55v-30,-1,-54,-23,-55,-55r0,-590v-1,-30,25,-55,55,-55v30,0,57,25,56,55r0,174v150,-88,325,34,325,190r0,226v1,30,-25,55,-55,55v-30,0,-56,-25,-55,-55r0,-226"},"i":{"d":"94,-444v-1,-31,24,-55,54,-55v30,0,55,24,54,55r0,390v1,30,-24,54,-54,54v-28,0,-55,-26,-54,-54r0,-390xm148,-700v37,0,54,30,54,75v0,30,-24,55,-54,55v-29,0,-54,-26,-54,-55v0,-44,18,-75,54,-75","w":281},"j":{"d":"160,-644v0,44,-18,75,-54,75v-35,0,-55,-31,-55,-75v0,-31,25,-55,55,-55v30,0,54,24,54,55xm158,69v1,57,-50,108,-108,108v-31,0,-55,-24,-55,-55v0,-29,25,-54,55,-53r0,-514v-1,-29,25,-55,54,-55v30,0,55,25,54,55r0,514","w":249},"k":{"d":"204,-55v1,30,-26,55,-56,55v-30,0,-56,-25,-55,-55r0,-590v-1,-30,25,-55,55,-55v30,0,57,25,56,55r0,346r205,-205v32,-35,98,-7,95,39v0,15,-6,28,-17,39r-150,150r154,185v30,37,1,93,-43,91v-18,0,-31,-7,-42,-20r-147,-178r-55,55r0,88","w":560},"l":{"d":"155,0v-30,0,-56,-25,-55,-55r0,-590v-1,-30,25,-55,55,-55v30,0,57,25,56,55r0,590v1,30,-26,55,-56,55","w":249},"m":{"d":"716,-290v2,-55,-47,-103,-101,-103v-56,0,-104,46,-104,103r0,237v1,29,-24,53,-53,53v-27,0,-54,-26,-54,-53r0,-240v0,-53,-48,-100,-103,-100v-54,0,-101,48,-101,103r-1,247v-7,28,-31,49,-63,42v-23,-5,-43,-25,-43,-52r0,-393v-1,-30,24,-55,53,-54v23,0,39,10,48,30v89,-53,203,-34,264,39v39,-46,92,-69,157,-69v112,0,208,98,208,210r0,237v1,29,-24,53,-53,53v-28,0,-55,-24,-54,-53r0,-237","w":951},"n":{"d":"93,-447v-1,-29,24,-54,53,-53v23,0,39,10,49,31v33,-21,68,-31,106,-31v112,0,209,97,209,208r0,239v1,29,-23,53,-52,53v-27,0,-53,-25,-53,-53r0,-239v1,-55,-49,-101,-104,-101v-55,0,-100,47,-100,101r0,239v-2,29,-25,52,-55,53v-29,1,-54,-24,-53,-53r0,-394"},"o":{"d":"311,3v-128,0,-241,-116,-241,-252v0,-65,23,-124,69,-175v90,-100,249,-98,339,0v89,97,90,261,0,351v-47,48,-100,76,-167,76xm215,-353v-51,51,-49,157,0,210v47,50,139,51,188,0v52,-54,54,-158,0,-210v-55,-53,-135,-52,-188,0","w":625},"p":{"d":"203,134v1,28,-27,54,-57,54v-27,0,-54,-27,-53,-54r0,-581v-1,-29,24,-53,53,-53v27,0,51,19,55,41v42,-27,87,-41,136,-41v131,0,242,119,242,251v0,132,-111,248,-242,248v-51,0,-96,-14,-134,-41r0,176xm337,-391v-76,0,-136,63,-134,142v0,43,14,75,39,100v27,27,57,42,95,42v73,1,133,-65,133,-142v0,-72,-59,-142,-133,-142","w":660},"q":{"d":"546,134v1,27,-26,53,-54,53v-29,0,-56,-25,-55,-53r0,-176v-41,28,-85,42,-134,42v-132,0,-243,-116,-243,-250v0,-133,111,-250,243,-250v47,0,92,14,136,42v3,-23,26,-42,53,-42v28,0,55,26,54,54r0,580xm168,-250v0,75,62,144,135,143v39,0,67,-17,93,-42v51,-49,52,-151,0,-200v-27,-26,-56,-43,-93,-43v-69,-1,-135,69,-135,142","w":660},"r":{"d":"201,-440v33,-38,95,-59,147,-59v29,0,53,23,53,52v0,27,-25,53,-53,53v-53,0,-81,31,-106,67v-13,19,-28,47,-41,84r0,190v1,29,-26,53,-55,53v-29,0,-54,-24,-53,-53r0,-394v-1,-29,24,-53,53,-52v32,0,58,24,55,59","w":439},"s":{"d":"447,-156v4,90,-99,158,-193,156v-62,-1,-121,-24,-178,-69v-20,-15,-24,-52,-7,-74v17,-21,53,-27,75,-8v35,31,73,44,110,44v35,0,83,-17,86,-49v-2,-12,-5,-14,-16,-22v-31,-25,-130,-33,-168,-54v-46,-25,-85,-57,-86,-121v0,-43,18,-82,59,-110v87,-59,182,-45,273,18v21,15,32,47,16,74v-14,22,-48,32,-74,14v-37,-25,-68,-37,-92,-37v-34,-1,-71,15,-76,41v1,10,5,12,13,18v14,11,43,18,75,25v93,18,178,54,183,154","w":492},"t":{"d":"182,-700v30,0,56,25,55,55r0,145v47,-6,80,16,81,55v1,29,-27,56,-56,55r-25,0r0,279v30,-1,55,26,55,56v0,30,-25,55,-55,55v-60,0,-111,-51,-111,-111r0,-279r-29,0v-30,1,-55,-25,-55,-55v0,-30,25,-56,55,-55r29,0r0,-145v-1,-30,26,-55,56,-55","w":400},"u":{"d":"448,-500v27,0,54,26,54,53r0,239v3,110,-100,208,-211,208v-110,0,-208,-97,-208,-208r0,-239v-1,-27,25,-53,53,-53v28,0,54,26,53,53r0,239v-1,56,46,102,102,102v56,0,105,-47,105,-102r0,-239v-1,-27,24,-53,52,-53"},"v":{"d":"257,-4v-15,-6,-24,-14,-30,-28r-162,-388v-13,-32,6,-59,29,-68v30,-13,59,8,67,29r115,272r116,-272v8,-22,36,-42,67,-29v23,9,42,36,29,68r-164,388v-11,20,-35,41,-67,28","w":582},"w":{"d":"304,-4v-32,11,-60,-5,-70,-28r-164,-388v-13,-32,6,-60,29,-69v30,-12,57,8,66,30r118,269r70,-167v14,-43,80,-41,98,0r71,167r118,-269v6,-23,37,-42,67,-30v23,9,42,37,29,69r-170,397v-11,20,-53,34,-73,12v-8,-5,-15,-12,-18,-21r-73,-173r-71,173v-5,11,-18,22,-27,28","w":861},"x":{"d":"368,-472v25,-36,92,-23,96,22v1,14,-2,27,-10,38r-119,164r119,165v18,22,10,59,-10,72v-28,19,-56,16,-76,-11r-100,-137r-100,137v-28,40,-90,20,-94,-22v-2,-15,2,-28,10,-39r120,-165r-120,-164v-29,-35,8,-89,50,-80v14,2,25,8,34,20r100,134","w":570},"y":{"d":"364,-447v-1,-30,23,-53,52,-53v28,0,55,24,54,53r0,378v5,166,-178,294,-342,214v-24,-12,-40,-39,-26,-71v9,-21,44,-37,71,-22v78,40,167,-13,183,-77v-28,16,-60,24,-95,24v-111,0,-209,-99,-209,-210r0,-236v-1,-28,24,-53,52,-53v30,0,54,23,53,53r0,236v-2,56,48,102,104,102v56,0,103,-46,103,-102r0,-236","w":588},"z":{"d":"403,-500v37,2,59,32,50,70v-1,6,-5,9,-8,14r-226,310r184,0v27,-1,53,25,53,53v0,28,-26,54,-53,53r-302,-1v-8,-3,-13,-4,-17,-10v-18,-10,-27,-35,-20,-62r233,-321r-183,0v-27,1,-53,-25,-53,-53v0,-28,26,-54,53,-53r289,0","w":554},"{":{"d":"312,-150v0,55,-7,125,19,155v15,17,44,36,90,48v32,8,37,57,12,75v-11,8,-24,10,-39,7v-74,-16,-125,-40,-154,-70v-43,-43,-40,-115,-40,-196v0,-72,-25,-108,-94,-108v-44,0,-68,-52,-38,-81v9,-9,22,-14,38,-15v70,-3,94,-35,94,-109v0,-80,-3,-152,40,-195v29,-30,80,-54,154,-70v30,-7,56,13,55,41v0,21,-9,35,-28,41v-80,27,-108,39,-111,129r2,74v-1,81,-40,115,-104,137v66,22,104,55,104,137","w":480},"|":{"d":"169,133v-26,0,-49,-22,-48,-48r0,-840v-1,-26,22,-48,48,-48v26,0,50,22,49,48r0,840v1,26,-23,48,-49,48","w":286},"}":{"d":"190,-424v0,-55,7,-125,-18,-155v-15,-17,-44,-36,-90,-48v-32,-8,-39,-57,-13,-75v11,-8,24,-10,39,-7v74,16,125,40,154,70v43,44,40,114,40,195v0,74,25,109,95,109v43,0,67,52,37,81v-9,9,-22,14,-37,15v-70,2,-95,36,-95,108v0,81,3,153,-40,196v-29,30,-80,54,-154,70v-30,7,-56,-13,-55,-41v0,-21,10,-35,29,-41v80,-27,107,-39,110,-129r-2,-74v1,-81,40,-115,104,-137v-66,-22,-104,-55,-104,-137","w":480},"~":{"d":"344,-239v-29,0,-121,-41,-143,-40v-20,0,-37,10,-47,32v-15,33,-71,21,-69,-14v2,-41,27,-73,44,-91v15,-16,36,-22,62,-22v29,0,121,40,143,39v20,0,37,-10,47,-31v16,-35,69,-21,69,13v0,42,-27,73,-44,91v-15,16,-36,23,-62,23","w":460},"\u00a1":{"d":"93,-459v-1,-30,25,-55,55,-55v30,0,55,25,54,55r0,404v1,29,-25,55,-54,55v-29,0,-55,-26,-55,-55r0,-404xm148,-700v37,1,54,31,54,75v0,29,-25,56,-54,55v-36,-1,-55,-31,-55,-75v0,-30,25,-56,55,-55","w":252},"\u00a2":{"d":"62,-297v0,-140,122,-260,264,-256r32,-76v9,-24,39,-41,73,-29v22,8,41,40,28,71r-25,59v32,18,64,28,70,67v8,49,-48,79,-86,49v-5,-4,-14,-9,-26,-16r-113,271v51,14,101,4,139,-26v37,-29,94,2,86,49v-2,15,-8,28,-20,37v-70,53,-156,69,-247,40v-17,34,-24,88,-74,87v-39,-1,-67,-36,-50,-76r29,-69v-53,-50,-80,-111,-80,-182xm277,-437v-78,18,-139,125,-88,210","w":581},"\u00a3":{"d":"113,0v-26,1,-47,-18,-47,-43v0,-43,50,-48,84,-59r0,-176r-32,0v-29,1,-52,-23,-52,-52v0,-28,24,-53,52,-52r32,0r0,-92v-1,-146,85,-237,230,-236v79,0,142,29,195,81v38,38,11,104,-42,104v-18,0,-33,-6,-44,-19v-33,-35,-68,-52,-107,-52v-68,0,-107,53,-107,125r0,89r202,0v27,-1,52,25,52,52v0,28,-24,53,-52,52r-202,0r0,171r276,0v30,-1,54,24,54,54v0,29,-25,54,-54,53r-438,0","w":644},"\u00a5":{"d":"603,-308v0,23,-21,45,-44,44r-154,0r0,73r154,0v24,-1,44,21,44,45v0,23,-21,45,-44,44r-154,0r0,48v1,33,-26,59,-59,59v-33,0,-60,-26,-59,-59r0,-48r-154,0v-23,1,-44,-21,-44,-44v0,-24,20,-46,44,-45r154,0r0,-73r-154,0v-23,1,-44,-21,-44,-44v0,-24,20,-46,44,-45r119,0r-184,-252v-34,-41,-5,-102,46,-100v23,0,43,11,58,34r175,261r177,-260v15,-23,34,-35,56,-35v33,0,60,23,59,57v0,15,-5,30,-15,43r-186,252r121,0v24,-1,44,21,44,45","w":686},"\u00a8":{"d":"197,-572v-35,0,-64,-29,-64,-64v0,-35,29,-65,64,-65v35,0,65,30,65,65v0,35,-30,64,-65,64xm397,-572v-35,0,-64,-29,-64,-64v0,-35,29,-65,64,-65v35,0,65,30,65,65v0,35,-30,64,-65,64","w":500},"\u00a9":{"d":"777,-352v0,196,-167,364,-363,364v-196,0,-361,-166,-361,-362v0,-194,168,-362,363,-362v195,0,361,166,361,360xm91,-350v0,178,145,326,323,326v179,0,325,-150,325,-328v0,-176,-146,-324,-323,-324v-178,0,-325,150,-325,326xm513,-263v23,-21,57,-1,57,26v0,11,-4,19,-11,25v-41,35,-87,53,-140,53v-108,0,-192,-87,-192,-196v0,-107,85,-196,194,-196v51,0,93,17,130,43v28,20,15,69,-20,67v-7,0,-15,-3,-24,-10v-27,-21,-56,-32,-86,-32v-67,-1,-118,60,-118,129v0,66,52,129,118,127v33,0,65,-11,92,-36","w":830},"\u00aa":{"d":"314,-701v18,-1,33,15,33,32r0,238v0,18,-15,33,-33,33v-17,0,-29,-12,-31,-27v-95,73,-225,-12,-225,-124v0,-114,129,-197,225,-126v3,-17,14,-26,31,-26xm123,-549v0,73,84,116,136,63v16,-17,23,-38,23,-63v1,-48,-34,-88,-80,-87v-48,0,-79,37,-79,87xm350,-330v0,18,-15,35,-33,34r-218,0v-18,1,-34,-16,-34,-34v0,-18,16,-35,34,-34r218,0v18,-1,33,16,33,34","w":390},"\u00ab":{"d":"529,-125v29,31,4,84,-37,83v-17,0,-31,-7,-42,-21r-129,-166v-20,-27,-20,-45,0,-70r126,-163v11,-16,26,-24,45,-24v42,-2,61,50,35,84r-105,137xm278,-125v28,32,3,85,-38,83v-17,0,-31,-7,-42,-21r-129,-166v-19,-25,-19,-46,0,-70r126,-163v13,-16,28,-24,46,-24v40,-1,61,50,35,84r-106,137","w":515},"\u00ad":{"d":"372,-306v0,31,-28,60,-59,59r-188,0v-31,1,-59,-28,-59,-59v0,-32,28,-61,59,-60r188,0v31,-1,59,28,59,60","w":408},"\u00ae":{"d":"382,-536v0,94,-80,176,-174,176v-95,0,-174,-80,-174,-175v0,-93,81,-175,174,-175v94,0,174,80,174,174xm54,-535v0,84,70,156,154,156v84,0,154,-73,154,-157v0,-83,-70,-155,-154,-155v-84,0,-154,73,-154,156xm254,-523v18,12,20,33,21,60v14,3,18,27,0,30v-27,5,-33,-20,-33,-48v-4,-19,-12,-21,-29,-28r-34,0r0,64v0,9,-8,16,-17,16v-11,0,-16,-5,-16,-16r0,-173v0,-28,45,-14,69,-16v55,-5,85,77,39,111xm245,-571v0,-17,-14,-30,-30,-30r-36,0r0,60r36,0v15,1,30,-15,30,-30","w":416},"\u00b0":{"d":"407,-545v0,87,-81,164,-166,164v-85,0,-167,-78,-167,-164v0,-84,83,-161,167,-161v85,0,166,77,166,161xm146,-545v0,53,43,98,95,98v52,0,94,-45,94,-98v0,-51,-42,-95,-94,-95v-53,0,-95,44,-95,95","w":450},"\u00b4":{"d":"314,-750v26,0,71,18,72,39v0,10,-6,20,-17,30r-67,64v-19,18,-43,27,-71,27v-32,0,-36,-22,-22,-43r57,-88v12,-19,28,-29,48,-29","w":500},"\u00b8":{"d":"240,160v-22,0,-71,-24,-70,-44v0,-8,3,-16,8,-23r71,-103r91,0r-61,141v-8,19,-21,29,-39,29","w":500},"\u00bb":{"d":"541,-125v29,31,4,84,-37,83v-17,0,-31,-7,-42,-21r-129,-166v-20,-27,-20,-45,0,-70r126,-163v11,-16,26,-24,45,-24v42,-2,61,50,35,84r-105,137xm290,-125v28,32,3,85,-38,83v-17,0,-31,-7,-42,-21r-129,-166v-19,-25,-19,-46,0,-70r126,-163v13,-16,28,-24,46,-24v40,-1,61,50,35,84r-106,137","w":515},"\u00bf":{"d":"296,-651v0,39,-15,67,-49,67v-32,0,-49,-28,-49,-67v0,-27,23,-49,49,-49v27,0,49,22,49,49xm296,-414v87,19,162,102,162,204v0,113,-98,212,-211,210v-82,-1,-150,-48,-181,-104v-21,-38,11,-82,54,-72v13,3,24,11,31,23v21,37,53,55,96,55v61,0,114,-51,114,-112v0,-60,-54,-114,-114,-112v-27,1,-49,-28,-49,-53r0,-104v-1,-27,23,-49,49,-49v27,0,50,22,49,49r0,65","w":534},"\u00c0":{"d":"510,-35r-49,-130r-243,0r-49,130v-12,46,-87,44,-103,3v-5,-14,-6,-28,-1,-43r221,-589v8,-19,28,-35,53,-35v25,0,44,10,53,35r221,589v12,41,-11,74,-52,75v-25,0,-42,-12,-51,-35xm258,-275r162,0r-81,-215xm245,-911v1,-21,46,-39,72,-39v20,0,36,10,48,29r57,88v16,21,11,44,-22,43v-28,0,-51,-9,-70,-27r-68,-64v-11,-10,-17,-20,-17,-30","w":649},"\u00c1":{"d":"510,-35r-49,-130r-243,0r-49,130v-12,46,-87,44,-103,3v-5,-14,-6,-28,-1,-43r221,-589v8,-19,28,-35,53,-35v25,0,44,10,53,35r221,589v12,41,-11,74,-52,75v-25,0,-42,-12,-51,-35xm258,-275r162,0r-81,-215xm362,-950v26,0,71,18,72,39v0,10,-6,20,-17,30r-67,64v-19,18,-43,27,-71,27v-32,0,-36,-22,-22,-43r57,-88v12,-19,28,-29,48,-29","w":646},"\u00c2":{"d":"511,-35r-49,-130r-243,0r-49,130v-12,46,-86,44,-102,3v-5,-14,-7,-28,-2,-43r221,-589v8,-19,28,-35,53,-35v25,0,44,10,53,35r221,589v11,41,-11,74,-52,75v-25,0,-42,-12,-51,-35xm259,-275r162,0r-81,-215xm339,-862v-35,27,-69,73,-126,72v-32,-1,-32,-23,-15,-44r66,-83v23,-29,49,-31,94,-29v23,0,43,10,58,29r66,83v19,21,17,43,-17,44v-56,1,-92,-45,-126,-72","w":664},"\u00c3":{"d":"511,-35r-49,-130r-243,0r-49,130v-12,46,-86,44,-102,3v-5,-14,-7,-28,-2,-43r221,-589v8,-19,28,-35,53,-35v25,0,44,10,53,35r221,589v11,41,-11,74,-52,75v-25,0,-42,-12,-51,-35xm259,-275r162,0r-81,-215xm418,-795v-30,0,-121,-41,-144,-40v-19,0,-35,11,-46,32v-16,33,-70,21,-70,-13v0,-39,27,-75,44,-92v16,-15,37,-22,62,-22v30,0,121,41,144,40v19,0,35,-11,46,-32v16,-33,70,-21,70,13v0,39,-27,74,-44,91v-16,15,-37,23,-62,23","w":664},"\u00c4":{"d":"511,-35r-49,-130r-243,0r-49,130v-12,46,-86,44,-102,3v-5,-14,-7,-28,-2,-43r221,-589v8,-19,28,-35,53,-35v25,0,44,10,53,35r221,589v11,41,-11,74,-52,75v-25,0,-42,-12,-51,-35xm259,-275r162,0r-81,-215xm241,-772v-35,0,-64,-29,-64,-64v0,-35,29,-65,64,-65v35,0,65,30,65,65v0,35,-30,64,-65,64xm441,-772v-35,0,-64,-29,-64,-64v0,-35,29,-65,64,-65v35,0,65,30,65,65v0,35,-30,64,-65,64","w":663},"\u00c5":{"d":"246,-275r162,0r-81,-215xm326,-857v66,0,128,58,128,125v0,44,-20,78,-61,103r208,554v12,41,-11,74,-52,75v-25,0,-42,-12,-51,-35r-49,-130r-243,0r-49,130v-12,46,-87,44,-103,3v-5,-14,-6,-28,-1,-43r207,-553v-42,-26,-62,-60,-62,-106v0,-65,63,-123,128,-123xm278,-734v0,28,21,49,48,49v27,0,48,-21,48,-49v0,-26,-22,-47,-48,-47v-26,0,-48,21,-48,47","w":646},"\u00c6":{"d":"89,6v-44,0,-66,-48,-44,-86r337,-577v16,-29,40,-43,72,-43r481,0v30,-1,55,25,55,55v0,30,-25,56,-55,55r-324,0r0,182r279,0v30,-1,55,26,55,56v0,29,-26,55,-55,54r-279,0r0,188r329,0v29,-1,55,26,55,55v0,30,-25,56,-55,55r-390,0v-34,1,-63,-28,-62,-62r0,-107r-264,0r-81,141v-13,23,-31,34,-54,34xm287,-278r201,0r0,-315r-20,0","w":1045},"\u00c7":{"d":"187,-360v0,136,121,246,253,246v61,0,114,-19,161,-55v39,-30,100,5,91,53v-3,16,-9,29,-21,38v-67,52,-144,78,-231,78v-194,0,-367,-167,-367,-360v0,-193,174,-360,367,-360v87,0,164,26,231,78v23,18,30,54,10,80v-16,23,-56,31,-80,11v-96,-80,-253,-72,-341,17v-49,50,-73,108,-73,174xm370,160v-22,0,-71,-24,-70,-44v0,-8,3,-16,8,-23r71,-103r91,0r-61,141v-8,19,-21,29,-39,29","w":771},"\u00c8":{"d":"541,-55v0,28,-27,56,-55,55r-326,-1v-28,5,-56,-25,-56,-54r0,-590v0,-31,25,-55,58,-55r324,0v29,-1,55,26,55,55v0,29,-26,57,-55,56r-271,0r0,183r233,0v28,-1,55,27,55,55v0,30,-25,57,-55,56r-233,0r0,184r271,0v29,-1,55,27,55,56xm232,-911v1,-21,46,-39,72,-39v20,0,36,10,48,29r57,88v16,21,11,44,-22,43v-28,0,-51,-9,-70,-27r-68,-64v-11,-10,-17,-20,-17,-30","w":593},"\u00c9":{"d":"541,-55v0,28,-27,56,-55,55r-326,-1v-28,5,-56,-25,-56,-54r0,-590v0,-31,25,-55,58,-55r324,0v29,-1,55,26,55,55v0,29,-26,57,-55,56r-271,0r0,183r233,0v28,-1,55,27,55,55v0,30,-25,57,-55,56r-233,0r0,184r271,0v29,-1,55,27,55,56xm345,-950v26,0,71,18,72,39v0,10,-6,20,-17,30r-67,64v-19,18,-43,27,-71,27v-32,0,-36,-22,-22,-43r57,-88v12,-19,28,-29,48,-29","w":593},"\u00ca":{"d":"541,-55v0,28,-27,56,-55,55r-326,-1v-28,5,-56,-25,-56,-54r0,-590v0,-31,25,-55,58,-55r324,0v29,-1,55,26,55,55v0,29,-26,57,-55,56r-271,0r0,183r233,0v28,-1,55,27,55,55v0,30,-25,57,-55,56r-233,0r0,184r271,0v29,-1,55,27,55,56xm322,-862v-35,27,-69,73,-126,72v-32,-1,-32,-23,-15,-44r66,-83v23,-29,49,-31,94,-29v23,0,43,10,58,29r66,83v19,21,17,43,-17,44v-56,1,-92,-45,-126,-72","w":593},"\u00cb":{"d":"541,-55v0,28,-27,56,-55,55r-326,-1v-28,5,-56,-25,-56,-54r0,-590v0,-31,25,-55,58,-55r324,0v29,-1,55,26,55,55v0,29,-26,57,-55,56r-271,0r0,183r233,0v28,-1,55,27,55,55v0,30,-25,57,-55,56r-233,0r0,184r271,0v29,-1,55,27,55,56xm223,-772v-35,0,-64,-29,-64,-64v0,-35,29,-65,64,-65v35,0,65,30,65,65v0,35,-30,64,-65,64xm423,-772v-35,0,-64,-29,-64,-64v0,-35,29,-65,64,-65v35,0,65,30,65,65v0,35,-30,64,-65,64","w":670},"\u00cc":{"d":"216,-700v-30,0,-56,25,-55,55r0,590v-1,30,25,55,55,55v30,0,57,-25,56,-55r0,-590v1,-30,-26,-55,-56,-55xm123,-911v1,-21,46,-39,72,-39v20,0,36,10,48,29r57,88v16,21,11,44,-22,43v-28,0,-51,-9,-70,-27r-68,-64v-11,-10,-17,-20,-17,-30","w":348},"\u00cd":{"d":"138,-700v-30,0,-56,25,-55,55r0,590v-1,30,25,55,55,55v30,0,57,-25,56,-55r0,-590v1,-30,-26,-55,-56,-55xm160,-950v26,0,71,18,72,39v0,10,-6,20,-17,30r-67,64v-19,18,-43,27,-71,27v-32,0,-36,-22,-22,-43r57,-88v12,-19,28,-29,48,-29","w":274},"\u00ce":{"d":"157,-700v-30,0,-56,25,-55,55r0,590v-1,30,25,55,55,55v30,0,57,-25,56,-55r0,-590v1,-30,-26,-55,-56,-55xm155,-862v-35,27,-69,73,-126,72v-32,-1,-32,-23,-15,-44r66,-83v23,-29,49,-31,94,-29v23,0,43,10,58,29r66,83v19,21,17,43,-17,44v-56,1,-92,-45,-126,-72","w":274},"\u00cf":{"d":"157,-700v-30,0,-56,25,-55,55r0,590v-1,30,25,55,55,55v30,0,57,-25,56,-55r0,-590v1,-30,-26,-55,-56,-55xm56,-772v-35,0,-64,-29,-64,-64v0,-35,29,-65,64,-65v35,0,65,30,65,65v0,35,-30,64,-65,64xm256,-772v-35,0,-64,-29,-64,-64v0,-35,29,-65,64,-65v35,0,65,30,65,65v0,35,-30,64,-65,64","w":274},"\u00d0":{"d":"206,0v-30,1,-56,-25,-55,-55r0,-238r-37,0v-31,1,-59,-28,-59,-59v0,-32,28,-61,59,-60r37,0r0,-233v-1,-30,25,-56,55,-55r118,0v188,-5,349,162,349,349v0,189,-160,356,-349,351r-118,0xm562,-351v0,-127,-110,-242,-238,-238r-62,0r0,177r40,0v31,-1,59,28,59,60v0,31,-28,60,-59,59r-40,0r0,182r62,0v128,2,238,-110,238,-240","w":812},"\u00d1":{"d":"635,-55v2,48,-66,76,-96,35r-325,-450r0,415v1,28,-26,55,-54,55v-30,0,-56,-25,-55,-55r0,-582v-4,-33,29,-61,63,-55v15,2,26,9,35,21r323,447r0,-412v-1,-28,26,-54,54,-54v28,0,56,26,55,54r0,581xm447,-795v-30,0,-121,-41,-144,-40v-19,0,-35,11,-46,32v-16,33,-70,21,-70,-13v0,-39,28,-75,45,-92v16,-15,36,-22,61,-22v30,0,121,41,144,40v19,0,35,-11,46,-32v16,-33,70,-21,70,13v0,39,-28,74,-45,91v-16,15,-36,23,-61,23","w":790},"\u00d2":{"d":"73,-360v0,-235,234,-439,475,-332v117,51,209,188,209,332v0,146,-93,280,-209,332v-84,38,-183,37,-266,0v-117,-52,-209,-182,-209,-332xm417,-114v122,0,226,-118,226,-246v0,-127,-102,-246,-226,-246v-128,0,-230,115,-230,246v0,131,104,246,230,246xm325,-911v1,-21,46,-39,72,-39v20,0,36,10,48,29r57,88v16,21,11,44,-22,43v-28,0,-51,-9,-70,-27r-68,-64v-11,-10,-17,-20,-17,-30","w":850},"\u00d3":{"d":"73,-360v0,-235,234,-439,475,-332v117,51,209,188,209,332v0,146,-93,280,-209,332v-84,38,-183,37,-266,0v-117,-52,-209,-182,-209,-332xm417,-114v122,0,226,-118,226,-246v0,-127,-102,-246,-226,-246v-128,0,-230,115,-230,246v0,131,104,246,230,246xm439,-950v26,0,71,18,72,39v0,10,-6,20,-17,30r-67,64v-19,18,-43,27,-71,27v-32,0,-36,-22,-22,-43r57,-88v12,-19,28,-29,48,-29","w":850},"\u00d4":{"d":"73,-360v0,-235,234,-439,475,-332v117,51,209,188,209,332v0,146,-93,280,-209,332v-84,38,-183,37,-266,0v-117,-52,-209,-182,-209,-332xm417,-114v122,0,226,-118,226,-246v0,-127,-102,-246,-226,-246v-128,0,-230,115,-230,246v0,131,104,246,230,246xm414,-862v-35,27,-69,73,-126,72v-32,-1,-32,-23,-15,-44r66,-83v23,-29,49,-31,94,-29v23,0,43,10,58,29r66,83v19,21,17,43,-17,44v-56,1,-92,-45,-126,-72","w":850},"\u00d5":{"d":"73,-360v0,-235,234,-439,475,-332v117,51,209,188,209,332v0,146,-93,280,-209,332v-84,38,-183,37,-266,0v-117,-52,-209,-182,-209,-332xm417,-114v122,0,226,-118,226,-246v0,-127,-102,-246,-226,-246v-128,0,-230,115,-230,246v0,131,104,246,230,246xm493,-795v-30,0,-121,-41,-144,-40v-19,0,-35,11,-46,32v-16,33,-70,21,-70,-13v0,-39,28,-75,45,-92v16,-15,36,-22,61,-22v30,0,121,41,144,40v19,0,35,-11,46,-32v16,-33,70,-21,70,13v0,39,-28,74,-45,91v-16,15,-36,23,-61,23","w":850},"\u00d6":{"d":"73,-360v0,-235,234,-439,475,-332v117,51,209,188,209,332v0,146,-93,280,-209,332v-84,38,-183,37,-266,0v-117,-52,-209,-182,-209,-332xm417,-114v122,0,226,-118,226,-246v0,-127,-102,-246,-226,-246v-128,0,-230,115,-230,246v0,131,104,246,230,246xm315,-772v-35,0,-64,-29,-64,-64v0,-35,29,-65,64,-65v35,0,65,30,65,65v0,35,-30,64,-65,64xm515,-772v-35,0,-64,-29,-64,-64v0,-35,29,-65,64,-65v35,0,65,30,65,65v0,35,-30,64,-65,64","w":850},"\u00d7":{"d":"451,-556v29,-36,91,-10,91,36v0,15,-7,28,-18,39r-130,128r131,128v36,32,10,96,-37,94v-15,0,-29,-4,-40,-16r-128,-132r-129,131v-29,35,-91,12,-91,-35v0,-16,7,-29,18,-40r130,-128r-132,-128v-34,-34,-9,-96,38,-94v15,0,29,6,40,17r128,131","w":620},"\u00d8":{"d":"805,-352v0,201,-163,364,-367,364v-83,0,-155,-22,-218,-67r-48,48v-23,30,-83,18,-81,-23v0,-13,6,-26,17,-37r47,-49v-55,-67,-82,-144,-82,-234v0,-199,163,-362,367,-362v83,0,156,23,218,68r48,-49v25,-30,81,-17,81,22v0,14,-6,27,-17,38r-47,49v55,66,82,143,82,232xm438,-601v-136,0,-238,115,-238,251v0,53,14,100,42,143r334,-349v-41,-30,-87,-45,-138,-45xm440,-99v136,0,238,-115,238,-251v0,-51,-14,-99,-42,-143r-335,350v41,29,87,44,139,44","w":850},"\u00d9":{"d":"616,-700v30,0,56,25,55,55r0,356v4,155,-134,289,-289,289v-156,0,-289,-133,-289,-289r0,-356v-1,-30,25,-55,55,-55v30,0,57,25,56,55r0,356v-3,95,82,178,178,178v96,0,178,-82,178,-178r0,-356v-1,-30,26,-55,56,-55xm289,-911v1,-21,46,-39,72,-39v20,0,36,10,48,29r57,88v16,21,11,44,-22,43v-28,0,-51,-9,-70,-27r-68,-64v-11,-10,-17,-20,-17,-30","w":760},"\u00da":{"d":"616,-700v30,0,56,25,55,55r0,356v4,155,-134,289,-289,289v-156,0,-289,-133,-289,-289r0,-356v-1,-30,25,-55,55,-55v30,0,57,25,56,55r0,356v-3,95,82,178,178,178v96,0,178,-82,178,-178r0,-356v-1,-30,26,-55,56,-55xm403,-950v26,0,71,18,72,39v0,10,-6,20,-17,30r-67,64v-19,18,-43,27,-71,27v-32,0,-36,-22,-22,-43r57,-88v12,-19,28,-29,48,-29","w":760},"\u00db":{"d":"616,-700v30,0,56,25,55,55r0,356v4,155,-134,289,-289,289v-156,0,-289,-133,-289,-289r0,-356v-1,-30,25,-55,55,-55v30,0,57,25,56,55r0,356v-3,95,82,178,178,178v96,0,178,-82,178,-178r0,-356v-1,-30,26,-55,56,-55xm380,-862v-35,27,-69,73,-126,72v-32,-1,-32,-23,-15,-44r66,-83v23,-29,49,-31,94,-29v23,0,43,10,58,29r66,83v19,21,17,43,-17,44v-56,1,-92,-45,-126,-72","w":760},"\u00dc":{"d":"616,-700v30,0,56,25,55,55r0,356v4,155,-134,289,-289,289v-156,0,-289,-133,-289,-289r0,-356v-1,-30,25,-55,55,-55v30,0,57,25,56,55r0,356v-3,95,82,178,178,178v96,0,178,-82,178,-178r0,-356v-1,-30,26,-55,56,-55xm280,-772v-35,0,-64,-29,-64,-64v0,-35,29,-65,64,-65v35,0,65,30,65,65v0,35,-30,64,-65,64xm480,-772v-35,0,-64,-29,-64,-64v0,-35,29,-65,64,-65v35,0,65,30,65,65v0,35,-30,64,-65,64","w":760},"\u00dd":{"d":"331,0v-29,0,-55,-26,-55,-55r0,-270r-203,-281v-32,-38,7,-94,52,-86v15,2,26,9,35,22r171,234r171,-234v16,-23,51,-31,77,-12v22,16,30,51,12,76r-205,281r0,270v1,30,-25,55,-55,55xm386,-950v26,0,71,18,72,39v0,10,-6,20,-17,30r-67,64v-19,18,-43,27,-71,27v-32,0,-36,-22,-22,-43r57,-88v12,-19,28,-29,48,-29","w":716},"\u00df":{"d":"363,3v-32,1,-55,-20,-55,-50v0,-25,14,-43,43,-48v78,-14,117,-46,116,-106v0,-51,-38,-88,-115,-106v-52,-12,-58,-79,-18,-103v61,-36,92,-75,92,-128v0,-58,-42,-96,-101,-96v-69,0,-112,56,-112,128r0,452v1,33,-28,59,-61,59v-33,0,-60,-26,-59,-59r0,-448v-2,-144,93,-235,238,-235v123,0,217,74,216,190v0,73,-37,130,-111,171v102,35,152,93,152,180v0,123,-107,197,-225,199","w":620},"\u00e0":{"d":"486,-500v29,-1,54,26,53,54r0,393v1,29,-24,54,-53,53v-27,0,-46,-20,-52,-43v-41,29,-85,43,-133,43v-131,0,-238,-116,-238,-249v0,-136,108,-253,238,-251v47,0,92,15,133,44v6,-23,25,-44,52,-44xm301,-107v77,0,132,-66,132,-142v0,-77,-55,-144,-132,-144v-78,0,-131,65,-131,144v0,78,53,142,131,142xm232,-691v1,-21,46,-39,72,-39v20,0,36,10,48,29r57,88v16,21,11,44,-22,43v-28,0,-51,-9,-70,-27r-68,-64v-11,-10,-17,-20,-17,-30","w":574},"\u00e1":{"d":"486,-500v29,-1,54,26,53,54r0,393v1,29,-24,54,-53,53v-27,0,-46,-20,-52,-43v-41,29,-85,43,-133,43v-131,0,-238,-116,-238,-249v0,-136,108,-253,238,-251v47,0,92,15,133,44v6,-23,25,-44,52,-44xm301,-107v77,0,132,-66,132,-142v0,-77,-55,-144,-132,-144v-78,0,-131,65,-131,144v0,78,53,142,131,142xm436,-730v26,0,71,18,72,39v0,10,-6,20,-17,30r-67,64v-19,18,-43,27,-71,27v-32,0,-36,-22,-22,-43r57,-88v12,-19,28,-29,48,-29","w":574},"\u00e2":{"d":"486,-500v29,-1,54,26,53,54r0,393v1,29,-24,54,-53,53v-27,0,-46,-20,-52,-43v-41,29,-85,43,-133,43v-131,0,-238,-116,-238,-249v0,-136,108,-253,238,-251v47,0,92,15,133,44v6,-23,25,-44,52,-44xm301,-107v77,0,132,-66,132,-142v0,-77,-55,-144,-132,-144v-78,0,-131,65,-131,144v0,78,53,142,131,142xm300,-642v-35,27,-69,73,-126,72v-32,-1,-32,-23,-15,-44r66,-83v23,-29,49,-31,94,-29v23,0,43,10,58,29r66,83v19,21,17,43,-17,44v-56,1,-92,-45,-126,-72","w":574},"\u00e3":{"d":"486,-500v29,-1,54,26,53,54r0,393v1,29,-24,54,-53,53v-27,0,-46,-20,-52,-43v-41,29,-85,43,-133,43v-131,0,-238,-116,-238,-249v0,-136,108,-253,238,-251v47,0,92,15,133,44v6,-23,25,-44,52,-44xm301,-107v77,0,132,-66,132,-142v0,-77,-55,-144,-132,-144v-78,0,-131,65,-131,144v0,78,53,142,131,142xm378,-582v-30,0,-121,-41,-144,-40v-19,0,-35,11,-46,32v-16,33,-70,21,-70,-13v0,-39,27,-74,44,-91v16,-15,37,-23,62,-23v30,0,121,41,144,40v19,0,35,-11,46,-32v16,-33,70,-21,70,13v0,39,-27,75,-44,92v-16,15,-37,22,-62,22","w":574},"\u00e4":{"d":"486,-500v29,-1,54,26,53,54r0,393v1,29,-24,54,-53,53v-27,0,-46,-20,-52,-43v-41,29,-85,43,-133,43v-131,0,-238,-116,-238,-249v0,-136,108,-253,238,-251v47,0,92,15,133,44v6,-23,25,-44,52,-44xm301,-107v77,0,132,-66,132,-142v0,-77,-55,-144,-132,-144v-78,0,-131,65,-131,144v0,78,53,142,131,142xm201,-570v-35,0,-64,-29,-64,-64v0,-35,29,-65,64,-65v35,0,65,30,65,65v0,35,-30,64,-65,64xm401,-570v-35,0,-64,-29,-64,-64v0,-35,29,-65,64,-65v35,0,65,30,65,65v0,35,-30,64,-65,64","w":574},"\u00e5":{"d":"418,-695v0,66,-63,125,-128,125v-65,0,-128,-59,-128,-125v0,-65,63,-123,128,-123v65,0,128,58,128,123xm242,-695v0,28,21,49,48,49v27,0,48,-21,48,-49v0,-26,-22,-47,-48,-47v-26,0,-48,21,-48,47xm474,-500v29,-1,54,26,53,54r0,393v1,29,-24,54,-53,53v-27,0,-46,-20,-52,-43v-41,29,-85,43,-133,43v-131,0,-238,-116,-238,-249v0,-136,108,-253,238,-251v47,0,92,15,133,44v6,-23,25,-44,52,-44xm289,-107v77,0,132,-66,132,-142v0,-77,-55,-144,-132,-144v-78,0,-131,65,-131,144v0,78,53,142,131,142","w":574},"\u00e6":{"d":"951,-274v1,36,-21,56,-54,56r-325,0v14,67,64,105,133,113v44,5,80,-5,106,-26v16,-20,61,-22,77,-3v17,21,21,46,0,67v-89,88,-260,93,-351,0v5,39,-21,66,-54,67v-28,0,-47,-21,-53,-44v-41,29,-86,44,-136,44v-133,0,-243,-119,-243,-254v0,-137,109,-256,243,-256v48,0,93,15,136,44v6,-23,25,-44,53,-44v33,1,59,28,54,67v48,-45,104,-67,168,-67v134,0,241,106,246,236xm160,-254v0,77,56,145,134,145v37,0,69,-13,95,-40v27,-29,40,-65,40,-105v1,-79,-57,-147,-135,-147v-79,0,-134,67,-134,147xm856,-305v-15,-53,-80,-108,-151,-108v-71,0,-127,53,-138,108r289,0","w":954},"\u00e7":{"d":"164,-249v0,76,70,143,148,143v34,0,66,-10,95,-32v35,-27,92,3,84,48v-2,14,-8,28,-20,37v-49,36,-102,53,-159,53v-134,0,-254,-116,-254,-249v0,-136,120,-251,254,-251v58,0,110,19,159,55v20,15,28,51,11,74v-17,22,-50,29,-75,10v-29,-22,-61,-32,-95,-32v-77,0,-148,68,-148,144xm270,160v-22,0,-71,-24,-70,-44v0,-8,3,-16,8,-23r71,-103r91,0r-61,141v-8,19,-21,29,-39,29","w":571},"\u00e8":{"d":"543,-268v2,35,-21,53,-53,54r-318,0v6,29,20,49,34,66v41,49,146,62,200,20v15,-20,60,-21,75,-3v16,20,21,45,0,65v-47,45,-108,66,-179,66v-133,0,-244,-117,-244,-250v0,-133,110,-250,244,-250v132,0,237,104,241,232xm450,-299v-15,-52,-78,-106,-148,-106v-70,0,-124,52,-135,106r283,0xm206,-691v1,-21,46,-39,72,-39v20,0,36,10,48,29r57,88v16,21,11,44,-22,43v-28,0,-51,-9,-70,-27r-68,-64v-11,-10,-17,-20,-17,-30","w":609},"\u00e9":{"d":"543,-268v2,35,-21,53,-53,54r-318,0v6,29,20,49,34,66v41,49,146,62,200,20v15,-20,60,-21,75,-3v16,20,21,45,0,65v-47,45,-108,66,-179,66v-133,0,-244,-117,-244,-250v0,-133,110,-250,244,-250v132,0,237,104,241,232xm450,-299v-15,-52,-78,-106,-148,-106v-70,0,-124,52,-135,106r283,0xm320,-730v26,0,71,18,72,39v0,10,-6,20,-17,30r-67,64v-19,18,-43,27,-71,27v-32,0,-36,-22,-22,-43r57,-88v12,-19,28,-29,48,-29","w":609},"\u00ea":{"d":"543,-268v2,35,-21,53,-53,54r-318,0v6,29,20,49,34,66v41,49,146,62,200,20v15,-20,60,-21,75,-3v16,20,21,45,0,65v-47,45,-108,66,-179,66v-133,0,-244,-117,-244,-250v0,-133,110,-250,244,-250v132,0,237,104,241,232xm450,-299v-15,-52,-78,-106,-148,-106v-70,0,-124,52,-135,106r283,0xm300,-642v-35,27,-69,73,-126,72v-32,-1,-32,-23,-15,-44r66,-83v23,-29,49,-31,94,-29v23,0,43,10,58,29r66,83v19,21,17,43,-17,44v-56,1,-92,-45,-126,-72","w":609},"\u00eb":{"d":"546,-268v2,35,-21,53,-53,54r-318,0v6,29,20,49,34,66v41,49,146,62,200,20v15,-20,60,-21,75,-3v16,20,21,45,0,65v-47,45,-108,66,-179,66v-133,0,-244,-117,-244,-250v0,-133,110,-250,244,-250v132,0,237,104,241,232xm453,-299v-15,-52,-78,-106,-148,-106v-70,0,-124,52,-135,106r283,0xm203,-570v-35,0,-64,-29,-64,-64v0,-35,29,-65,64,-65v35,0,65,30,65,65v0,35,-30,64,-65,64xm403,-570v-35,0,-64,-29,-64,-64v0,-35,29,-65,64,-65v35,0,65,30,65,65v0,35,-30,64,-65,64","w":584},"\u00ec":{"d":"64,-444v-1,-31,24,-55,54,-55v30,0,55,24,54,55r0,390v1,30,-24,54,-54,54v-28,0,-55,-26,-54,-54r0,-390xm24,-691v1,-21,46,-39,72,-39v20,0,36,10,48,29r57,88v16,21,11,44,-22,43v-28,0,-51,-9,-70,-27r-68,-64v-11,-10,-17,-20,-17,-30","w":281},"\u00ed":{"d":"50,-444v-1,-31,24,-55,54,-55v30,0,55,24,54,55r0,390v1,30,-24,54,-54,54v-28,0,-55,-26,-54,-54r0,-390xm127,-730v26,0,71,18,72,39v0,10,-6,20,-17,30r-67,64v-19,18,-43,27,-71,27v-32,0,-36,-22,-22,-43r57,-88v12,-19,28,-29,48,-29","w":281},"\u00ee":{"d":"109,-444v-1,-31,24,-55,54,-55v30,0,55,24,54,55r0,390v1,30,-24,54,-54,54v-30,0,-55,-25,-54,-54r0,-390xm162,-642v-35,27,-69,73,-126,72v-32,-1,-32,-23,-15,-44r66,-83v23,-29,49,-31,94,-29v23,0,43,10,58,29r66,83v19,21,17,43,-17,44v-56,1,-92,-45,-126,-72","w":281},"\u00ef":{"d":"105,-444v-1,-31,24,-55,54,-55v30,0,55,24,54,55r0,390v1,30,-24,54,-54,54v-30,0,-55,-25,-54,-54r0,-390xm58,-570v-35,0,-64,-29,-64,-64v0,-35,29,-65,64,-65v35,0,65,30,65,65v0,35,-30,64,-65,64xm258,-570v-35,0,-64,-29,-64,-64v0,-35,29,-65,64,-65v35,0,65,30,65,65v0,35,-30,64,-65,64","w":281},"\u00f0":{"d":"58,-249v0,-135,99,-239,232,-237v47,0,94,14,139,41r-104,-143r-109,48v-27,11,-56,-8,-55,-35v0,-17,9,-28,27,-36r91,-40v-26,-36,2,-87,45,-87v26,0,47,23,59,43v35,-13,66,-33,104,-42v21,-1,39,18,38,39v0,17,-9,29,-26,36r-72,31v51,76,126,166,157,251v14,37,20,78,20,121v1,153,-117,271,-277,271v-147,0,-269,-117,-269,-261xm332,-91v88,0,153,-69,153,-156v0,-84,-69,-150,-157,-150v-88,0,-151,64,-151,151v0,84,69,155,155,155","w":628},"\u00f1":{"d":"94,-447v-1,-29,24,-54,53,-53v23,0,39,10,49,31v33,-21,68,-31,106,-31v112,0,209,97,209,208r0,239v1,29,-23,53,-52,53v-27,0,-53,-25,-53,-53r0,-239v1,-55,-49,-101,-104,-101v-55,0,-100,47,-100,101r0,239v-2,29,-25,52,-55,53v-29,1,-54,-24,-53,-53r0,-394xm379,-582v-30,0,-121,-41,-144,-40v-19,0,-35,11,-46,32v-16,33,-70,21,-70,-13v0,-39,28,-74,45,-91v16,-15,36,-23,61,-23v30,0,121,41,144,40v19,0,35,-11,46,-32v16,-33,70,-21,70,13v0,39,-28,75,-45,92v-16,15,-36,22,-61,22"},"\u00f2":{"d":"299,3v-128,0,-241,-116,-241,-252v0,-65,23,-124,69,-175v90,-100,249,-98,339,0v89,97,90,261,0,351v-47,48,-100,76,-167,76xm203,-353v-51,51,-49,157,0,210v47,50,139,51,188,0v52,-54,54,-158,0,-210v-55,-53,-135,-52,-188,0xm204,-691v1,-21,46,-39,72,-39v20,0,36,10,48,29r57,88v16,21,11,44,-22,43v-28,0,-51,-9,-70,-27r-68,-64v-11,-10,-17,-20,-17,-30","w":640},"\u00f3":{"d":"299,3v-128,0,-241,-116,-241,-252v0,-65,23,-124,69,-175v90,-100,249,-98,339,0v89,97,90,261,0,351v-47,48,-100,76,-167,76xm203,-353v-51,51,-49,157,0,210v47,50,139,51,188,0v52,-54,54,-158,0,-210v-55,-53,-135,-52,-188,0xm315,-730v26,0,71,18,72,39v0,10,-6,20,-17,30r-67,64v-19,18,-43,27,-71,27v-32,0,-36,-22,-22,-43r57,-88v12,-19,28,-29,48,-29","w":640},"\u00f4":{"d":"299,3v-128,0,-241,-116,-241,-252v0,-65,23,-124,69,-175v90,-100,249,-98,339,0v89,97,90,261,0,351v-47,48,-100,76,-167,76xm203,-353v-51,51,-49,157,0,210v47,50,139,51,188,0v52,-54,54,-158,0,-210v-55,-53,-135,-52,-188,0xm296,-642v-35,27,-69,73,-126,72v-32,-1,-32,-23,-15,-44r66,-83v23,-29,49,-31,94,-29v23,0,43,10,58,29r66,83v19,21,17,43,-17,44v-56,1,-92,-45,-126,-72","w":640},"\u00f5":{"d":"299,3v-128,0,-241,-116,-241,-252v0,-65,23,-124,69,-175v90,-100,249,-98,339,0v89,97,90,261,0,351v-47,48,-100,76,-167,76xm203,-353v-51,51,-49,157,0,210v47,50,139,51,188,0v52,-54,54,-158,0,-210v-55,-53,-135,-52,-188,0xm374,-582v-30,0,-121,-41,-144,-40v-19,0,-35,11,-46,32v-16,33,-70,21,-70,-13v0,-39,27,-74,44,-91v16,-15,37,-23,62,-23v30,0,121,41,144,40v19,0,35,-11,46,-32v16,-33,70,-21,70,13v0,39,-27,75,-44,92v-16,15,-37,22,-62,22","w":640},"\u00f6":{"d":"299,3v-128,0,-241,-116,-241,-252v0,-65,23,-124,69,-175v90,-100,249,-98,339,0v89,97,90,261,0,351v-47,48,-100,76,-167,76xm203,-353v-51,51,-49,157,0,210v47,50,139,51,188,0v52,-54,54,-158,0,-210v-55,-53,-135,-52,-188,0xm197,-570v-35,0,-64,-29,-64,-64v0,-35,29,-65,64,-65v35,0,65,30,65,65v0,35,-30,64,-65,64xm397,-570v-35,0,-64,-29,-64,-64v0,-35,29,-65,64,-65v35,0,65,30,65,65v0,35,-30,64,-65,64","w":640},"\u00f7":{"d":"572,-352v0,28,-24,53,-52,52r-404,0v-28,1,-52,-24,-52,-52v0,-28,24,-53,52,-52r404,0v28,-1,52,24,52,52xm249,-558v0,-41,32,-71,69,-71v37,0,69,31,69,71v0,37,-32,67,-69,67v-37,0,-69,-30,-69,-67xm249,-141v0,-42,30,-72,69,-72v39,0,69,31,69,72v0,37,-32,66,-69,66v-37,0,-69,-29,-69,-66","w":620},"\u00f8":{"d":"95,-257v0,-134,112,-256,245,-256v62,0,115,21,160,64v25,-22,58,-64,104,-45v19,16,8,41,-8,56r-50,45v61,100,40,237,-34,316v-86,93,-242,103,-334,13v-25,21,-64,68,-103,44v-22,-14,-10,-42,8,-58r49,-43v-25,-40,-37,-85,-37,-136xm244,-362v-38,42,-50,106,-28,165r202,-179v-53,-42,-129,-34,-174,14xm434,-150v40,-44,53,-108,29,-169r-204,182v55,40,129,35,175,-13","w":640},"\u00f9":{"d":"448,-500v27,0,54,26,54,53r0,239v3,110,-100,208,-211,208v-110,0,-208,-97,-208,-208r0,-239v-1,-27,25,-53,53,-53v28,0,54,26,53,53r0,239v-1,56,46,102,102,102v56,0,105,-47,105,-102r0,-239v-1,-27,24,-53,52,-53xm200,-691v1,-21,46,-39,72,-39v20,0,36,10,48,29r57,88v16,21,11,44,-22,43v-28,0,-51,-9,-70,-27r-68,-64v-11,-10,-17,-20,-17,-30"},"\u00fa":{"d":"448,-500v27,0,54,26,54,53r0,239v3,110,-100,208,-211,208v-110,0,-208,-97,-208,-208r0,-239v-1,-27,25,-53,53,-53v28,0,54,26,53,53r0,239v-1,56,46,102,102,102v56,0,105,-47,105,-102r0,-239v-1,-27,24,-53,52,-53xm311,-730v26,0,71,18,72,39v0,10,-6,20,-17,30r-67,64v-19,18,-43,27,-71,27v-32,0,-36,-22,-22,-43r57,-88v12,-19,28,-29,48,-29"},"\u00fb":{"d":"448,-500v27,0,54,26,54,53r0,239v3,110,-100,208,-211,208v-110,0,-208,-97,-208,-208r0,-239v-1,-27,25,-53,53,-53v28,0,54,26,53,53r0,239v-1,56,46,102,102,102v56,0,105,-47,105,-102r0,-239v-1,-27,24,-53,52,-53xm292,-642v-35,27,-69,73,-126,72v-32,-1,-32,-23,-15,-44r66,-83v23,-29,49,-31,94,-29v23,0,43,10,58,29r66,83v19,21,17,43,-17,44v-56,1,-92,-45,-126,-72"},"\u00fc":{"d":"448,-500v27,0,54,26,54,53r0,239v3,110,-100,208,-211,208v-110,0,-208,-97,-208,-208r0,-239v-1,-27,25,-53,53,-53v28,0,54,26,53,53r0,239v-1,56,46,102,102,102v56,0,105,-47,105,-102r0,-239v-1,-27,24,-53,52,-53xm192,-569v-35,0,-64,-29,-64,-64v0,-35,29,-65,64,-65v35,0,65,30,65,65v0,35,-30,64,-65,64xm392,-569v-35,0,-64,-29,-64,-64v0,-35,29,-65,64,-65v35,0,65,30,65,65v0,35,-30,64,-65,64"},"\u00fd":{"d":"364,-447v-1,-30,23,-53,52,-53v28,0,55,24,54,53r0,378v5,166,-178,294,-342,214v-24,-12,-40,-39,-26,-71v9,-21,44,-37,71,-22v78,40,167,-13,183,-77v-28,16,-60,24,-95,24v-111,0,-209,-99,-209,-210r0,-236v-1,-28,24,-53,52,-53v30,0,54,23,53,53r0,236v-2,56,48,102,104,102v56,0,103,-46,103,-102r0,-236xm301,-730v26,0,71,18,72,39v0,10,-6,20,-17,30r-67,64v-19,18,-43,27,-71,27v-32,0,-36,-22,-22,-43r57,-88v12,-19,28,-29,48,-29","w":588},"\u00ff":{"d":"364,-447v-1,-30,23,-53,52,-53v28,0,55,24,54,53r0,378v5,166,-178,294,-342,214v-24,-12,-40,-39,-26,-71v9,-21,44,-37,71,-22v78,40,167,-13,183,-77v-28,16,-60,24,-95,24v-111,0,-209,-99,-209,-210r0,-236v-1,-28,24,-53,52,-53v30,0,54,23,53,53r0,236v-2,56,48,102,104,102v56,0,103,-46,103,-102r0,-236xm160,-570v-35,0,-64,-29,-64,-64v0,-35,29,-65,64,-65v35,0,65,30,65,65v0,35,-30,64,-65,64xm360,-570v-35,0,-64,-29,-64,-64v0,-35,29,-65,64,-65v35,0,65,30,65,65v0,35,-30,64,-65,64","w":588},"\u0152":{"d":"1097,-55v0,28,-27,56,-55,55r-326,-1v-28,5,-56,-25,-56,-54r0,-56v-53,61,-138,111,-243,111v-106,0,-190,-48,-245,-107v-66,-69,-99,-154,-99,-253v0,-191,154,-364,344,-360v105,2,191,50,243,112r0,-37v-1,-30,25,-56,55,-55r327,0v29,-1,55,26,55,55v0,29,-26,57,-55,56r-271,0r0,183r233,0v28,-1,55,27,55,55v0,30,-25,57,-55,56r-233,0r0,184r271,0v29,-1,55,27,55,56xm417,-114v122,0,226,-118,226,-246v0,-127,-102,-246,-226,-246v-128,0,-230,115,-230,246v0,131,104,246,230,246","w":1443},"\u0153":{"d":"962,-274v1,36,-21,56,-54,56r-325,0v14,67,64,105,133,113v44,5,80,-5,106,-26v16,-20,61,-22,77,-3v17,21,21,46,0,67v-47,47,-110,67,-183,67v-96,-1,-168,-52,-208,-115v-43,65,-115,118,-205,118v-134,0,-245,-119,-245,-257v0,-134,112,-256,245,-256v89,0,164,52,203,118v40,-65,113,-117,210,-118v134,-2,241,106,246,236xm438,-254v0,-75,-62,-146,-135,-146v-37,0,-69,13,-96,41v-53,56,-52,156,0,212v50,53,140,54,190,0v28,-30,41,-66,41,-107xm867,-305v-15,-53,-80,-108,-151,-108v-71,0,-127,53,-138,108r289,0","w":1055},"\u0178":{"d":"331,0v-29,0,-55,-26,-55,-55r0,-270r-203,-281v-32,-38,7,-94,52,-86v15,2,26,9,35,22r171,234r171,-234v16,-23,51,-31,77,-12v22,16,30,51,12,76r-205,281r0,270v1,30,-25,55,-55,55xm230,-772v-35,0,-64,-29,-64,-64v0,-35,29,-65,64,-65v35,0,65,30,65,65v0,35,-30,64,-65,64xm430,-772v-35,0,-64,-29,-64,-64v0,-35,29,-65,64,-65v35,0,65,30,65,65v0,35,-30,64,-65,64","w":716},"\u02c6":{"d":"294,-662v-35,27,-69,73,-126,72v-32,-1,-32,-23,-15,-44r66,-83v23,-29,49,-31,94,-29v23,0,43,10,58,29r66,83v19,21,17,43,-17,44v-56,1,-92,-45,-126,-72","w":500},"\u02dc":{"d":"365,-595v-30,0,-121,-41,-144,-40v-19,0,-35,11,-46,32v-16,33,-70,21,-70,-13v0,-39,28,-75,45,-92v16,-15,36,-22,61,-22v30,0,121,41,144,40v19,0,35,-11,46,-32v16,-33,70,-21,70,13v0,39,-28,74,-45,91v-16,15,-36,23,-61,23","w":500},"\u2013":{"d":"492,-306v0,30,-27,58,-57,57r-312,0v-30,1,-57,-27,-57,-57v0,-31,27,-59,57,-58r312,0v30,-1,57,27,57,58","w":528},"\u2014":{"d":"862,-306v0,30,-27,58,-57,57r-682,0v-30,1,-57,-27,-57,-57v0,-31,27,-59,57,-58r682,0v30,-1,57,27,57,58","w":898},"\u2018":{"d":"149,-417v-50,0,-72,-42,-72,-98v0,-65,17,-113,50,-146v28,-28,59,-43,94,-43v21,0,31,9,31,28v0,13,-8,22,-24,27v-47,15,-70,44,-68,89v31,10,57,34,57,76v0,38,-29,68,-68,67","w":230},"\u2019":{"d":"233,-617v0,112,-52,199,-143,199v-21,0,-31,-9,-31,-28v0,-13,8,-22,23,-27v47,-15,70,-45,68,-90v-32,-8,-57,-32,-57,-75v0,-38,29,-68,68,-67v46,0,72,39,72,88","w":230},"\u201a":{"d":"228,-55v0,111,-54,200,-143,200v-21,0,-31,-9,-31,-28v0,-15,8,-23,23,-27v48,-14,70,-45,68,-90v-31,-10,-57,-34,-57,-76v0,-38,29,-68,68,-67v48,0,72,37,72,88","w":230},"\u201c":{"d":"293,-505v0,-112,52,-199,143,-199v21,0,32,9,32,28v0,13,-8,22,-24,27v-47,15,-70,44,-68,89v31,10,57,34,57,76v0,38,-29,68,-68,67v-46,0,-72,-39,-72,-88xm133,-417v-50,0,-72,-42,-72,-98v0,-65,17,-113,50,-146v28,-28,59,-43,94,-43v21,0,31,9,31,28v0,13,-8,22,-24,27v-47,15,-70,44,-68,89v31,10,57,34,57,76v0,38,-29,68,-68,67","w":522},"\u201d":{"d":"233,-617v0,112,-52,199,-143,199v-21,0,-31,-9,-31,-28v0,-13,8,-22,23,-27v47,-15,70,-45,68,-90v-32,-8,-57,-32,-57,-75v0,-38,29,-68,68,-67v46,0,72,39,72,88xm393,-705v50,0,72,42,72,98v0,65,-17,113,-50,146v-28,28,-59,43,-94,43v-21,0,-31,-9,-31,-28v0,-13,8,-22,24,-27v47,-15,70,-45,68,-90v-32,-8,-57,-32,-57,-75v0,-38,29,-68,68,-67","w":522},"\u201e":{"d":"228,-55v0,111,-54,200,-143,200v-21,0,-31,-9,-31,-28v0,-15,8,-23,23,-27v48,-14,70,-45,68,-90v-31,-10,-57,-34,-57,-76v0,-38,29,-68,68,-67v48,0,72,37,72,88xm460,-55v0,111,-53,200,-144,200v-21,0,-31,-9,-31,-28v0,-15,8,-22,24,-27v48,-14,70,-45,68,-90v-31,-10,-57,-34,-57,-76v0,-38,29,-68,68,-67v46,0,72,39,72,88","w":410},"\u2022":{"d":"394,-353v0,77,-65,142,-141,142v-77,0,-142,-64,-142,-142v0,-75,67,-141,142,-141v74,0,141,66,141,141","w":470},"\u2026":{"d":"156,7v-40,0,-74,-34,-74,-74v0,-40,34,-75,74,-75v40,0,75,35,75,75v0,40,-35,74,-75,74xm443,7v-40,0,-74,-34,-74,-74v0,-40,34,-75,74,-75v40,0,75,35,75,75v0,40,-35,74,-75,74xm730,7v-40,0,-74,-34,-74,-74v0,-40,34,-75,74,-75v40,0,75,35,75,75v0,40,-35,74,-75,74","w":680},"\u2039":{"d":"276,-126v31,30,7,86,-35,84v-19,0,-33,-9,-45,-24r-126,-162v-20,-27,-21,-44,0,-71r129,-165v11,-15,25,-22,42,-22v42,-1,63,50,37,84r-107,140","w":311},"\u203a":{"d":"80,-402v-29,-31,-5,-85,37,-84v17,0,31,7,42,22r129,165v20,27,20,44,0,71r-126,162v-11,16,-26,24,-45,24v-42,2,-61,-50,-35,-84r105,-136","w":311},"\u2122":{"d":"228,-700v12,0,23,10,23,23v0,12,-11,25,-23,25r-68,0r0,228v0,12,-10,23,-23,23v-13,0,-24,-11,-24,-23r0,-228r-68,0v-13,0,-23,-12,-23,-25v0,-13,10,-23,23,-23r183,0xm311,-677v-1,-22,32,-32,44,-13r84,118r84,-118v14,-18,45,-10,45,13r0,253v0,12,-11,23,-24,23v-13,0,-24,-11,-24,-23r0,-181r-61,86v-9,13,-31,13,-40,0r-62,-86r0,181v0,12,-10,24,-23,23v-12,0,-23,-11,-23,-23r0,-253","w":690}}});
