/*!
 * The following copyright notice may not be removed under any circumstances.
 * 
 * Copyright:
 * Copyright (c) Andrew Paglinawan, 2008. All rights reserved.
 * 
 * Trademark:
 * Dashling is a trademark of the Andrew Paglinawan.
 * 
 * Manufacturer:
 * Andrew Paglinawan
 * 
 * Designer:
 * Andrew Paglinawan
 */
Cufon.registerFont({"w":613,"face":{"font-family":"Quicksand Book","font-weight":400,"font-stretch":"normal","units-per-em":"1000","panose-1":"2 7 3 3 0 0 0 6 0 0","ascent":"800","descent":"-200","bbox":"-24 -923.058 1115 205","underline-thickness":"50","underline-position":"-50","unicode-range":"U+0020-U+2122"},"glyphs":{" ":{"w":300},"\u00a0":{"w":300},"!":{"d":"117,-149v-13,0,-24,-12,-24,-25r0,-502v0,-13,11,-24,24,-24v13,0,25,11,25,24r0,502v0,13,-11,26,-25,25xm117,0v-22,0,-24,-23,-24,-48v0,-13,11,-24,24,-24v23,0,25,22,25,48v0,13,-12,24,-25,24","w":252},"\"":{"d":"250,-461r30,-215v3,-25,20,-28,47,-26v11,0,16,6,16,17v0,1,-1,9,-5,24r-57,201v-4,12,-10,18,-17,18v-11,0,-16,-6,-14,-19xm70,-461r30,-215v3,-25,20,-28,47,-26v11,0,16,6,16,17v0,1,-1,9,-5,24r-57,201v-4,12,-10,18,-17,18v-11,0,-16,-6,-14,-19","w":410},"#":{"d":"614,-211v0,13,-11,24,-24,24r-117,0r-29,169v0,23,-32,29,-43,13v-4,-6,-5,-13,-4,-20r28,-162r-207,0r-29,169v0,23,-32,29,-43,13v-4,-6,-5,-13,-4,-20r28,-162r-101,0v-13,0,-24,-10,-24,-23v0,-13,11,-24,24,-24r109,0r41,-236r-110,0v-13,0,-24,-10,-24,-23v0,-13,11,-24,24,-24r118,0r28,-165v0,-23,32,-29,43,-13v4,6,5,13,4,20r-27,158r207,0r28,-165v0,-23,32,-29,43,-13v4,6,5,13,4,20r-27,158r100,0v13,0,24,10,24,23v0,13,-11,24,-24,24r-108,0r-41,236r109,0v13,0,24,10,24,23xm226,-234r207,0r41,-236r-207,0","w":700},"$":{"d":"87,-519v-1,-106,99,-182,210,-181r0,-38v0,-13,11,-24,24,-24v13,0,24,11,24,24r0,40v63,5,121,30,178,70v23,16,14,48,-12,48v-7,0,-13,-2,-18,-7v-47,-37,-97,-59,-150,-65r0,280v76,16,131,38,165,68v34,30,51,70,51,119v1,111,-99,184,-214,185r0,78v0,13,-11,24,-24,24v-13,0,-24,-11,-24,-24r0,-79v-83,-7,-157,-41,-225,-97v-19,-16,-9,-46,14,-46v7,0,13,2,18,7v57,53,122,84,195,91r0,-285v-75,-17,-129,-40,-162,-69v-33,-29,-50,-69,-50,-119xm343,-45v89,1,164,-53,165,-136v0,-36,-12,-65,-36,-87v-24,-22,-66,-39,-129,-53r0,276xm299,-655v-86,-1,-160,53,-161,132v0,36,11,65,34,87v23,22,65,39,127,54r0,-273","w":632},"&":{"d":"278,0v-122,2,-232,-106,-229,-229v2,-84,44,-152,99,-189v-29,-31,-44,-69,-44,-113v0,-91,78,-169,169,-169v91,0,172,78,169,169v0,13,-12,24,-25,24v-13,0,-24,-11,-24,-24v2,-65,-55,-120,-120,-120v-65,0,-120,55,-120,120v0,41,17,73,51,97v20,14,8,40,-9,45v-53,28,-96,84,-97,160v-2,96,84,180,180,180v108,0,204,-102,175,-221v-7,-1,-17,-2,-30,-2v-79,2,-127,17,-132,82v3,23,10,53,-20,53v-13,0,-21,-6,-24,-17v-3,-3,-5,-15,-5,-36v3,-104,99,-140,216,-129v48,5,65,-30,56,-74v-7,-32,41,-43,48,-11v3,14,3,26,3,37v0,46,-28,78,-63,91v32,152,-88,274,-224,276","w":696},"'":{"d":"70,-461r30,-215v3,-25,20,-28,47,-26v11,0,16,6,16,17v0,1,-1,9,-5,24r-57,201v-4,12,-10,18,-17,18v-11,0,-16,-6,-14,-19","w":230},"(":{"d":"320,69v0,16,-12,29,-29,28v-88,-1,-140,-59,-172,-125v-61,-127,-62,-423,0,-550v40,-82,96,-125,174,-125v14,-1,27,14,27,28v0,14,-13,29,-27,28v-53,1,-94,32,-124,93v-55,111,-55,391,0,502v31,62,71,93,124,93v14,-1,27,14,27,28","w":430},")":{"d":"60,-675v0,-14,13,-29,27,-28v78,0,134,43,174,125v62,127,62,423,0,550v-32,66,-84,125,-174,125v-15,0,-28,-13,-27,-28v0,-14,13,-29,27,-28v53,0,93,-31,124,-93v55,-111,55,-391,0,-502v-30,-61,-71,-92,-124,-93v-14,1,-27,-14,-27,-28","w":430},"*":{"d":"230,-408v-12,14,-36,3,-35,-16r8,-109r-91,62v-15,13,-35,3,-36,-15v0,-9,5,-15,14,-19r103,-49r-103,-49v-21,-8,-18,-39,6,-40v5,0,10,2,16,6r91,62r-8,-109v-2,-12,9,-22,20,-22v12,0,22,10,20,22r-8,109r91,-62v15,-13,35,-3,36,15v0,9,-5,15,-14,19r-103,49r103,49v23,7,15,40,-6,40v-5,0,-10,-2,-16,-6r-91,-62r8,109v1,6,-1,12,-5,16","w":430},"+":{"d":"314,-100v-18,0,-33,-16,-33,-34r0,-183r-183,0v-18,0,-34,-15,-34,-33v0,-18,16,-35,34,-34r183,0r0,-183v0,-18,15,-33,33,-33v18,0,35,15,34,33r0,183r183,0v18,-1,33,16,33,34v0,18,-15,33,-33,33r-183,0r0,183v1,18,-16,34,-34,34","w":620},",":{"d":"115,-89v28,0,33,26,33,58v0,51,-9,86,-27,104v-21,21,-39,32,-52,32v-17,0,-20,-22,-7,-28v34,-19,50,-44,47,-77v-25,-6,-27,-26,-27,-56v0,-18,15,-33,33,-33","w":230},"-":{"d":"317,-348v0,11,-8,20,-19,20r-213,0v-13,0,-19,-7,-19,-20v0,-12,6,-18,19,-18r213,0v13,0,19,6,19,18","w":408},"\u00ad":{"d":"317,-348v0,11,-8,20,-19,20r-213,0v-13,0,-19,-7,-19,-20v0,-12,6,-18,19,-18r213,0v13,0,19,6,19,18","w":408},".":{"d":"132,0v-27,0,-50,-23,-50,-50v0,-27,23,-50,50,-50v27,0,50,23,50,50v0,27,-23,50,-50,50","w":230},"\/":{"d":"101,0v-22,0,-30,-18,-23,-34r273,-648v9,-22,38,-18,45,0v2,6,3,12,0,19r-273,648v-4,10,-11,15,-22,15","w":422},"0":{"d":"132,-106v-86,-128,-87,-361,0,-489v94,-139,257,-139,350,0v90,134,89,355,0,489v-93,140,-256,139,-350,0xm173,-567v-76,114,-77,321,0,434v75,111,192,111,268,0v79,-115,77,-319,0,-434v-74,-110,-195,-110,-268,0","w":710},"1":{"d":"193,0v-13,0,-24,-11,-24,-24r0,-605r-99,58v-12,8,-27,3,-33,-8v-8,-15,-5,-25,9,-33r135,-82v18,-10,36,5,36,27r0,643v0,13,-11,24,-24,24","w":335},"2":{"d":"489,-24v0,13,-11,24,-24,24r-394,0v-22,1,-35,-27,-17,-43r327,-295v40,-37,60,-81,60,-134v2,-96,-84,-179,-180,-179v-47,0,-87,15,-122,46r-34,31v-16,16,-42,2,-41,-19v0,-7,3,-11,8,-16r34,-32v45,-39,96,-59,155,-59v123,0,229,104,228,228v0,67,-25,124,-75,170r-280,253r331,0v13,0,24,12,24,25","w":590},"3":{"d":"461,-700v23,-2,33,29,17,44r-181,186v104,19,189,117,189,232v0,128,-111,238,-238,238v-65,0,-121,-23,-167,-70v-15,-14,-4,-43,17,-42v7,0,13,2,18,7v37,36,81,54,132,54v102,0,188,-86,188,-187v0,-101,-86,-189,-187,-187v-21,1,-38,-28,-21,-46r174,-179r-268,0v-13,0,-25,-11,-25,-25v0,-14,12,-25,25,-25r327,0","w":610},"4":{"d":"480,0v-13,0,-24,-11,-24,-24r0,-120r-382,0v-22,1,-30,-24,-18,-39r406,-505v15,-19,43,-7,43,16r0,480r47,0v13,0,25,11,25,24v0,13,-12,24,-25,24r-47,0r0,120v0,13,-12,24,-25,24xm125,-192r331,0r0,-410","w":664},"5":{"d":"475,-237v0,130,-111,237,-237,237v-66,0,-121,-24,-168,-69v-17,-16,-2,-44,18,-43v7,0,13,3,18,8v37,36,81,54,132,54v100,0,187,-87,187,-187v0,-102,-84,-187,-186,-187v-52,0,-96,18,-133,55v-17,16,-45,2,-42,-25r34,-282v0,-12,12,-24,26,-24r326,0v13,0,26,11,25,25v0,14,-11,25,-25,25r-305,0r-25,208v37,-21,76,-32,119,-32v129,-3,236,108,236,237","w":605},"6":{"d":"529,-231v0,125,-106,231,-232,231v-123,0,-227,-103,-231,-223v-5,-126,17,-238,66,-324v55,-97,137,-147,245,-152v21,-1,33,26,18,41v-5,5,-10,7,-17,8v-138,2,-230,124,-254,267v46,-53,104,-79,173,-79v125,0,232,107,232,231xm297,-413v-101,0,-195,91,-180,199v0,3,0,6,-1,7v9,84,88,158,181,158v98,0,184,-84,184,-182v0,-98,-86,-182,-184,-182","w":642},"7":{"d":"64,-672v0,-13,11,-24,24,-24r370,0v22,-6,34,18,26,37r-271,644v-7,21,-39,18,-45,-1v-3,-6,-3,-12,-1,-18r259,-614r-338,0v-13,0,-24,-11,-24,-24","w":587},"8":{"d":"55,-227v0,-100,65,-180,140,-210v-39,-30,-58,-69,-58,-118v0,-78,66,-145,145,-145v78,0,146,67,146,145v0,49,-20,88,-60,118v76,30,139,110,141,210v2,123,-105,227,-227,227v-122,0,-227,-105,-227,-227xm282,-406v-96,0,-179,83,-179,179v0,96,83,179,179,179v97,0,179,-83,179,-179v0,-96,-82,-179,-179,-179xm282,-652v-52,0,-97,44,-97,97v0,53,45,99,97,99v52,0,98,-46,98,-99v0,-52,-45,-97,-98,-97","w":630},"9":{"d":"297,-700v142,3,234,114,234,269v0,107,-22,201,-67,279v-56,98,-138,148,-246,152v-14,0,-25,-9,-25,-23v0,-16,8,-25,24,-26v88,-4,156,-45,204,-127v24,-42,41,-89,50,-140v-45,51,-103,77,-174,77v-125,0,-231,-106,-231,-231v0,-123,108,-234,231,-230xm115,-470v0,98,84,182,182,182v100,0,183,-83,183,-182v0,-98,-85,-181,-183,-181v-97,0,-182,84,-182,181","w":642},":":{"d":"137,0v-27,0,-50,-23,-50,-50v0,-27,23,-50,50,-50v27,0,50,23,50,50v0,27,-23,50,-50,50xm137,-420v-27,0,-50,-23,-50,-50v0,-27,23,-50,50,-50v27,0,50,23,50,50v0,27,-23,50,-50,50","w":240},";":{"d":"118,-419v-27,0,-50,-23,-50,-50v0,-27,23,-50,50,-50v27,0,50,23,50,50v0,27,-23,50,-50,50xm120,-89v28,0,33,26,33,58v0,51,-9,86,-27,104v-21,21,-39,32,-52,32v-17,0,-20,-22,-7,-28v34,-19,50,-44,47,-77v-25,-6,-27,-26,-27,-56v0,-18,15,-33,33,-33","w":240},"<":{"d":"427,-48v15,17,4,50,-21,48v-7,0,-14,-3,-20,-9r-323,-327v-5,-11,-1,-27,7,-33r316,-320v10,-11,31,-11,41,0v11,14,13,29,0,42r-298,299","w":620},"=":{"d":"491,-242v0,16,-12,28,-28,28r-356,0v-16,0,-28,-12,-28,-28v0,-15,13,-28,28,-27r356,0v15,-1,28,12,28,27xm491,-457v0,15,-13,28,-28,27r-356,0v-15,1,-28,-12,-28,-27v0,-16,12,-28,28,-28r356,0v16,0,28,12,28,28","w":620},">":{"d":"140,-9v-16,19,-50,6,-48,-19v0,-8,2,-15,7,-20r298,-300r-298,-299v-19,-19,-3,-52,21,-50v8,0,15,3,20,8r317,321v12,10,9,31,-1,41","w":620},"?":{"d":"230,-139v-12,0,-24,-10,-23,-23r0,-129v-1,-13,11,-23,23,-23v91,3,169,-78,169,-169v0,-124,-142,-215,-255,-147v-26,15,-46,36,-60,62v-9,17,-41,13,-43,-6v-1,-6,0,-13,3,-18v33,-60,100,-106,186,-108v116,-2,216,101,216,217v0,110,-90,206,-192,214r0,107v0,13,-11,23,-24,23xm230,0v-21,0,-23,-21,-23,-45v0,-13,11,-24,23,-24v22,0,24,21,24,46v0,13,-11,23,-24,23","w":534},"@":{"d":"490,-11v-237,60,-437,-124,-437,-340v0,-190,162,-350,351,-350v189,0,354,162,350,350v-2,107,-39,210,-128,236v-52,15,-93,-28,-93,-73r0,-34v-36,40,-79,60,-129,60v-98,0,-179,-90,-179,-189v0,-99,82,-187,179,-187v101,0,177,90,177,200r0,147r1,0v-1,9,6,33,24,29v32,1,56,-34,66,-52v22,-40,33,-86,33,-137v0,-161,-140,-301,-301,-301v-161,0,-302,140,-302,301v0,185,172,342,377,294v21,-5,37,16,27,35v-4,6,-9,10,-16,11xm404,-489v-69,0,-127,66,-127,138v0,72,56,137,127,137v69,0,128,-65,128,-137v0,-72,-59,-138,-128,-138","w":980},"A":{"d":"594,-33v6,17,-5,34,-22,33v-11,0,-19,-5,-23,-16r-62,-165r-319,0r-62,165v-5,21,-40,21,-46,2v-3,-6,-3,-13,0,-19r243,-649v7,-20,41,-19,48,0xm328,-606r-142,376r283,0","w":646},"B":{"d":"131,0v-16,2,-27,-10,-27,-24r0,-652v0,-14,11,-24,27,-24r153,0v94,-2,174,81,174,175v0,55,-22,100,-67,136v73,24,137,97,137,189v0,108,-92,200,-200,200r-197,0xm328,-49v81,2,151,-70,151,-151v0,-80,-70,-151,-151,-151r-175,0r0,302r175,0xm409,-525v0,-67,-58,-126,-125,-126r-131,0r0,250r131,0v67,2,125,-57,125,-124","w":594},"C":{"d":"437,0v-194,0,-364,-162,-364,-353v0,-195,170,-357,364,-357v84,0,159,26,226,77v18,13,7,44,-13,45v-7,1,-12,-1,-17,-5v-58,-45,-123,-68,-196,-68v-169,0,-315,141,-315,308v0,166,147,304,315,304v76,0,140,-24,194,-68v25,-21,56,21,32,41v-66,51,-141,76,-226,76","w":771},"D":{"d":"609,-349v0,188,-162,354,-350,349r-133,0v-12,-1,-22,-11,-22,-24r0,-652v0,-14,11,-24,27,-24r128,0v188,-5,350,163,350,351xm560,-349v0,-163,-139,-305,-301,-302r-106,0r0,602r106,0v162,5,301,-139,301,-300","w":719},"E":{"d":"131,0v-16,1,-26,-9,-27,-24r0,-652v0,-14,11,-24,26,-24r358,0v13,0,24,11,24,24v0,14,-11,25,-24,25r-335,0r0,277r293,0v13,0,24,12,24,25v0,13,-11,24,-24,24r-293,0r0,276r335,0v13,0,24,11,24,25v0,13,-11,24,-24,24r-357,0","w":593},"F":{"d":"128,0v-13,0,-24,-11,-24,-24r0,-652v0,-16,9,-24,27,-24r358,0v13,0,24,11,24,24v0,13,-11,25,-24,25r-336,0r0,277r294,0v14,0,25,11,25,25v0,13,-12,24,-25,24r-294,0r0,301v0,13,-12,24,-25,24","w":605},"G":{"d":"122,-356v0,168,146,307,315,307v69,0,130,-20,185,-60r0,-206r-191,0v-14,0,-25,-11,-25,-24v0,-14,11,-25,25,-25r219,0v12,1,22,12,22,25r0,244v-1,8,-4,14,-9,18v-65,51,-140,77,-226,77v-194,0,-364,-162,-364,-356v0,-191,170,-354,364,-354v83,0,160,25,227,79v23,19,-6,59,-32,38v-55,-46,-120,-68,-195,-68v-168,0,-315,139,-315,305","w":814},"H":{"d":"537,0v-13,0,-24,-11,-24,-24r0,-302r-360,0r0,302v0,13,-12,24,-25,24v-13,0,-24,-11,-24,-24r0,-652v0,-13,11,-24,24,-24v13,0,25,11,25,24r0,302r360,0r0,-302v0,-13,11,-24,24,-24v13,0,25,11,25,24r0,652v0,13,-12,24,-25,24","w":709},"I":{"d":"135,0v-13,0,-24,-11,-24,-24r0,-652v0,-13,11,-24,24,-24v13,0,25,11,25,24r0,652v0,13,-12,24,-25,24","w":305},"J":{"d":"509,-237v4,128,-110,237,-237,237v-109,0,-200,-76,-226,-164v-6,-21,14,-39,35,-30v6,3,10,8,11,14v21,72,91,131,180,131v101,0,189,-87,189,-188r0,-439v0,-13,11,-24,24,-24v13,0,24,11,24,24r0,439","w":594},"K":{"d":"128,0v-13,0,-24,-11,-24,-24r0,-649v0,-13,11,-25,24,-25v13,0,26,11,25,25r0,405r423,-423v15,-15,43,-3,42,17v0,7,-3,13,-8,18r-268,268r274,348v13,15,1,41,-20,40v-8,0,-14,-3,-18,-9r-271,-344r-154,154r0,175v0,13,-12,24,-25,24","w":715},"L":{"d":"513,-24v0,13,-12,24,-25,24r-360,0v-13,0,-24,-11,-24,-24r0,-652v0,-13,11,-24,24,-24v13,0,25,11,25,24r0,627r335,0v13,0,25,12,25,25","w":563},"M":{"d":"668,0v-13,0,-24,-11,-24,-24r0,-576r-224,311v-8,15,-33,14,-43,0r-224,-310r0,575v0,13,-11,24,-24,24v-13,0,-25,-11,-25,-24r0,-648v-1,-21,30,-37,46,-15r249,345r248,-345v7,-15,36,-11,41,2v3,5,4,10,4,13r0,648v0,13,-11,24,-24,24","w":844},"N":{"d":"623,-24v1,21,-31,33,-44,15r-4,-4r-420,-584r0,573v0,13,-11,24,-24,24v-13,0,-24,-11,-24,-24r0,-642v-11,-23,27,-43,43,-21r424,588r0,-570v0,-13,11,-24,24,-24v13,0,25,11,25,24r0,645","w":771},"O":{"d":"411,-710v186,0,335,167,335,355v0,188,-149,355,-335,355v-187,0,-338,-167,-338,-355v0,-189,151,-355,338,-355xm411,-660v-160,0,-289,141,-289,305v0,163,130,306,289,306v155,0,285,-147,285,-306v0,-162,-128,-305,-285,-305","w":850},"P":{"d":"128,0v-13,0,-24,-11,-24,-24r0,-652v0,-14,11,-24,27,-24r195,0v107,-3,199,93,199,200v0,106,-93,198,-199,199r-173,2r0,275v0,13,-12,24,-25,24xm477,-500v0,-80,-71,-151,-151,-151r-173,0r0,303r173,0v80,1,151,-71,151,-152","w":583},"Q":{"d":"66,-354v0,-188,152,-356,336,-356v184,0,336,168,336,356v0,154,-94,279,-206,328r-101,47v23,5,44,12,61,22v108,64,181,75,277,2v19,-15,42,2,40,23v-1,7,-3,12,-8,17v-110,82,-210,77,-333,2v-50,-31,-134,-24,-178,0v-10,5,-19,3,-29,-2v-13,-14,-12,-37,4,-44r93,-42v-160,-17,-292,-175,-292,-353xm402,-659v-157,0,-286,144,-286,305v0,161,129,306,286,306v157,0,286,-145,286,-306v0,-161,-129,-305,-286,-305","w":844},"R":{"d":"452,-158v0,-74,-77,-143,-143,-143r-170,0r0,277v0,13,-12,24,-25,24v-13,0,-24,-11,-24,-24r0,-652v1,-13,11,-24,27,-24r195,0v108,-3,201,92,199,200v-1,85,-52,154,-115,181v56,28,103,79,104,161v1,47,1,77,19,98v31,-6,38,43,11,48v-29,6,-45,-5,-59,-31v-13,-24,-19,-62,-19,-115xm307,-349v87,4,155,-68,156,-151v1,-81,-70,-151,-151,-151r-173,0r0,302r168,0","w":625},"S":{"d":"592,-194v2,115,-134,198,-259,195v-88,-2,-173,-35,-258,-101v-17,-13,-5,-38,12,-39v6,-1,11,1,16,5v75,61,152,90,230,90v104,0,212,-58,214,-150v0,-38,-19,-70,-57,-96v-37,-25,-92,-44,-164,-57v-71,-13,-126,-33,-165,-59v-48,-31,-72,-72,-72,-122v1,-135,183,-219,329,-168v63,21,76,35,129,67v19,11,9,38,-7,41v-6,1,-12,-1,-17,-4v-59,-38,-105,-70,-192,-74v-95,-5,-198,54,-198,138v0,33,18,62,52,85v33,22,84,41,152,53v77,14,136,36,178,64v51,34,77,77,77,132","w":667},"T":{"d":"309,0v-13,0,-24,-11,-24,-24r0,-627r-211,0v-13,0,-24,-12,-24,-25v0,-13,11,-24,24,-24r470,0v13,0,24,11,24,24v0,13,-11,25,-24,25r-211,0r0,627v0,13,-11,24,-24,24","w":648},"U":{"d":"387,0v-151,0,-282,-132,-282,-283r0,-393v0,-13,11,-24,24,-24v13,0,25,11,25,24r0,393v-4,126,109,234,233,234v126,0,235,-107,235,-234r0,-393v0,-13,11,-24,24,-24v13,0,25,11,25,24r0,393v4,152,-131,283,-284,283","w":814},"V":{"d":"380,-22v1,24,-37,29,-46,8r-273,-648v-7,-20,9,-39,31,-32v6,2,11,6,14,12r250,596r251,-596v4,-18,39,-17,44,2v2,7,3,12,0,18","w":750},"W":{"d":"383,-17v-1,17,-30,23,-41,9v-3,-3,-4,-7,-6,-12r-270,-642v-8,-20,8,-39,30,-32v6,2,11,6,14,12r250,595r178,-421v9,-21,40,-20,48,0r177,421r250,-595v8,-23,38,-16,45,2v2,6,3,12,0,18r-272,646v-5,20,-37,21,-45,2r-179,-426","w":1102},"X":{"d":"101,0v-18,0,-37,-23,-19,-39r225,-309r-225,-309v-15,-17,2,-43,22,-39v7,1,13,4,16,9r217,298r217,-298v14,-21,41,-7,44,11v1,7,0,14,-5,19r-226,309r226,309v14,15,-2,39,-19,39v-8,0,-15,-4,-20,-11r-217,-297r-217,297v-4,7,-10,11,-19,11","w":722},"Y":{"d":"320,0v-13,0,-24,-11,-24,-24r0,-312r-235,-321v-15,-20,3,-41,23,-39v7,1,13,4,16,9r219,301r220,-301v10,-18,43,-9,43,11v1,7,0,14,-4,19r-234,319r0,314v0,13,-11,24,-24,24","w":604},"Z":{"d":"571,0r-482,-1v-17,-6,-19,-26,-8,-41r441,-606r-424,0v-13,0,-24,-11,-24,-24v0,-13,11,-24,24,-24r465,0v18,-6,44,16,27,39r-445,608r426,0v13,0,24,11,24,25v0,13,-11,24,-24,24","w":667},"[":{"d":"124,130v-13,1,-27,-13,-26,-26r0,-778v-1,-13,13,-27,26,-26r232,0v10,-1,19,10,19,19v0,9,-9,20,-19,19r-212,0r0,754r212,0v10,-1,19,10,19,19v0,9,-9,20,-19,19r-232,0","w":430},"\\":{"d":"385,-36v7,16,-1,34,-23,34v-11,0,-18,-5,-22,-15r-273,-648v-13,-31,33,-48,45,-19","w":448},"]":{"d":"306,-700v13,-1,27,13,26,26r0,778v1,13,-13,27,-26,26r-232,0v-10,1,-19,-10,-19,-19v0,-9,9,-20,19,-19r212,0r0,-754r-212,0v-10,1,-19,-10,-19,-19v0,-9,9,-20,19,-19r232,0","w":430},"^":{"d":"249,-660r-120,157v-7,9,-18,14,-35,14v-16,1,-17,-14,-9,-24r133,-176v20,-25,44,-26,64,0r133,176v8,10,7,25,-10,24v-17,0,-29,-5,-36,-14","w":500},"_":{"d":"624,138v0,12,-10,22,-22,22r-604,0v-12,0,-22,-10,-22,-22v0,-12,10,-22,22,-22r604,0v12,0,22,10,22,22","w":600},"`":{"d":"163,-700v0,-12,28,-24,42,-23v11,0,20,6,28,18r62,93v7,9,6,20,-9,20v-12,0,-23,-4,-32,-13r-80,-77v-7,-7,-11,-13,-11,-18","w":500},"a":{"d":"456,-466v0,-13,11,-24,24,-24v13,0,24,11,24,24r0,442v0,13,-11,24,-24,24v-13,0,-24,-11,-24,-24r0,-73v-37,53,-101,95,-184,97v-127,3,-232,-116,-232,-245v0,-129,105,-247,232,-245v82,2,147,44,184,96r0,-72xm88,-245v0,103,84,197,184,197v101,0,184,-93,184,-197v0,-104,-83,-198,-184,-198v-100,0,-184,95,-184,198","w":619},"b":{"d":"117,0v-13,0,-24,-11,-24,-24r0,-652v0,-13,11,-24,24,-24v13,0,25,11,25,24r0,282v39,-52,103,-94,188,-96v130,-3,237,115,237,246v0,130,-108,247,-237,244v-84,-2,-149,-43,-188,-95r0,71v0,13,-12,24,-25,24xm330,-441v-103,0,-188,90,-188,197v0,103,87,195,188,195v103,0,188,-91,188,-195v0,-105,-85,-197,-188,-197","w":660},"c":{"d":"106,-246v0,109,95,198,204,198v47,0,89,-14,126,-43v12,-9,23,-7,33,4v11,13,9,24,-5,35v-45,35,-96,52,-154,52v-135,0,-252,-111,-252,-246v0,-134,117,-244,252,-244v59,0,110,19,156,54v10,7,12,23,3,33v-10,11,-21,13,-33,4v-37,-29,-79,-44,-126,-44v-109,0,-204,90,-204,197","w":571},"d":{"d":"510,0v-13,0,-25,-11,-25,-24r0,-71v-39,53,-103,93,-188,95v-129,3,-237,-114,-237,-244v0,-131,107,-248,237,-246v84,2,149,44,188,96r0,-282v0,-13,12,-24,25,-24v13,0,24,11,24,24r0,652v0,13,-11,24,-24,24xm109,-244v0,103,87,197,188,195v105,-2,192,-90,188,-203v-3,-100,-87,-189,-188,-189v-102,0,-188,93,-188,197","w":660},"e":{"d":"106,-236v2,101,88,190,190,188v72,-1,129,-40,158,-89v8,-13,19,-16,32,-8v14,9,16,21,8,34v-37,61,-108,109,-198,111v-129,3,-238,-114,-238,-244v0,-131,108,-246,238,-246v128,0,231,106,236,232v0,13,-11,22,-24,22r-402,0xm480,-283v-12,-85,-90,-159,-184,-159v-97,0,-172,73,-187,159r371,0","w":609},"f":{"d":"154,-550v2,-99,35,-148,131,-149v13,0,24,12,24,25v0,13,-11,24,-24,24v-70,1,-79,29,-82,100r0,52v36,3,92,-13,94,24v0,13,-12,25,-25,25r-69,0r0,426v0,13,-11,24,-24,24v-13,0,-25,-11,-25,-24r0,-426r-65,0v-13,0,-24,-12,-24,-25v0,-13,11,-24,24,-24r65,0r0,-52","w":362},"g":{"d":"498,-490v12,0,24,11,23,24r0,427v3,159,-173,287,-333,207v-15,-7,-16,-20,-10,-32v8,-15,18,-18,32,-11v125,61,267,-37,263,-164r0,-60v-36,54,-100,94,-183,96v-127,2,-230,-115,-230,-244v0,-127,105,-245,230,-243v81,2,147,44,183,96r0,-72v0,-13,12,-24,25,-24xm108,-247v0,103,82,197,182,197v101,0,183,-93,183,-197v0,-104,-82,-195,-183,-195v-100,0,-182,93,-182,195","w":660},"h":{"d":"477,0v-13,0,-24,-11,-24,-24r0,-273v2,-84,-72,-144,-156,-144v-84,0,-155,61,-155,144r0,279v-5,9,-10,18,-25,18v-13,0,-25,-9,-24,-24r0,-652v0,-13,11,-24,24,-24v13,0,25,11,25,24r0,258v41,-48,92,-72,155,-72v111,0,205,82,205,193r0,273v0,13,-12,24,-25,24"},"i":{"d":"118,0v-13,0,-24,-11,-24,-24r0,-442v0,-13,11,-24,24,-24v14,0,25,11,25,24r0,442v0,13,-12,24,-25,24xm118,-577v-22,0,-24,-24,-24,-49v0,-13,11,-24,24,-24v22,0,25,21,25,47v0,14,-12,26,-25,26","w":281},"j":{"d":"82,-578v-21,-1,-25,-22,-25,-48v0,-13,13,-24,25,-24v22,0,24,22,24,47v0,13,-11,25,-24,25xm19,191v-13,0,-24,-10,-24,-23v0,-14,11,-25,24,-25v18,1,37,-18,36,-37r0,-571v0,-13,12,-25,25,-25v13,0,24,12,24,25r0,571v1,47,-38,86,-85,85","w":249},"k":{"d":"117,0v-13,0,-24,-11,-24,-24r0,-652v0,-13,11,-24,24,-24v13,0,25,11,25,24r0,471r290,-289v15,-20,42,-1,42,16v0,6,-3,13,-8,18r-189,189r190,231v16,15,3,41,-18,40v-9,0,-15,-4,-19,-9r-188,-227r-100,100r0,112v0,13,-12,24,-25,24","w":560},"l":{"d":"124,0v-13,0,-24,-11,-24,-24r0,-652v0,-13,11,-24,24,-24v13,0,25,11,25,24r0,652v0,13,-12,24,-25,24","w":249},"m":{"d":"140,-23v0,14,-11,25,-27,23v-11,-1,-20,-8,-20,-23r0,-443v-1,-13,11,-23,23,-23v13,0,24,10,24,23r0,47v39,-47,90,-70,151,-70v81,0,145,48,175,104v31,-56,95,-102,176,-104v106,-2,199,93,199,199r0,267v0,12,-11,23,-24,23v-13,0,-23,-11,-23,-23r0,-267v0,-80,-70,-152,-152,-152v-80,0,-151,72,-151,152r-1,274v-2,10,-25,22,-37,12v-5,-5,-12,-8,-11,-19r0,-267v2,-82,-69,-152,-151,-152v-82,0,-151,70,-151,152r0,267","w":951},"n":{"d":"117,0v-16,0,-23,-8,-24,-24r0,-441v0,-13,11,-24,24,-24v30,0,22,41,23,71v39,-47,90,-71,152,-71v106,0,199,93,199,199r0,266v0,13,-11,24,-24,24v-13,0,-24,-11,-24,-24r0,-266v2,-81,-70,-151,-151,-151v-82,0,-152,71,-152,151r0,270v-3,13,-10,19,-23,20"},"o":{"d":"302,0v-126,0,-232,-117,-232,-245v0,-128,106,-245,232,-245v126,0,232,117,232,245v0,128,-106,245,-232,245xm302,-443v-100,0,-184,95,-184,198v0,102,84,197,184,197v100,0,184,-95,184,-197v0,-103,-84,-198,-184,-198","w":625},"p":{"d":"117,205v-13,0,-24,-11,-24,-24r0,-647v0,-13,11,-24,24,-24v13,0,25,11,25,24r0,71v37,-52,103,-93,186,-95v129,-3,237,113,237,243v0,129,-108,247,-237,244v-83,-2,-149,-44,-186,-96r0,280v0,13,-12,24,-25,24xm328,-441v-101,0,-186,88,-186,194v0,104,86,196,186,196v102,0,188,-92,188,-196v0,-104,-85,-194,-188,-194","w":660},"q":{"d":"507,205v-13,0,-24,-11,-24,-24r0,-280v-38,53,-104,96,-188,97v-127,2,-235,-116,-235,-245v0,-128,108,-245,235,-243v84,2,149,44,188,96r0,-72v0,-13,11,-24,24,-24v14,0,25,11,25,24r0,647v0,13,-11,24,-25,24xm295,-441v-102,0,-186,91,-186,194v0,104,85,196,186,196v102,0,188,-92,188,-196v0,-104,-85,-194,-188,-194","w":660},"r":{"d":"118,0v-14,0,-25,-11,-25,-24r0,-441v0,-13,11,-24,25,-24v12,0,24,11,23,24r0,108v47,-82,121,-134,203,-132v13,0,24,11,24,24v0,13,-11,24,-24,24v-100,0,-176,105,-203,202r0,215v1,13,-11,24,-23,24","w":439},"s":{"d":"421,-138v2,77,-94,140,-178,138v-63,-2,-123,-25,-181,-70v-19,-15,-5,-40,13,-41v7,-1,13,1,18,6v52,38,102,57,150,57v37,0,67,-12,93,-30v48,-34,46,-82,2,-120v-38,-33,-182,-41,-217,-75v-35,-21,-53,-50,-53,-88v-1,-96,126,-153,232,-119v43,14,50,20,87,43v16,10,13,42,-8,44v-7,1,-13,0,-18,-3v-38,-26,-64,-44,-120,-49v-83,-8,-169,77,-96,133v23,17,58,28,102,34v43,6,84,19,119,40v37,23,55,57,55,100","w":492},"t":{"d":"151,-696v12,0,26,12,26,24r0,182r63,0v11,-1,24,13,24,24v0,11,-13,25,-24,24r-63,0r0,357v-2,19,20,36,36,36v11,-1,25,14,25,25v0,11,-14,25,-25,24v-48,1,-86,-37,-86,-85r0,-357r-61,0v-20,0,-23,-6,-24,-24v-3,-39,53,-20,85,-24r0,-182v-1,-11,13,-24,24,-24","w":400},"u":{"d":"281,0v-107,0,-198,-93,-198,-200r0,-267v0,-13,11,-24,24,-24v13,0,24,11,24,24r0,267v-2,82,70,152,150,152v81,0,152,-70,152,-152r0,-267v-1,-13,12,-24,24,-24v14,0,25,11,25,24r0,267v3,108,-92,200,-201,200"},"v":{"d":"287,-19v-1,15,-23,26,-37,15v-4,-3,-7,-8,-8,-11r-184,-438v-7,-19,8,-39,30,-31v6,3,11,7,13,13r163,386r163,-386v3,-10,17,-19,31,-13v14,6,18,16,12,31","w":582},"w":{"d":"565,-17v-4,20,-41,23,-45,2r-115,-272r-114,272v-5,21,-37,17,-44,0r-184,-438v-7,-19,9,-39,31,-31v6,3,10,7,12,13r163,386r113,-269v8,-20,39,-20,47,0r113,269r162,-386v5,-17,38,-20,44,0v3,6,3,12,0,18","w":861},"x":{"d":"93,0v-16,-1,-32,-21,-19,-38r150,-205r-150,-206v-13,-18,0,-40,22,-37v7,1,13,4,16,9r142,193r141,-193v6,-10,21,-13,32,-6v13,9,17,21,7,34r-151,206r151,205v13,17,-1,38,-19,38v-9,0,-15,-4,-20,-10r-141,-193r-142,193v-4,7,-10,10,-19,10","w":570},"y":{"d":"250,-1v-106,2,-198,-93,-198,-200r0,-266v-1,-13,11,-23,23,-23v14,0,25,9,25,23r0,266v-2,81,69,151,150,151v82,0,153,-70,152,-151r0,-266v1,-15,10,-24,27,-23v9,1,22,12,21,23r0,428v4,160,-174,284,-334,207v-27,-14,-6,-57,21,-44v125,61,268,-37,265,-163r0,-32v-41,47,-92,70,-152,70","w":588},"z":{"d":"85,0v-23,3,-32,-30,-16,-42r289,-396r-273,0v-13,0,-24,-11,-24,-24v0,-13,11,-24,24,-24r317,0v23,-4,38,30,17,43r-288,395r274,0v13,0,24,11,24,24v0,13,-11,24,-24,24r-320,0","w":554},"{":{"d":"150,-287v69,25,104,54,104,144v0,70,-2,157,28,189v20,22,64,43,133,61v14,3,16,21,6,29v-4,3,-9,4,-15,3v-79,-16,-132,-41,-160,-71v-42,-44,-41,-123,-41,-209v0,-90,-31,-127,-126,-127v-16,0,-24,-6,-24,-19v0,-13,8,-19,24,-19v95,0,126,-37,126,-127v0,-86,-1,-165,41,-209v29,-30,81,-55,160,-71v12,-3,21,4,21,16v0,8,-4,13,-12,16v-69,18,-113,39,-133,61v-30,33,-29,118,-28,189v0,86,-37,123,-104,144","w":480},"|":{"d":"143,132v-12,0,-22,-10,-22,-22r0,-890v0,-12,10,-22,22,-22v12,0,22,10,22,22r0,890v0,12,-10,22,-22,22","w":286},"}":{"d":"330,-287v-69,-25,-104,-54,-104,-144v0,-70,2,-157,-28,-189v-20,-22,-64,-43,-133,-61v-14,-3,-16,-21,-6,-29v4,-3,9,-4,15,-3v79,16,132,41,160,71v42,44,41,123,41,209v0,90,31,127,126,127v16,0,24,6,24,19v0,13,-8,19,-24,19v-95,0,-126,37,-126,127v0,86,1,165,-41,209v-29,30,-81,55,-160,71v-12,3,-21,-4,-21,-16v0,-8,4,-13,12,-16v69,-18,113,-39,133,-61v30,-33,29,-118,28,-189v0,-86,37,-123,104,-144","w":480},"~":{"d":"294,-251v-20,2,-110,-43,-128,-41v-27,3,-36,14,-45,38v-8,19,-36,19,-36,-3v12,-51,30,-82,81,-87v20,-2,110,43,128,41v27,-3,36,-14,45,-38v8,-19,36,-19,36,3v-12,51,-30,82,-81,87","w":460},"\u00a1":{"d":"117,0v-13,0,-24,-11,-24,-24r0,-502v0,-13,11,-25,24,-25v14,-1,25,12,25,25r0,502v0,13,-12,24,-25,24xm117,-628v-22,0,-24,-23,-24,-48v0,-13,11,-24,24,-24v23,0,25,22,25,48v0,13,-12,24,-25,24","w":252},"\u00a2":{"d":"485,-207v16,-16,41,-7,41,14v0,6,-2,11,-7,16v-66,68,-134,97,-236,87r-16,80v-2,22,-31,26,-43,11v-5,-6,-7,-13,-5,-22r17,-82v-96,-31,-174,-130,-174,-252v0,-144,121,-278,275,-267r13,-68v2,-22,32,-26,44,-11v5,6,6,13,4,22r-13,64v44,11,86,36,129,75v17,15,8,46,-15,45v-7,0,-14,-3,-19,-8v-36,-35,-72,-57,-107,-66r-84,432v84,12,138,-12,196,-70xm330,-576v-125,-6,-215,99,-215,221v0,97,60,178,133,206","w":581},"\u00a3":{"d":"585,-23v0,13,-11,23,-24,23r-482,0v-17,0,-17,-23,-1,-27r78,-18r0,-260v-35,-3,-89,12,-90,-24v0,-13,11,-24,24,-24r66,0r0,-118v-2,-139,80,-239,215,-239v81,0,147,31,200,93v15,16,5,44,-18,43v-7,0,-14,-3,-20,-9v-43,-47,-80,-80,-163,-80v-107,0,-163,77,-163,191r0,119r278,0v13,0,24,11,24,24v0,13,-11,24,-24,24r-278,0r0,258r354,0v13,0,24,11,24,24","w":644},"\u00a5":{"d":"319,0v-13,0,-24,-11,-24,-24r0,-143r-154,0v-16,0,-28,-12,-28,-28v0,-15,13,-28,28,-27r154,0r0,-100r-154,0v-15,1,-28,-12,-28,-27v0,-16,12,-28,28,-28r124,0r-205,-280v-15,-20,4,-41,24,-39v7,1,12,4,15,9r219,301r220,-301v10,-18,44,-9,44,11v1,7,-1,14,-5,19r-206,280r126,0v16,0,28,12,28,28v0,15,-13,28,-28,27r-154,0r0,100r154,0v15,-1,28,12,28,27v0,16,-12,28,-28,28r-154,0r0,143v0,13,-11,24,-24,24","w":686},"\u00a8":{"d":"176,-594v-23,0,-43,-20,-43,-43v0,-23,20,-43,43,-43v23,0,43,20,43,43v0,23,-20,43,-43,43xm341,-594v-23,0,-43,-20,-43,-43v0,-23,20,-43,43,-43v23,0,43,20,43,43v0,23,-20,43,-43,43","w":500},"\u00a9":{"d":"777,-352v0,196,-167,364,-363,364v-196,0,-361,-166,-361,-362v0,-194,168,-362,363,-362v195,0,361,166,361,360xm83,-350v0,183,148,334,331,334v183,0,333,-153,333,-336v0,-180,-149,-332,-331,-332v-183,0,-333,153,-333,334xm526,-250v20,-18,47,14,27,30v-41,36,-86,54,-134,54v-101,0,-182,-87,-182,-190v0,-100,83,-189,183,-189v48,0,90,18,129,50v16,13,8,40,-13,39v-5,0,-10,-2,-16,-7v-33,-28,-66,-42,-101,-42v-78,-2,-138,70,-138,150v0,78,62,149,139,149v38,0,73,-15,106,-44","w":830},"\u00aa":{"d":"346,-313v0,10,-10,20,-20,20r-220,0v-10,0,-20,-10,-20,-20v0,-10,10,-20,20,-20r220,0v10,0,20,10,20,20xm322,-630v2,-23,-8,-60,15,-61v8,0,16,7,16,15r0,281v0,8,-8,15,-16,15v-24,-1,-13,-39,-15,-62v-30,41,-69,62,-117,62v-80,0,-147,-75,-147,-156v0,-82,67,-155,147,-155v48,0,87,20,117,61xm89,-536v0,67,52,125,116,125v65,0,117,-58,117,-125v0,-66,-52,-125,-117,-125v-63,0,-116,60,-116,125","w":390},"\u00ab":{"d":"406,-456v11,-19,41,-11,41,10v0,7,-2,12,-6,17r-126,173r126,175v12,15,4,40,-16,38v-7,0,-14,-4,-19,-11r-137,-179v-13,-18,-13,-26,0,-44xm237,-81v13,14,3,39,-16,38v-7,0,-14,-4,-19,-11r-137,-179v-13,-18,-13,-26,0,-44r137,-179v11,-19,41,-11,41,10v0,7,-2,12,-6,17r-126,173","w":515},"\u00ae":{"d":"382,-536v0,94,-80,176,-174,176v-95,0,-174,-80,-174,-175v0,-93,81,-175,174,-175v94,0,174,80,174,174xm54,-535v0,84,70,156,154,156v84,0,154,-73,154,-157v0,-83,-70,-155,-154,-155v-84,0,-154,73,-154,156xm258,-471v0,26,3,49,25,45v8,-1,5,-16,-4,-15v-5,-6,-6,-16,-6,-30v0,-23,-11,-42,-33,-51v24,-11,36,-30,36,-57v1,-34,-28,-64,-62,-63r-63,0v-5,0,-7,3,-7,8r0,204v0,5,3,8,8,8v5,0,8,-3,8,-8r0,-87r53,0v23,7,45,20,45,46xm214,-626v26,-1,48,22,47,47v0,25,-21,47,-49,47r-52,0r0,-94r54,0","w":416},"\u00b0":{"d":"376,-560v0,78,-74,148,-151,148v-77,0,-151,-70,-151,-148v0,-76,75,-146,151,-146v76,0,151,70,151,146xm124,-560v0,56,45,104,101,104v56,0,101,-48,101,-104v0,-54,-46,-102,-101,-102v-55,0,-101,48,-101,102","w":450},"\u00b4":{"d":"295,-723v15,-1,42,11,42,23v0,5,-4,11,-11,18r-80,77v-9,9,-20,13,-32,13v-15,0,-16,-11,-9,-20r62,-93v8,-12,17,-18,28,-18","w":500},"\u00b6":{"d":"360,4v-14,0,-27,-12,-27,-26r0,-255v-150,3,-280,-71,-280,-213v0,-135,117,-212,259,-210r47,0v14,0,27,13,27,27r0,651v0,14,-12,26,-26,26","w":480},"\u00b7":{"d":"115,-251v-29,0,-33,-27,-33,-60v0,-18,15,-33,33,-33v29,0,33,27,33,60v0,18,-15,33,-33,33","w":230},"\u00b8":{"d":"204,142v-19,-1,-44,-17,-29,-39r77,-113r43,0r-65,132v-7,13,-15,20,-26,20","w":500},"\u00ba":{"d":"339,-560v0,81,-64,149,-145,149v-80,0,-143,-67,-143,-147v0,-79,65,-147,145,-147v79,0,143,67,143,145xm343,-313v0,10,-10,20,-20,20r-256,0v-10,0,-20,-10,-20,-20v0,-10,10,-20,20,-20r256,0v10,0,20,10,20,20xm94,-560v0,60,45,110,102,110v58,0,100,-49,100,-108v0,-58,-45,-108,-102,-108v-58,0,-100,49,-100,106","w":390},"\u00bb":{"d":"278,-429v-13,-14,-3,-39,16,-38v7,0,14,4,19,11r137,179v13,18,13,26,0,44r-137,179v-11,19,-41,11,-41,-10v0,-7,2,-12,6,-17r126,-173xm109,-54v-11,19,-41,11,-41,-10v0,-7,2,-12,6,-17r126,-173r-126,-175v-13,-16,-4,-39,16,-38v7,0,14,4,19,11r137,179v13,18,13,26,0,44","w":515},"\u00bf":{"d":"245,-386v-13,0,-23,-11,-23,-27r0,-125v-1,-13,11,-23,23,-23v13,0,24,10,24,23r0,107v102,8,192,104,192,214v0,116,-100,219,-216,217v-86,-2,-153,-49,-186,-108v-10,-18,4,-39,25,-34v6,2,12,5,15,10v26,47,78,85,146,85v92,1,169,-77,169,-170v0,-91,-78,-172,-169,-169xm245,-631v-20,0,-23,-22,-23,-46v0,-13,11,-23,23,-23v22,0,24,20,24,45v0,13,-11,24,-24,24","w":534},"\u00c0":{"d":"60,-33v-6,17,6,34,23,33v11,0,19,-5,23,-16r62,-165r319,0r62,165v5,21,39,21,45,2v3,-6,3,-13,0,-19r-243,-649v-5,-20,-42,-20,-48,0xm186,-230r142,-376r141,376r-283,0xm259,-900v0,-12,28,-24,42,-23v11,0,20,6,28,18r62,93v7,9,6,20,-9,20v-12,0,-23,-4,-32,-13r-80,-77v-7,-7,-11,-13,-11,-18","w":649},"\u00c1":{"d":"60,-33v-6,17,6,34,23,33v11,0,19,-5,23,-16r62,-165r319,0r62,165v5,21,39,21,45,2v3,-6,3,-13,0,-19r-243,-649v-5,-20,-42,-20,-48,0xm186,-230r142,-376r141,376r-283,0xm354,-923v15,-1,42,11,42,23v0,5,-4,11,-11,18r-80,77v-9,9,-20,13,-32,13v-15,0,-16,-11,-9,-20r62,-93v8,-12,17,-18,28,-18","w":646},"\u00c2":{"d":"61,-33v-6,17,6,34,23,33v11,0,19,-5,23,-16r62,-165r319,0r62,165v5,21,39,21,45,2v3,-6,3,-13,0,-19r-243,-649v-5,-20,-42,-20,-48,0xm187,-230r142,-376r141,376r-283,0xm328,-863r-63,58v-9,9,-20,13,-32,13v-15,1,-16,-14,-8,-22r72,-88v20,-25,43,-25,64,0r72,88v8,9,7,23,-9,22v-13,0,-24,-4,-33,-13","w":664},"\u00c3":{"d":"61,-33v-6,17,6,34,23,33v11,0,19,-5,23,-16r62,-165r319,0r62,165v5,21,39,21,45,2v3,-6,3,-13,0,-19r-243,-649v-5,-20,-42,-20,-48,0xm187,-230r142,-376r141,376r-283,0xm393,-795v-20,2,-109,-43,-128,-41v-27,3,-36,14,-45,38v-8,19,-36,19,-36,-3v12,-51,30,-82,81,-87v20,-2,109,43,128,41v27,-3,36,-14,45,-38v8,-19,36,-19,36,3v-12,51,-30,82,-81,87","w":664},"\u00c4":{"d":"61,-33v-6,17,6,34,23,33v11,0,19,-5,23,-16r62,-165r319,0r62,165v5,21,39,21,45,2v3,-6,3,-13,0,-19r-243,-649v-5,-20,-42,-20,-48,0xm187,-230r142,-376r141,376r-283,0xm247,-794v-23,0,-43,-20,-43,-43v0,-23,20,-43,43,-43v23,0,43,20,43,43v0,23,-20,43,-43,43xm412,-794v-23,0,-43,-20,-43,-43v0,-23,20,-43,43,-43v23,0,43,20,43,43v0,23,-20,43,-43,43","w":663},"\u00c5":{"d":"317,-796v48,0,92,41,92,89v0,34,-17,60,-51,77r224,597v6,17,-4,34,-22,33v-11,0,-19,-5,-23,-16r-62,-165r-319,0r-62,165v-5,21,-40,21,-46,2v-3,-6,-3,-13,0,-19r225,-600v-30,-18,-45,-42,-45,-75v0,-46,44,-88,89,-88xm317,-757v-24,0,-46,25,-46,50v0,25,23,46,46,46v26,-1,49,-21,49,-47v0,-25,-22,-49,-49,-49xm174,-230r283,0r-141,-376","w":646},"\u00c6":{"d":"81,-8v-11,22,-47,14,-46,-11v0,-4,2,-9,5,-14r394,-651v7,-11,15,-16,26,-16r497,0v13,0,24,11,24,24v0,13,-11,24,-24,24r-411,0r0,275r366,0v13,0,24,11,24,24v0,13,-11,24,-24,24r-366,0r0,281r416,0v13,0,24,11,24,24v0,13,-11,24,-24,24r-442,0v-13,1,-27,-13,-26,-26r0,-170r-300,0xm222,-243r272,0r0,-410r-26,0","w":1045},"\u00c7":{"d":"437,0v-194,0,-364,-162,-364,-353v0,-195,170,-357,364,-357v84,0,159,26,226,77v18,13,7,44,-13,45v-7,1,-12,-1,-17,-5v-58,-45,-123,-68,-196,-68v-169,0,-315,141,-315,308v0,166,147,304,315,304v76,0,140,-24,194,-68v25,-21,56,21,32,41v-66,51,-141,76,-226,76xm357,142v-19,-1,-44,-17,-29,-39r77,-113r43,0r-65,132v-7,13,-15,20,-26,20","w":771},"\u00c8":{"d":"130,-700v-15,-1,-26,10,-26,24r0,652v0,15,11,25,27,24r357,0v13,0,24,-11,24,-24v0,-14,-11,-25,-24,-25r-335,0r0,-276r293,0v13,0,24,-11,24,-24v0,-13,-11,-25,-24,-25r-293,0r0,-277r335,0v13,0,24,-11,24,-25v0,-13,-11,-24,-24,-24r-358,0xm241,-900v0,-12,28,-24,42,-23v11,0,20,6,28,18r62,93v7,9,6,20,-9,20v-12,0,-23,-4,-32,-13r-80,-77v-7,-7,-11,-13,-11,-18","w":593},"\u00c9":{"d":"130,-700v-15,-1,-26,10,-26,24r0,652v0,15,11,25,27,24r357,0v13,0,24,-11,24,-24v0,-14,-11,-25,-24,-25r-335,0r0,-276r293,0v13,0,24,-11,24,-24v0,-13,-11,-25,-24,-25r-293,0r0,-277r335,0v13,0,24,-11,24,-25v0,-13,-11,-24,-24,-24r-358,0xm332,-923v15,-1,42,11,42,23v0,5,-4,11,-11,18r-80,77v-9,9,-20,13,-32,13v-15,0,-16,-11,-9,-20r62,-93v8,-12,17,-18,28,-18","w":593},"\u00ca":{"d":"130,-700v-15,-1,-26,10,-26,24r0,652v0,15,11,25,27,24r357,0v13,0,24,-11,24,-24v0,-14,-11,-25,-24,-25r-335,0r0,-276r293,0v13,0,24,-11,24,-24v0,-13,-11,-25,-24,-25r-293,0r0,-277r335,0v13,0,24,-11,24,-25v0,-13,-11,-24,-24,-24r-358,0xm305,-863r-63,58v-9,9,-20,13,-32,13v-15,1,-16,-14,-8,-22r72,-88v20,-25,43,-25,64,0r72,88v8,9,7,23,-9,22v-13,0,-24,-4,-33,-13","w":593},"\u00cb":{"d":"130,-700v-15,-1,-26,10,-26,24r0,652v0,15,11,25,27,24r357,0v13,0,24,-11,24,-24v0,-14,-11,-25,-24,-25r-335,0r0,-276r293,0v13,0,24,-11,24,-24v0,-13,-11,-25,-24,-25r-293,0r0,-277r335,0v13,0,24,-11,24,-25v0,-13,-11,-24,-24,-24r-358,0xm224,-794v-23,0,-43,-20,-43,-43v0,-23,20,-43,43,-43v23,0,43,20,43,43v0,23,-20,43,-43,43xm389,-794v-23,0,-43,-20,-43,-43v0,-23,20,-43,43,-43v23,0,43,20,43,43v0,23,-20,43,-43,43","w":670},"\u00cc":{"d":"215,-700v-13,0,-24,11,-24,24r0,652v0,13,11,24,24,24v13,0,25,-11,25,-24r0,-652v0,-13,-12,-24,-25,-24xm148,-900v0,-12,28,-24,42,-23v11,0,20,6,28,18r62,93v7,9,6,20,-9,20v-12,0,-23,-4,-32,-13r-80,-77v-7,-7,-11,-13,-11,-18","w":348},"\u00cd":{"d":"151,-700v-13,0,-24,11,-24,24r0,652v0,13,11,24,24,24v13,0,25,-11,25,-24r0,-652v0,-13,-12,-24,-25,-24xm177,-923v15,-1,42,11,42,23v0,5,-4,11,-11,18r-80,77v-9,9,-20,13,-32,13v-15,0,-16,-11,-9,-20r62,-93v8,-12,17,-18,28,-18","w":274},"\u00ce":{"d":"110,-700v-13,0,-24,11,-24,24r0,652v0,13,11,24,24,24v13,0,25,-11,25,-24r0,-652v0,-13,-12,-24,-25,-24xm109,-863r-63,58v-9,9,-20,13,-32,13v-15,1,-16,-14,-8,-22r72,-88v20,-25,43,-25,64,0r72,88v8,9,7,23,-9,22v-13,0,-24,-4,-33,-13","w":274},"\u00cf":{"d":"117,-700v-13,0,-24,11,-24,24r0,652v0,13,11,24,24,24v13,0,25,-11,25,-24r0,-652v0,-13,-12,-24,-25,-24xm35,-794v-23,0,-43,-20,-43,-43v0,-23,20,-43,43,-43v23,0,43,20,43,43v0,23,-20,43,-43,43xm200,-794v-23,0,-43,-20,-43,-43v0,-23,20,-43,43,-43v23,0,43,20,43,43v0,23,-20,43,-43,43","w":274},"\u00d0":{"d":"180,0v-12,-1,-22,-11,-22,-24r0,-306r-84,0v-13,0,-19,-7,-19,-20v0,-12,6,-18,19,-18r84,0r0,-308v0,-13,11,-24,24,-24r131,0v188,-5,350,163,350,351v0,188,-162,354,-350,349r-133,0xm306,-350v0,11,-8,20,-19,20r-80,0r0,281r106,0v162,5,301,-139,301,-300v0,-163,-139,-305,-301,-302r-106,0r0,283r80,0v13,0,19,6,19,18","w":812},"\u00d1":{"d":"131,0v13,0,24,-11,24,-24r0,-573r420,584v6,6,13,14,23,13v13,0,25,-11,25,-24r0,-645v0,-13,-12,-24,-25,-24v-13,0,-24,11,-24,24r0,570r-424,-588v-5,-10,-23,-13,-34,-6v-10,7,-12,16,-9,27r0,642v0,13,11,24,24,24xm428,-795v-20,2,-110,-43,-128,-41v-27,3,-36,14,-45,38v-8,19,-36,19,-36,-3v12,-51,30,-82,81,-87v20,-2,110,43,128,41v27,-3,36,-14,45,-38v8,-19,36,-19,36,3v-12,51,-30,82,-81,87","w":790},"\u00d2":{"d":"411,0v186,0,335,-167,335,-355v0,-188,-149,-355,-335,-355v-187,0,-338,167,-338,355v0,189,151,355,338,355xm411,-49v-159,0,-289,-143,-289,-306v0,-164,129,-305,289,-305v157,0,285,143,285,305v0,160,-130,306,-285,306xm342,-900v0,-12,28,-24,42,-23v11,0,20,6,28,18r62,93v7,9,6,20,-9,20v-12,0,-23,-4,-32,-13r-80,-77v-7,-7,-11,-13,-11,-18","w":850},"\u00d3":{"d":"411,0v186,0,335,-167,335,-355v0,-188,-149,-355,-335,-355v-187,0,-338,167,-338,355v0,189,151,355,338,355xm411,-49v-159,0,-289,-143,-289,-306v0,-164,129,-305,289,-305v157,0,285,143,285,305v0,160,-130,306,-285,306xm434,-923v15,-1,42,11,42,23v0,5,-4,11,-11,18r-80,77v-9,9,-20,13,-32,13v-15,0,-16,-11,-9,-20r62,-93v8,-12,17,-18,28,-18","w":850},"\u00d4":{"d":"411,0v186,0,335,-167,335,-355v0,-188,-149,-355,-335,-355v-187,0,-338,167,-338,355v0,189,151,355,338,355xm411,-49v-159,0,-289,-143,-289,-306v0,-164,129,-305,289,-305v157,0,285,143,285,305v0,160,-130,306,-285,306xm409,-863r-63,58v-9,9,-20,13,-32,13v-15,1,-16,-14,-8,-22r72,-88v20,-25,43,-25,64,0r72,88v8,9,7,23,-9,22v-13,0,-24,-4,-33,-13","w":850},"\u00d5":{"d":"411,0v186,0,335,-167,335,-355v0,-188,-149,-355,-335,-355v-187,0,-338,167,-338,355v0,189,151,355,338,355xm411,-49v-159,0,-289,-143,-289,-306v0,-164,129,-305,289,-305v157,0,285,143,285,305v0,160,-130,306,-285,306xm473,-795v-20,2,-109,-43,-128,-41v-27,3,-36,14,-45,38v-8,19,-36,19,-36,-3v12,-51,30,-82,81,-87v20,-2,109,43,128,41v27,-3,36,-14,45,-38v8,-19,36,-19,36,3v-12,51,-30,82,-81,87","w":850},"\u00d6":{"d":"411,0v186,0,335,-167,335,-355v0,-188,-149,-355,-335,-355v-187,0,-338,167,-338,355v0,189,151,355,338,355xm411,-49v-159,0,-289,-143,-289,-306v0,-164,129,-305,289,-305v157,0,285,143,285,305v0,160,-130,306,-285,306xm327,-794v-23,0,-43,-20,-43,-43v0,-23,20,-43,43,-43v23,0,43,20,43,43v0,23,-20,43,-43,43xm492,-794v-23,0,-43,-20,-43,-43v0,-23,20,-43,43,-43v23,0,43,20,43,43v0,23,-20,43,-43,43","w":850},"\u00d7":{"d":"478,-554v14,-17,43,-5,42,16v0,7,-3,13,-8,18r-169,167r168,166v17,15,8,46,-16,45v-7,0,-14,-3,-20,-9r-166,-168r-167,169v-14,17,-43,5,-42,-16v0,-7,3,-13,8,-18r169,-167r-168,-166v-17,-15,-8,-46,16,-45v7,0,14,3,20,9r166,168","w":620},"\u00d8":{"d":"777,-352v0,197,-153,364,-353,364v-89,0,-165,-27,-228,-82r-67,71v-13,15,-40,7,-39,-13v0,-7,2,-12,6,-16r68,-73v-61,-70,-91,-152,-91,-249v0,-195,153,-362,353,-362v88,0,164,28,228,83r67,-72v13,-15,40,-7,39,13v0,7,-2,12,-6,16r-69,74v61,67,92,149,92,246xm424,-665v-169,0,-297,144,-297,315v0,81,25,151,74,210r419,-450v-55,-50,-121,-75,-196,-75xm426,-35v169,0,297,-144,297,-315v0,-79,-25,-149,-74,-209r-420,449v55,50,121,75,197,75","w":850},"\u00d9":{"d":"117,-700v-13,0,-24,11,-24,24r0,393v-4,151,131,283,282,283v153,0,284,-131,284,-283r0,-393v0,-13,-12,-24,-25,-24v-13,0,-24,11,-24,24r0,393v3,127,-109,234,-235,234v-124,0,-233,-108,-233,-234r0,-393v0,-13,-12,-24,-25,-24xm308,-900v0,-12,28,-24,42,-23v11,0,20,6,28,18r62,93v7,9,6,20,-9,20v-12,0,-23,-4,-32,-13r-80,-77v-7,-7,-11,-13,-11,-18","w":760},"\u00da":{"d":"117,-700v-13,0,-24,11,-24,24r0,393v-4,151,131,283,282,283v153,0,284,-131,284,-283r0,-393v0,-13,-12,-24,-25,-24v-13,0,-24,11,-24,24r0,393v3,127,-109,234,-235,234v-124,0,-233,-108,-233,-234r0,-393v0,-13,-12,-24,-25,-24xm402,-923v15,-1,42,11,42,23v0,5,-4,11,-11,18r-80,77v-9,9,-20,13,-32,13v-15,0,-16,-11,-9,-20r62,-93v8,-12,17,-18,28,-18","w":760},"\u00db":{"d":"117,-700v-13,0,-24,11,-24,24r0,393v-4,151,131,283,282,283v153,0,284,-131,284,-283r0,-393v0,-13,-12,-24,-25,-24v-13,0,-24,11,-24,24r0,393v3,127,-109,234,-235,234v-124,0,-233,-108,-233,-234r0,-393v0,-13,-12,-24,-25,-24xm376,-863r-63,58v-9,9,-20,13,-32,13v-15,1,-16,-14,-8,-22r72,-88v20,-25,43,-25,64,0r72,88v8,9,7,23,-9,22v-13,0,-24,-4,-33,-13","w":760},"\u00dc":{"d":"117,-700v-13,0,-24,11,-24,24r0,393v-4,151,131,283,282,283v153,0,284,-131,284,-283r0,-393v0,-13,-12,-24,-25,-24v-13,0,-24,11,-24,24r0,393v3,127,-109,234,-235,234v-124,0,-233,-108,-233,-234r0,-393v0,-13,-12,-24,-25,-24xm294,-794v-23,0,-43,-20,-43,-43v0,-23,20,-43,43,-43v23,0,43,20,43,43v0,23,-20,43,-43,43xm459,-794v-23,0,-43,-20,-43,-43v0,-23,20,-43,43,-43v23,0,43,20,43,43v0,23,-20,43,-43,43","w":760},"\u00dd":{"d":"320,0v13,0,24,-11,24,-24r0,-314r234,-319v13,-18,-4,-43,-24,-39v-7,1,-12,4,-15,9r-220,301r-219,-301v-6,-10,-23,-13,-34,-4v-11,9,-15,21,-5,34r235,321r0,312v0,13,11,24,24,24xm346,-923v15,-1,42,11,42,23v0,5,-4,11,-11,18r-80,77v-9,9,-20,13,-32,13v-15,0,-16,-11,-9,-20r62,-93v8,-12,17,-18,28,-18","w":716},"\u00de":{"d":"130,4v-13,0,-27,-13,-26,-26r0,-656v-1,-13,13,-26,26,-26v13,0,27,13,26,26r0,105r202,0v146,-2,260,75,260,216v0,144,-127,224,-273,224r-189,0r0,111v1,13,-13,26,-26,26xm566,-354v1,-116,-92,-172,-212,-171r-198,0r0,344r192,0v119,2,218,-62,218,-173","w":673},"\u00df":{"d":"306,2v-17,1,-29,-25,-15,-37v4,-4,9,-6,15,-7v106,-6,198,-43,198,-147v0,-98,-95,-139,-194,-150v-32,-3,-32,-40,-5,-49v104,-35,154,-92,154,-172v0,-78,-67,-131,-149,-131v-102,0,-168,83,-168,191r0,480v0,13,-11,24,-25,24v-14,0,-24,-11,-24,-24r0,-480v-2,-135,86,-237,220,-237v111,0,200,71,199,177v-1,99,-80,162,-157,190v104,19,202,68,202,181v0,130,-116,187,-251,191","w":620},"\u00e0":{"d":"479,-466v0,-13,11,-24,24,-24v13,0,24,11,24,24r0,442v0,13,-11,24,-24,24v-13,0,-24,-11,-24,-24r0,-73v-37,53,-101,95,-184,97v-127,3,-232,-116,-232,-245v0,-129,105,-247,232,-245v82,2,147,44,184,96r0,-72xm111,-245v0,103,84,197,184,197v101,0,184,-93,184,-197v0,-104,-83,-198,-184,-198v-100,0,-184,95,-184,198xm228,-678v0,-12,28,-24,42,-23v11,0,20,6,28,18r62,93v7,9,6,20,-9,20v-12,0,-23,-4,-32,-13r-80,-77v-7,-7,-11,-13,-11,-18","w":574},"\u00e1":{"d":"479,-466v0,-13,11,-24,24,-24v13,0,24,11,24,24r0,442v0,13,-11,24,-24,24v-13,0,-24,-11,-24,-24r0,-73v-37,53,-101,95,-184,97v-127,3,-232,-116,-232,-245v0,-129,105,-247,232,-245v82,2,147,44,184,96r0,-72xm111,-245v0,103,84,197,184,197v101,0,184,-93,184,-197v0,-104,-83,-198,-184,-198v-100,0,-184,95,-184,198xm321,-701v15,-1,42,11,42,23v0,5,-4,11,-11,18r-80,77v-9,9,-20,13,-32,13v-15,0,-16,-11,-9,-20r62,-93v8,-12,17,-18,28,-18","w":574},"\u00e2":{"d":"479,-466v0,-13,11,-24,24,-24v13,0,24,11,24,24r0,442v0,13,-11,24,-24,24v-13,0,-24,-11,-24,-24r0,-73v-37,53,-101,95,-184,97v-127,3,-232,-116,-232,-245v0,-129,105,-247,232,-245v82,2,147,44,184,96r0,-72xm111,-245v0,103,84,197,184,197v101,0,184,-93,184,-197v0,-104,-83,-198,-184,-198v-100,0,-184,95,-184,198xm294,-641r-63,58v-9,9,-20,13,-32,13v-15,1,-16,-14,-8,-22r72,-88v20,-25,43,-25,64,0r72,88v8,9,7,23,-9,22v-13,0,-24,-4,-33,-13","w":574},"\u00e3":{"d":"479,-466v0,-13,11,-24,24,-24v13,0,24,11,24,24r0,442v0,13,-11,24,-24,24v-13,0,-24,-11,-24,-24r0,-73v-37,53,-101,95,-184,97v-127,3,-232,-116,-232,-245v0,-129,105,-247,232,-245v82,2,147,44,184,96r0,-72xm111,-245v0,103,84,197,184,197v101,0,184,-93,184,-197v0,-104,-83,-198,-184,-198v-100,0,-184,95,-184,198xm359,-581v-20,2,-109,-43,-128,-41v-27,3,-36,14,-45,38v-8,19,-36,19,-36,-3v12,-51,30,-82,81,-87v20,-2,109,43,128,41v27,-3,36,-14,45,-38v8,-19,36,-19,36,3v-12,51,-30,82,-81,87","w":574},"\u00e4":{"d":"479,-466v0,-13,11,-24,24,-24v13,0,24,11,24,24r0,442v0,13,-11,24,-24,24v-13,0,-24,-11,-24,-24r0,-73v-37,53,-101,95,-184,97v-127,3,-232,-116,-232,-245v0,-129,105,-247,232,-245v82,2,147,44,184,96r0,-72xm111,-245v0,103,84,197,184,197v101,0,184,-93,184,-197v0,-104,-83,-198,-184,-198v-100,0,-184,95,-184,198xm214,-570v-23,0,-43,-20,-43,-43v0,-23,20,-43,43,-43v23,0,43,20,43,43v0,23,-20,43,-43,43xm379,-570v-23,0,-43,-20,-43,-43v0,-23,20,-43,43,-43v23,0,43,20,43,43v0,23,-20,43,-43,43","w":574},"\u00e5":{"d":"467,-466v0,-13,11,-24,24,-24v13,0,24,11,24,24r0,442v0,13,-11,24,-24,24v-13,0,-24,-11,-24,-24r0,-73v-37,53,-101,95,-184,97v-127,3,-232,-116,-232,-245v0,-129,105,-247,232,-245v82,2,147,44,184,96r0,-72xm99,-245v0,103,84,197,184,197v101,0,184,-93,184,-197v0,-104,-83,-198,-184,-198v-100,0,-184,95,-184,198xm375,-648v0,47,-45,88,-92,88v-45,0,-89,-43,-89,-88v0,-46,44,-88,89,-88v47,0,92,41,92,88xm237,-648v0,24,23,47,46,47v26,0,49,-22,49,-47v0,-25,-22,-49,-49,-49v-24,0,-46,25,-46,49","w":574},"\u00e6":{"d":"515,-385v39,-58,108,-106,197,-107v128,-1,233,107,237,232v0,13,-11,24,-24,24r-404,0v2,101,88,190,191,188v72,-1,130,-40,158,-89v6,-10,22,-15,33,-8v13,9,16,20,8,33v-39,62,-107,112,-199,112v-89,0,-159,-49,-197,-107r0,83v0,13,-11,24,-24,24v-13,0,-24,-11,-24,-24r0,-73v-37,53,-101,95,-184,97v-127,3,-232,-116,-232,-245v0,-129,105,-247,232,-245v82,2,147,44,184,96r0,-72v0,-13,11,-24,24,-24v13,0,24,11,24,24r0,81xm99,-245v0,103,84,197,184,197v101,0,184,-93,184,-197v0,-104,-83,-198,-184,-198v-100,0,-184,95,-184,198xm897,-285v-14,-85,-90,-159,-185,-159v-96,0,-173,75,-188,159r373,0","w":954},"\u00e7":{"d":"106,-246v0,109,95,198,204,198v47,0,89,-14,126,-43v12,-9,23,-7,33,4v11,13,9,24,-5,35v-45,35,-96,52,-154,52v-135,0,-252,-111,-252,-246v0,-134,117,-244,252,-244v59,0,110,19,156,54v10,7,12,23,3,33v-10,11,-21,13,-33,4v-37,-29,-79,-44,-126,-44v-109,0,-204,90,-204,197xm257,142v-19,-1,-44,-17,-29,-39r77,-113r43,0r-65,132v-7,13,-15,20,-26,20","w":571},"\u00e8":{"d":"58,-244v0,130,109,247,238,244v90,-2,161,-51,198,-111v8,-13,6,-25,-8,-34v-13,-8,-24,-5,-32,8v-29,49,-86,88,-158,89v-102,2,-188,-87,-190,-188r402,0v14,0,26,-10,24,-26v-7,-122,-109,-228,-236,-228v-130,0,-238,115,-238,246xm109,-283v15,-86,90,-159,187,-159v94,0,172,74,184,159r-371,0xm227,-678v0,-12,28,-24,42,-23v11,0,20,6,28,18r62,93v7,9,6,20,-9,20v-12,0,-23,-4,-32,-13r-80,-77v-7,-7,-11,-13,-11,-18","w":609},"\u00e9":{"d":"58,-244v0,130,109,247,238,244v90,-2,161,-51,198,-111v8,-13,6,-25,-8,-34v-13,-8,-24,-5,-32,8v-29,49,-86,88,-158,89v-102,2,-188,-87,-190,-188r402,0v14,0,26,-10,24,-26v-7,-122,-109,-228,-236,-228v-130,0,-238,115,-238,246xm109,-283v15,-86,90,-159,187,-159v94,0,172,74,184,159r-371,0xm321,-701v15,-1,42,11,42,23v0,5,-4,11,-11,18r-80,77v-9,9,-20,13,-32,13v-15,0,-16,-11,-9,-20r62,-93v8,-12,17,-18,28,-18","w":609},"\u00ea":{"d":"58,-244v0,130,109,247,238,244v90,-2,161,-51,198,-111v8,-13,6,-25,-8,-34v-13,-8,-24,-5,-32,8v-29,49,-86,88,-158,89v-102,2,-188,-87,-190,-188r402,0v14,0,26,-10,24,-26v-7,-122,-109,-228,-236,-228v-130,0,-238,115,-238,246xm109,-283v15,-86,90,-159,187,-159v94,0,172,74,184,159r-371,0xm295,-641r-63,58v-9,9,-20,13,-32,13v-15,1,-16,-14,-8,-22r72,-88v20,-25,43,-25,64,0r72,88v8,9,7,23,-9,22v-13,0,-24,-4,-33,-13","w":609},"\u00eb":{"d":"61,-244v0,130,109,247,238,244v90,-2,161,-51,198,-111v8,-13,6,-25,-8,-34v-13,-8,-24,-5,-32,8v-29,49,-86,88,-158,89v-102,2,-188,-87,-190,-188r402,0v14,0,26,-10,24,-26v-7,-122,-109,-228,-236,-228v-130,0,-238,115,-238,246xm112,-283v15,-86,90,-159,187,-159v94,0,172,74,184,159r-371,0xm216,-570v-23,0,-43,-20,-43,-43v0,-23,20,-43,43,-43v23,0,43,20,43,43v0,23,-20,43,-43,43xm381,-570v-23,0,-43,-20,-43,-43v0,-23,20,-43,43,-43v23,0,43,20,43,43v0,23,-20,43,-43,43","w":584},"\u00ec":{"d":"118,-490v-13,0,-24,11,-24,24r0,442v0,13,11,24,24,24v13,0,25,-11,25,-24r0,-442v0,-13,-11,-24,-25,-24xm50,-678v0,-12,28,-24,42,-23v11,0,20,6,28,18r62,93v7,9,6,20,-9,20v-12,0,-23,-4,-32,-13r-80,-77v-7,-7,-11,-13,-11,-18","w":281},"\u00ed":{"d":"118,-490v-13,0,-24,11,-24,24r0,442v0,13,11,24,24,24v13,0,25,-11,25,-24r0,-442v0,-13,-11,-24,-25,-24xm144,-701v15,-1,42,11,42,23v0,5,-4,11,-11,18r-80,77v-9,9,-20,13,-32,13v-15,0,-16,-11,-9,-20r62,-93v8,-12,17,-18,28,-18","w":281},"\u00ee":{"d":"118,-490v-13,0,-24,11,-24,24r0,442v0,13,11,24,24,24v13,0,25,-11,25,-24r0,-442v0,-13,-11,-24,-25,-24xm117,-641r-63,58v-9,9,-20,13,-32,13v-15,1,-16,-14,-8,-22r72,-88v20,-25,43,-25,64,0r72,88v8,9,7,23,-9,22v-13,0,-24,-4,-33,-13","w":281},"\u00ef":{"d":"118,-490v-13,0,-24,11,-24,24r0,442v0,13,11,24,24,24v13,0,25,-11,25,-24r0,-442v0,-13,-11,-24,-25,-24xm37,-570v-23,0,-43,-20,-43,-43v0,-23,20,-43,43,-43v23,0,43,20,43,43v0,23,-20,43,-43,43xm202,-570v-23,0,-43,-20,-43,-43v0,-23,20,-43,43,-43v23,0,43,20,43,43v0,23,-20,43,-43,43","w":281},"\u00f0":{"d":"58,-244v0,-135,110,-244,240,-242v63,0,122,21,177,63r-147,-208r-122,62v-16,9,-34,-4,-34,-20v0,-9,5,-15,14,-20r117,-57v-8,-14,-23,-25,-24,-44v-1,-24,34,-32,48,-11r21,32r86,-44v16,-9,34,4,34,20v0,9,-5,15,-14,20r-81,40v56,88,134,185,173,281v14,37,22,79,22,124v2,142,-113,260,-259,260v-139,0,-251,-119,-251,-256xm314,-34v114,0,201,-97,201,-209v0,-109,-98,-199,-211,-199v-114,0,-193,87,-193,201v0,108,92,207,203,207","w":628},"\u00f1":{"d":"293,-441v81,0,151,70,151,151r0,266v0,13,11,24,24,24v13,0,24,-11,24,-24r0,-266v3,-106,-93,-199,-199,-199v-62,0,-113,24,-152,71v-1,-30,8,-71,-23,-71v-13,0,-24,11,-24,24r1,449v4,10,10,16,23,16v14,-1,22,-8,23,-24r0,-266v0,-81,70,-151,152,-151xm358,-571v-20,2,-110,-43,-128,-41v-27,3,-36,14,-45,38v-8,19,-36,19,-36,-3v12,-51,30,-82,81,-87v20,-2,110,43,128,41v27,-3,36,-14,45,-38v8,-19,36,-19,36,3v-12,51,-30,82,-81,87"},"\u00f2":{"d":"290,-490v-126,0,-232,117,-232,245v0,128,106,245,232,245v126,0,232,-117,232,-245v0,-128,-106,-245,-232,-245xm290,-48v-100,0,-184,-95,-184,-197v0,-103,84,-198,184,-198v100,0,184,95,184,198v0,102,-84,197,-184,197xm222,-678v0,-12,28,-24,42,-23v11,0,20,6,28,18r62,93v7,9,6,20,-9,20v-12,0,-23,-4,-32,-13r-80,-77v-7,-7,-11,-13,-11,-18","w":640},"\u00f3":{"d":"290,-490v-126,0,-232,117,-232,245v0,128,106,245,232,245v126,0,232,-117,232,-245v0,-128,-106,-245,-232,-245xm290,-48v-100,0,-184,-95,-184,-197v0,-103,84,-198,184,-198v100,0,184,95,184,198v0,102,-84,197,-184,197xm318,-701v15,-1,42,11,42,23v0,5,-4,11,-11,18r-80,77v-9,9,-20,13,-32,13v-15,0,-16,-11,-9,-20r62,-93v8,-12,17,-18,28,-18","w":640},"\u00f4":{"d":"290,-490v-126,0,-232,117,-232,245v0,128,106,245,232,245v126,0,232,-117,232,-245v0,-128,-106,-245,-232,-245xm290,-48v-100,0,-184,-95,-184,-197v0,-103,84,-198,184,-198v100,0,184,95,184,198v0,102,-84,197,-184,197xm289,-641r-63,58v-9,9,-20,13,-32,13v-15,1,-16,-14,-8,-22r72,-88v20,-25,43,-25,64,0r72,88v8,9,7,23,-9,22v-13,0,-24,-4,-33,-13","w":640},"\u00f5":{"d":"290,-490v-126,0,-232,117,-232,245v0,128,106,245,232,245v126,0,232,-117,232,-245v0,-128,-106,-245,-232,-245xm290,-48v-100,0,-184,-95,-184,-197v0,-103,84,-198,184,-198v100,0,184,95,184,198v0,102,-84,197,-184,197xm354,-581v-20,2,-110,-43,-128,-41v-27,3,-36,14,-45,38v-8,19,-36,19,-36,-3v12,-51,30,-82,81,-87v20,-2,110,43,128,41v27,-3,36,-14,45,-38v8,-19,36,-19,36,3v-12,51,-30,82,-81,87","w":640},"\u00f6":{"d":"290,-490v-126,0,-232,117,-232,245v0,128,106,245,232,245v126,0,232,-117,232,-245v0,-128,-106,-245,-232,-245xm290,-48v-100,0,-184,-95,-184,-197v0,-103,84,-198,184,-198v100,0,184,95,184,198v0,102,-84,197,-184,197xm207,-570v-23,0,-43,-20,-43,-43v0,-23,20,-43,43,-43v23,0,43,20,43,43v0,23,-20,43,-43,43xm372,-570v-23,0,-43,-20,-43,-43v0,-23,20,-43,43,-43v23,0,43,20,43,43v0,23,-20,43,-43,43","w":640},"\u00f7":{"d":"64,-352v0,13,11,24,24,24r444,0v13,0,24,-11,24,-24v0,-13,-11,-24,-24,-24r-444,0v-13,0,-24,11,-24,24xm270,-536v0,-34,13,-57,40,-57v27,0,40,23,40,57v0,21,-19,40,-40,40v-21,0,-40,-19,-40,-40xm270,-151v0,-33,13,-57,40,-57v27,0,40,24,40,57v0,22,-19,40,-40,40v-21,0,-40,-18,-40,-40","w":620},"\u00f8":{"d":"582,-257v0,145,-118,269,-263,269v-64,0,-120,-20,-167,-60r-48,49v-12,14,-38,8,-38,-11v0,-6,2,-11,6,-15r50,-52v-43,-52,-64,-110,-64,-178v0,-142,118,-267,263,-267v64,0,120,20,167,61r48,-52v12,-14,38,-8,38,11v0,6,-2,11,-6,15r-51,54v43,50,65,109,65,176xm321,-34v119,0,208,-102,208,-221v0,-53,-16,-100,-48,-141r-297,310v39,35,84,52,137,52xm319,-476v-119,0,-208,102,-208,221v0,54,16,101,47,141r298,-309v-39,-35,-85,-53,-137,-53","w":640},"\u00f9":{"d":"107,-491v-13,0,-24,11,-24,24r0,267v-3,107,91,200,198,200v109,0,201,-92,201,-200r0,-267v0,-13,-11,-24,-25,-24v-12,0,-25,11,-24,24r0,267v2,82,-71,152,-152,152v-80,0,-150,-70,-150,-152r0,-267v0,-13,-11,-24,-24,-24xm214,-678v0,-12,28,-24,42,-23v11,0,20,6,28,18r62,93v7,9,6,20,-9,20v-12,0,-23,-4,-32,-13r-80,-77v-7,-7,-11,-13,-11,-18"},"\u00fa":{"d":"107,-491v-13,0,-24,11,-24,24r0,267v-3,107,91,200,198,200v109,0,201,-92,201,-200r0,-267v0,-13,-11,-24,-25,-24v-12,0,-25,11,-24,24r0,267v2,82,-71,152,-152,152v-80,0,-150,-70,-150,-152r0,-267v0,-13,-11,-24,-24,-24xm308,-701v15,-1,42,11,42,23v0,5,-4,11,-11,18r-80,77v-9,9,-20,13,-32,13v-15,0,-16,-11,-9,-20r62,-93v8,-12,17,-18,28,-18"},"\u00fb":{"d":"107,-491v-13,0,-24,11,-24,24r0,267v-3,107,91,200,198,200v109,0,201,-92,201,-200r0,-267v0,-13,-11,-24,-25,-24v-12,0,-25,11,-24,24r0,267v2,82,-71,152,-152,152v-80,0,-150,-70,-150,-152r0,-267v0,-13,-11,-24,-24,-24xm282,-641r-63,58v-9,9,-20,13,-32,13v-15,1,-16,-14,-8,-22r72,-88v20,-25,43,-25,64,0r72,88v8,9,7,23,-9,22v-13,0,-24,-4,-33,-13"},"\u00fc":{"d":"107,-491v-13,0,-24,11,-24,24r0,267v-3,107,91,200,198,200v109,0,201,-92,201,-200r0,-267v0,-13,-11,-24,-25,-24v-12,0,-25,11,-24,24r0,267v2,82,-71,152,-152,152v-80,0,-150,-70,-150,-152r0,-267v0,-13,-11,-24,-24,-24xm201,-570v-23,0,-43,-20,-43,-43v0,-23,20,-43,43,-43v23,0,43,20,43,43v0,23,-20,43,-43,43xm366,-570v-23,0,-43,-20,-43,-43v0,-23,20,-43,43,-43v23,0,43,20,43,43v0,23,-20,43,-43,43"},"\u00fd":{"d":"75,-490v-12,0,-24,10,-23,23r0,266v-3,107,92,200,198,200v60,0,111,-23,152,-70r0,32v3,126,-139,224,-265,163v-27,-13,-48,30,-21,44v161,77,334,-47,334,-207r0,-428v1,-21,-31,-30,-44,-14v-1,5,-5,7,-4,14r0,266v1,81,-70,151,-152,151v-81,0,-150,-70,-150,-151r0,-266v0,-13,-11,-23,-25,-23xm277,-701v15,-1,42,11,42,23v0,5,-4,11,-11,18r-80,77v-9,9,-20,13,-32,13v-15,0,-16,-11,-9,-20r62,-93v8,-12,17,-18,28,-18","w":588},"\u00fe":{"d":"118,164v-14,0,-25,-11,-25,-25r0,-848v0,-14,10,-25,24,-25v14,0,25,11,25,25r0,313v55,-84,125,-126,210,-126v136,0,248,118,248,267v0,147,-113,268,-248,267v-87,0,-157,-41,-210,-122r0,249v0,14,-10,25,-24,25xm139,-256v0,121,95,221,208,221v119,0,200,-93,200,-220v0,-122,-86,-220,-200,-220v-112,0,-208,101,-208,219","w":660},"\u00ff":{"d":"75,-490v-12,0,-24,10,-23,23r0,266v-3,107,92,200,198,200v60,0,111,-23,152,-70r0,32v3,126,-139,224,-265,163v-27,-13,-48,30,-21,44v161,77,334,-47,334,-207r0,-428v1,-21,-31,-30,-44,-14v-1,5,-5,7,-4,14r0,266v1,81,-70,151,-152,151v-81,0,-150,-70,-150,-151r0,-266v0,-13,-11,-23,-25,-23xm168,-570v-23,0,-43,-20,-43,-43v0,-23,20,-43,43,-43v23,0,43,20,43,43v0,23,-20,43,-43,43xm333,-570v-23,0,-43,-20,-43,-43v0,-23,20,-43,43,-43v23,0,43,20,43,43v0,23,-20,43,-43,43","w":588},"\u0152":{"d":"729,0v-12,-1,-22,-11,-22,-24r0,-165v-50,102,-156,186,-296,189v-187,3,-338,-167,-338,-355v0,-189,151,-358,338,-355v140,2,247,87,296,189r0,-155v0,-13,11,-24,24,-24r360,0v13,0,24,11,24,24v0,14,-11,25,-24,25r-335,0r0,277r293,0v13,0,24,12,24,25v0,13,-11,24,-24,24r-293,0r0,276r335,0v13,0,24,11,24,25v0,13,-11,24,-24,24r-362,0xm411,-660v-160,0,-289,141,-289,305v0,163,130,306,289,306v155,0,285,-147,285,-306v0,-162,-128,-305,-285,-305","w":1443},"\u0153":{"d":"529,-236v2,101,88,190,191,188v72,-1,130,-40,158,-89v6,-10,22,-15,33,-8v13,9,16,20,8,33v-39,62,-107,112,-199,112v-104,0,-187,-67,-219,-146v-31,79,-109,144,-212,146v-127,2,-231,-116,-231,-245v0,-128,105,-246,231,-244v102,2,180,68,212,145v32,-79,115,-147,219,-148v128,-1,233,107,237,232v0,13,-11,24,-24,24r-404,0xm289,-442v-100,0,-183,94,-183,197v0,103,83,197,183,197v101,0,184,-93,184,-197v0,-104,-83,-197,-184,-197xm905,-285v-14,-85,-90,-159,-185,-159v-96,0,-173,75,-188,159r373,0","w":1055},"\u0178":{"d":"320,0v13,0,24,-11,24,-24r0,-314r234,-319v13,-18,-4,-43,-24,-39v-7,1,-12,4,-15,9r-220,301r-219,-301v-6,-10,-23,-13,-34,-4v-11,9,-15,21,-5,34r235,321r0,312v0,13,11,24,24,24xm238,-794v-23,0,-43,-20,-43,-43v0,-23,20,-43,43,-43v23,0,43,20,43,43v0,23,-20,43,-43,43xm403,-794v-23,0,-43,-20,-43,-43v0,-23,20,-43,43,-43v23,0,43,20,43,43v0,23,-20,43,-43,43","w":716},"\u02c6":{"d":"249,-663r-63,58v-9,9,-20,13,-32,13v-15,1,-16,-14,-8,-22r72,-88v20,-25,43,-25,64,0r72,88v8,9,7,23,-9,22v-13,0,-24,-4,-33,-13","w":500},"\u02dc":{"d":"314,-595v-20,2,-110,-43,-128,-41v-27,3,-36,14,-45,38v-8,19,-36,19,-36,-3v12,-51,30,-82,81,-87v20,-2,110,43,128,41v27,-3,36,-14,45,-38v8,-19,36,-19,36,3v-12,51,-30,82,-81,87","w":500},"\u2013":{"d":"462,-297v0,14,-13,26,-26,26r-344,0v-13,0,-26,-12,-26,-26v0,-14,13,-26,26,-26r344,0v13,0,26,12,26,26","w":528},"\u2014":{"d":"832,-297v0,14,-13,26,-26,26r-714,0v-13,0,-26,-12,-26,-26v0,-14,13,-26,26,-26r714,0v13,0,26,12,26,26","w":898},"\u2018":{"d":"110,-509v-28,0,-33,-26,-33,-58v0,-51,9,-86,27,-104v21,-21,39,-32,52,-32v17,0,20,22,7,28v-34,19,-50,44,-47,77v25,6,27,26,27,56v0,18,-15,33,-33,33","w":230},"\u2019":{"d":"120,-704v27,0,33,26,33,58v0,51,-9,86,-27,104v-21,21,-39,32,-52,32v-17,0,-20,-22,-7,-28v34,-19,50,-44,47,-77v-25,-6,-27,-26,-27,-56v0,-17,15,-34,33,-33","w":230},"\u201c":{"d":"290,-509v-28,0,-33,-26,-33,-58v0,-51,9,-86,27,-104v21,-21,39,-32,52,-32v17,0,20,22,7,28v-34,19,-50,44,-47,77v25,6,27,26,27,56v0,18,-15,33,-33,33xm110,-509v-28,0,-33,-26,-33,-58v0,-51,9,-86,27,-104v21,-21,39,-32,52,-32v17,0,20,22,7,28v-34,19,-50,44,-47,77v25,6,27,26,27,56v0,18,-15,33,-33,33","w":410},"\u201d":{"d":"120,-704v27,0,33,26,33,58v0,51,-9,86,-27,104v-21,21,-39,32,-52,32v-17,0,-20,-22,-7,-28v34,-19,50,-44,47,-77v-25,-6,-27,-26,-27,-56v0,-17,15,-34,33,-33xm300,-704v27,0,33,26,33,58v0,51,-9,86,-27,104v-21,21,-39,32,-52,32v-17,0,-20,-22,-7,-28v34,-19,50,-44,47,-77v-25,-6,-27,-26,-27,-56v0,-17,15,-34,33,-33","w":410},"\u201e":{"d":"115,-89v28,0,33,26,33,58v0,51,-9,86,-27,104v-21,21,-39,32,-52,32v-17,0,-20,-22,-7,-28v34,-19,50,-44,47,-77v-25,-6,-27,-26,-27,-56v0,-18,15,-33,33,-33xm295,-89v27,0,33,25,33,58v0,51,-9,86,-27,104v-21,21,-39,32,-52,32v-17,0,-20,-22,-7,-28v34,-19,50,-44,47,-77v-25,-6,-27,-26,-27,-56v0,-18,16,-33,33,-33","w":410},"\u2022":{"d":"359,-353v0,68,-57,125,-124,125v-67,0,-124,-57,-124,-125v0,-64,61,-123,124,-123v64,0,124,59,124,123","w":470},"\u2026":{"d":"132,0v-27,0,-50,-23,-50,-50v0,-27,23,-50,50,-50v27,0,50,23,50,50v0,27,-23,50,-50,50xm359,0v-27,0,-50,-23,-50,-50v0,-27,23,-50,50,-50v27,0,50,23,50,50v0,27,-23,50,-50,50xm586,0v-27,0,-50,-23,-50,-50v0,-27,23,-50,50,-50v27,0,50,23,50,50v0,27,-23,50,-50,50","w":680},"\u2039":{"d":"237,-81v13,14,3,39,-16,38v-7,0,-14,-4,-19,-11r-137,-179v-13,-18,-13,-26,0,-44r137,-179v11,-19,41,-11,41,10v0,7,-2,12,-6,17r-126,173","w":311},"\u203a":{"d":"109,-54v-11,19,-41,11,-41,-10v0,-7,2,-12,6,-17r126,-173r-126,-175v-13,-16,-4,-39,16,-38v7,0,14,4,19,11r137,179v13,18,13,26,0,44","w":311},"\u2122":{"d":"123,-410r0,-269r-91,0v-7,0,-10,-4,-10,-11v0,-7,3,-10,10,-10r202,0v7,0,10,3,10,10v0,7,-3,11,-10,11r-91,0r0,269v0,7,-3,10,-10,10v-7,0,-10,-3,-10,-10xm530,-410r0,-247r-96,133v-3,7,-15,7,-19,0r-96,-133r0,247v0,7,-3,10,-10,10v-7,0,-11,-3,-11,-10r0,-278v0,-8,16,-17,20,-6r107,148r106,-148v4,-11,21,-2,20,6r0,278v0,7,-4,10,-11,10v-7,0,-10,-3,-10,-10","w":690}}});
