/*!
 * The following copyright notice may not be removed under any circumstances.
 * 
 * Copyright:
 * Copyright (c) Andrew Paglinawan, 2008. All rights reserved.
 * 
 * Trademark:
 * Quicksand Bold is a trademark of the Andrew Paglinawan.
 * 
 * Manufacturer:
 * Andrew Paglinawan
 * 
 * Designer:
 * Andrew Paglinawan
 */
Cufon.registerFont({"w":500,"face":{"font-family":"Quicksand Bold Oblique","font-weight":700,"font-style":"oblique","font-stretch":"normal","units-per-em":"1000","panose-1":"0 0 0 0 0 0 0 0 0 0","ascent":"800","descent":"-200","x-height":"2","bbox":"-19.1629 -950 1118.71 198","underline-thickness":"50","underline-position":"-50","unicode-range":"U+0020-U+2122"},"glyphs":{" ":{"w":300},"\u00a0":{"w":300},"!":{"d":"202,-645v1,-38,68,-79,102,-39v9,11,12,24,9,39r-65,370v-5,41,-70,78,-102,39v-9,-11,-12,-24,-9,-39xm125,-116v22,-21,59,-23,79,-1v14,16,8,39,5,61v-5,41,-68,76,-101,39v-14,-16,-11,-40,-6,-61v3,-15,10,-27,23,-38","w":252},"\"":{"d":"322,-395v-20,0,-35,-16,-33,-38r17,-214v2,-30,25,-57,57,-56r40,0v28,1,38,25,28,55r-73,222v-7,21,-19,31,-36,31xm103,-395v-20,0,-36,-16,-34,-38r18,-214v2,-30,25,-57,57,-56r39,0v29,1,40,25,29,55r-73,222v-7,21,-19,31,-36,31","w":410},"#":{"d":"640,-213v0,28,-24,53,-52,52r-75,0r-21,123v-3,41,-65,58,-92,24v-10,-13,-15,-26,-12,-42r19,-105r-157,0r-21,123v-3,40,-66,59,-93,25v-10,-12,-14,-26,-11,-43r18,-105r-46,0v-29,1,-52,-23,-52,-52v0,-28,24,-53,52,-52r64,0r30,-174r-58,0v-27,1,-52,-25,-52,-52v0,-27,25,-53,52,-52r76,0r20,-119v3,-41,65,-58,91,-24v10,13,16,26,13,42r-18,101r157,0r20,-119v3,-41,66,-59,92,-24v10,13,15,27,12,42r-17,101r46,0v28,-1,52,24,52,52v0,27,-25,53,-52,52r-64,0r-30,174r57,0v29,-1,52,23,52,52xm268,-265r156,0r30,-174r-156,0","w":700},"$":{"d":"397,-699v-2,-45,48,-84,83,-51v13,13,7,34,4,52v54,7,101,27,145,55v33,21,26,66,-1,87v-21,16,-48,22,-71,7v-33,-22,-65,-37,-96,-44r-34,192v73,19,125,45,153,77v28,32,37,76,28,129v-18,111,-124,185,-247,195v-9,44,-8,101,-61,103v-23,1,-42,-19,-37,-43r11,-62v-73,-8,-136,-35,-191,-78v-45,-35,-1,-103,46,-103v12,0,22,4,31,11v43,36,89,58,136,67r35,-197v-71,-19,-121,-45,-150,-76v-29,-31,-38,-75,-28,-130v18,-109,123,-183,244,-191xm489,-188v9,-62,-27,-74,-82,-95r-32,182v67,-7,107,-36,114,-87xm383,-599v-57,4,-104,35,-110,84v-8,61,25,72,79,93","w":632},"&":{"d":"465,-357v16,-1,40,4,50,-2v7,-22,1,-46,17,-64v18,-20,53,-36,80,-17v22,15,20,42,16,75v-7,45,-34,80,-72,101v-9,85,-43,140,-104,194v-95,87,-259,99,-340,0v-38,-47,-51,-103,-40,-170v12,-71,48,-130,109,-177v-13,-31,-15,-63,-10,-97v14,-95,113,-186,218,-186v98,0,170,83,153,186v-7,41,-69,77,-101,39v-9,-11,-12,-24,-9,-39v8,-41,-22,-75,-62,-75v-66,0,-123,90,-68,136v21,18,22,53,2,74v-4,10,-18,16,-27,22v-69,26,-133,133,-73,208v20,26,50,38,85,38v76,0,146,-65,154,-135v-55,3,-88,5,-93,51v6,48,-55,94,-96,61v-19,-15,-19,-35,-13,-71v16,-95,109,-154,224,-152","w":696},"'":{"d":"103,-395v-20,0,-36,-16,-34,-38r18,-214v2,-30,25,-57,57,-56r39,0v29,1,40,24,30,55r-73,222v-7,21,-20,31,-37,31","w":230},"(":{"d":"260,95v-93,0,-146,-57,-168,-135v-39,-135,12,-373,61,-471v34,-69,73,-121,122,-154v39,-27,81,-40,127,-40v33,0,57,28,51,63v-6,32,-38,64,-74,64v-47,0,-63,26,-88,62v-52,72,-94,255,-82,382v5,45,17,73,34,89v20,19,64,8,81,33v32,47,-14,107,-64,107","w":430},")":{"d":"259,-705v93,0,146,57,168,135v39,135,-12,373,-61,471v-34,69,-73,121,-122,154v-39,27,-81,40,-127,40v-33,0,-57,-28,-51,-63v6,-32,38,-64,74,-64v47,0,63,-26,88,-62v52,-72,94,-255,82,-382v-5,-45,-17,-73,-34,-89v-20,-19,-64,-8,-81,-33v-32,-47,14,-107,64,-107","w":430},"*":{"d":"344,-644v15,20,0,42,-22,51r-71,27r61,28v23,8,22,39,4,52v-15,11,-31,12,-45,-1r-48,-42v-4,42,8,100,-39,102v-20,0,-29,-15,-22,-36r20,-66r-63,42v-21,21,-55,5,-50,-22v3,-14,12,-23,27,-29r70,-28r-60,-27v-23,-9,-23,-39,-4,-52v15,-11,30,-12,45,1r48,42v4,-42,-9,-101,39,-103v18,-1,28,16,22,36r-20,67r63,-42v15,-12,34,-15,45,0","w":430},"+":{"d":"413,-401v27,-1,47,24,42,53v-4,26,-35,54,-64,54r-86,0v-13,44,-10,96,-42,123v-23,19,-57,23,-75,0v-8,-11,-11,-23,-8,-37r18,-86r-86,0v-28,1,-47,-25,-42,-54v5,-27,34,-53,64,-53r86,0v12,-44,8,-96,40,-123v22,-19,58,-23,76,0v9,11,11,23,8,37r-17,86r86,0","w":620},",":{"d":"100,-98v25,0,45,18,49,39v4,3,3,13,3,20v-2,52,-26,100,-80,106v-17,2,-22,-27,-3,-30v21,-5,36,-18,45,-39v-32,7,-60,-17,-60,-47v0,-25,21,-50,46,-49","w":230},"-":{"d":"323,-344v0,19,-15,37,-35,36r-186,0v-19,1,-36,-17,-36,-36v0,-19,17,-37,36,-36r186,0v20,-1,35,17,35,36","w":408},".":{"d":"132,-99v26,0,49,23,49,49v0,26,-23,50,-49,50v-26,0,-50,-24,-50,-50v0,-26,24,-49,50,-49","w":230},"\/":{"d":"56,0v-39,-1,-67,-36,-50,-76r245,-583v9,-24,39,-41,73,-29v22,8,41,40,28,71r-245,584v-9,22,-26,33,-51,33"},"0":{"d":"395,-699v82,1,137,51,166,111v32,67,42,146,25,239v-16,93,-53,172,-109,239v-62,74,-130,111,-205,111v-82,-1,-137,-51,-166,-111v-32,-67,-42,-146,-25,-239v16,-93,52,-172,109,-239v63,-74,131,-111,205,-111xm396,-172v66,-75,116,-242,62,-355v-21,-42,-48,-61,-82,-61v-34,0,-69,19,-105,61v-41,48,-67,108,-79,178v-13,70,-7,129,17,177v45,90,123,72,187,0","w":710},"1":{"d":"210,-691v34,-20,83,1,75,47r-104,590v-3,41,-70,76,-101,38v-9,-11,-12,-23,-9,-38r87,-493v-22,10,-45,30,-74,32v-33,2,-58,-32,-42,-69v6,-15,17,-27,32,-34","w":335},"2":{"d":"474,-109v29,-1,52,26,46,56v-5,28,-34,55,-65,55r-357,0v-31,1,-52,-27,-45,-58v3,-15,12,-28,25,-39r343,-267v53,-40,85,-119,41,-183v-39,-57,-126,-52,-181,-9v-21,16,-46,44,-79,42v-28,-1,-50,-25,-42,-57v7,-32,39,-49,61,-67v100,-83,262,-87,336,17v33,46,45,99,34,161v-12,71,-49,130,-110,178r-219,171r212,0","w":590},"3":{"d":"568,-700v42,-2,61,50,35,83v-5,7,-10,11,-13,14r-149,130v74,36,120,123,104,224v-20,125,-153,249,-293,249v-68,0,-124,-23,-163,-73v-42,-53,49,-133,95,-80v47,54,135,47,191,0v52,-43,82,-129,34,-191v-21,-25,-50,-40,-88,-40v-30,0,-55,-27,-49,-59v2,-15,9,-29,22,-40r120,-104r-161,0v-31,1,-52,-25,-47,-57v5,-29,35,-57,67,-56r295,0","w":610},"4":{"d":"524,-677v14,-21,62,-29,81,-7v8,9,14,24,11,41r-71,404v36,-4,60,21,55,55v-6,31,-35,60,-75,56v-10,42,-6,89,-36,114v-23,19,-60,23,-79,0v-9,-11,-12,-24,-9,-39r14,-75r-315,0v-27,0,-49,-23,-46,-50v1,-15,8,-29,19,-40xm235,-239r199,0r44,-247","w":664},"5":{"d":"195,-650v9,-28,32,-51,67,-51r295,0v30,-1,51,26,46,57v-5,28,-35,56,-66,56r-246,0r-30,99v161,-46,300,74,273,239v-21,126,-153,251,-293,249v-69,0,-123,-24,-162,-73v-42,-53,48,-133,94,-80v47,53,137,46,191,0v51,-44,84,-130,34,-191v-46,-56,-138,-50,-191,0v-31,29,-92,19,-90,-30v-1,-5,0,-10,2,-17","w":605},"6":{"d":"277,-2v-121,0,-203,-94,-203,-218v0,-22,6,-47,7,-59v28,-159,114,-310,230,-376v49,-29,102,-44,159,-47v30,-1,52,23,48,53v-4,29,-32,55,-63,57v-93,5,-151,59,-193,125v100,-39,203,-21,260,51v39,48,50,105,40,172v-19,124,-148,242,-285,242xm210,-152v44,55,132,46,186,0v50,-43,81,-126,34,-186v-44,-55,-134,-46,-188,0v-51,43,-79,125,-32,186","w":642},"7":{"d":"489,-698v42,-4,57,45,38,77r-352,589v-19,28,-43,43,-78,30v-25,-9,-33,-45,-16,-73r306,-512r-258,0v-29,1,-52,-26,-46,-56v5,-28,34,-55,65,-55r341,0","w":587},"8":{"d":"484,-435v52,39,85,109,72,199v-17,121,-146,238,-281,238v-125,0,-221,-108,-196,-238v17,-86,74,-160,141,-199v-63,-125,54,-261,179,-263v87,-2,154,75,136,165v-7,37,-24,70,-51,98xm416,-572v-19,-23,-56,-20,-79,0v-21,19,-36,53,-14,78v45,50,135,-23,93,-78xm210,-145v44,54,129,45,182,0v50,-42,80,-124,33,-183v-43,-54,-130,-45,-183,0v-49,42,-79,124,-32,183","w":630},"9":{"d":"375,-699v121,0,214,96,203,219v-18,194,-110,357,-238,434v-51,31,-103,46,-161,47v-28,1,-51,-24,-46,-53v4,-29,33,-57,64,-58v91,-4,152,-59,192,-125v-94,39,-203,20,-259,-51v-38,-48,-51,-103,-41,-171v19,-123,148,-242,286,-242xm222,-364v44,55,133,46,187,0v50,-43,81,-126,33,-186v-44,-55,-133,-46,-187,0v-50,43,-81,126,-33,186","w":642},":":{"d":"182,-84v35,46,-41,115,-82,69v-38,-46,40,-114,82,-69xm256,-508v36,46,-41,117,-82,70v-37,-46,41,-114,82,-70","w":240},";":{"d":"250,-506v34,46,-43,116,-84,70v-37,-46,43,-114,84,-70xm174,-61v0,62,-41,126,-102,126v-8,0,-12,-4,-12,-12v0,-8,3,-15,15,-18v22,-6,40,-18,53,-39v-31,7,-57,-14,-51,-47v6,-34,54,-67,85,-38v8,7,11,17,12,28","w":240},"<":{"d":"72,-306v-15,-15,-13,-53,-1,-70v5,-7,10,-14,17,-20r334,-286v25,-24,69,-27,90,0v24,29,10,69,-15,90r-282,241r197,241v46,61,-56,152,-107,90","w":620},"=":{"d":"336,-295v0,19,-15,37,-35,36r-186,0v-19,1,-36,-17,-36,-36v0,-19,17,-37,36,-36r186,0v20,-1,35,17,35,36xm336,-407v0,20,-15,35,-35,35r-186,0v-19,0,-37,-15,-36,-35v0,-18,17,-36,36,-35r186,0v19,-1,35,17,35,35","w":620},">":{"d":"551,-396v22,30,3,73,-16,90r-335,286v-23,24,-69,27,-90,1v-24,-29,-8,-70,16,-91r282,-241r-197,-241v-47,-59,56,-152,106,-90","w":620},"?":{"d":"104,-70v3,-36,61,-73,94,-37v13,14,8,36,6,56v-5,39,-64,72,-94,37v-13,-14,-8,-36,-6,-56xm145,-304v4,-28,30,-55,61,-55v96,2,187,-119,120,-203v-48,-60,-149,-37,-191,25v-14,21,-46,34,-73,18v-24,-13,-25,-47,-7,-70v43,-58,120,-108,211,-110v117,-3,203,100,182,221v-18,103,-108,195,-207,215v-10,38,-8,82,-35,105v-21,17,-55,21,-72,0v-8,-10,-11,-21,-8,-36","w":534},"@":{"d":"473,-555v108,0,176,99,156,214r-21,119v39,-29,58,-79,68,-130v27,-131,-70,-239,-197,-239v-135,0,-262,118,-281,239v-24,152,97,272,257,232v30,-7,59,12,60,40v2,31,-24,61,-51,67v-134,29,-246,-3,-318,-91v-56,-68,-74,-151,-59,-248v27,-178,213,-350,412,-350v185,0,324,157,288,350v-19,101,-86,219,-186,244v-55,14,-100,-16,-107,-64v-81,40,-172,28,-220,-38v-103,-145,43,-345,199,-345xm421,-260v71,-1,131,-95,85,-158v-26,-37,-82,-30,-115,0v-34,31,-54,90,-23,132v12,17,30,26,53,26","w":980},"A":{"d":"239,-165r-72,129v-16,29,-43,43,-77,33v-26,-8,-35,-43,-19,-72r325,-589v17,-44,96,-52,106,0r117,589v10,50,-50,95,-95,65v-8,-7,-13,-15,-15,-26r-26,-129r-244,0xm300,-275r161,0r-43,-215","w":646},"B":{"d":"158,1v-31,2,-54,-24,-48,-55r104,-590v4,-29,34,-55,67,-55r139,0v101,-3,176,87,157,191v-8,43,-27,80,-58,113v49,34,82,98,69,182v-17,109,-131,214,-252,214r-178,0xm230,-110v80,-4,156,12,204,-30v39,-35,63,-99,26,-146v-17,-20,-39,-31,-68,-31r-125,0xm372,-428v64,1,123,-78,80,-136v-25,-34,-83,-21,-137,-24r-29,160r86,0","w":594},"C":{"d":"639,-76v-143,104,-362,105,-470,-26v-57,-69,-77,-150,-62,-248v27,-179,219,-350,420,-350v85,0,155,24,209,76v48,46,-30,132,-83,87v-94,-80,-240,-62,-333,18v-56,48,-90,104,-102,169v-25,132,75,239,205,239v59,0,114,-16,164,-52v39,-28,97,1,80,51v-5,15,-15,26,-28,36","w":719},"D":{"d":"156,0v-30,1,-52,-25,-46,-56r103,-589v4,-28,35,-55,66,-55r118,0v185,-6,324,158,288,350v-25,134,-119,247,-228,303v-59,31,-121,47,-184,47r-117,0xm293,-111v135,2,261,-118,281,-239v22,-133,-71,-243,-197,-240r-63,0r-84,479r63,0","w":719},"E":{"d":"156,2v-30,1,-53,-24,-47,-55r104,-590v4,-29,34,-55,67,-55r324,0v29,-1,52,24,46,55v-5,28,-34,56,-65,56r-271,0r-33,184r234,0v29,-1,50,24,45,55v-5,28,-34,55,-65,55r-233,0r-33,184r271,0v29,-1,52,26,46,56v-5,28,-34,55,-65,55r-325,0","w":593},"F":{"d":"220,-55v-1,38,-68,79,-101,39v-9,-11,-12,-24,-9,-39r104,-590v4,-29,34,-55,67,-55r324,0v29,-1,50,25,45,55v-5,28,-34,56,-65,56r-270,0r-33,184r233,0v29,-1,51,24,46,55v-5,28,-34,55,-65,55r-233,0","w":600},"G":{"d":"639,-77v-146,105,-362,105,-471,-27v-57,-69,-76,-150,-61,-247v27,-180,218,-350,420,-350v85,0,155,24,209,76v48,46,-31,131,-83,87v-94,-81,-240,-63,-334,18v-56,49,-89,105,-101,169v-25,132,76,239,205,239v48,0,95,-13,140,-38r24,-133r-139,0v-29,1,-50,-25,-45,-55v5,-28,34,-55,65,-55r193,0v29,-1,52,24,46,55r-38,216v-4,18,-16,36,-30,45","w":800},"H":{"d":"521,-295r-259,0r-42,240v-3,41,-70,77,-101,39v-9,-11,-12,-24,-9,-39r103,-590v5,-41,70,-78,102,-39v9,11,12,24,9,39r-42,240r259,0r42,-240v5,-41,68,-77,101,-39v9,11,13,24,10,39r-104,590v-4,40,-70,77,-102,39v-9,-11,-12,-24,-9,-39","w":760},"I":{"d":"227,-54v-4,40,-69,77,-101,39v-9,-11,-13,-24,-10,-39r104,-590v5,-41,69,-77,102,-39v9,11,12,24,9,39","w":305},"J":{"d":"46,-171v-5,-47,45,-89,90,-67v13,6,19,18,21,33v7,54,54,95,114,95v78,0,150,-68,162,-137r70,-397v4,-40,69,-77,101,-39v9,11,13,24,10,39r-70,397v-17,127,-151,248,-292,248v-110,0,-195,-74,-206,-172","w":594},"K":{"d":"214,-645v1,-38,68,-79,101,-39v9,11,12,24,9,39r-51,289r386,-328v22,-20,60,-23,78,0v20,25,9,60,-13,78r-262,223r190,292v22,43,-14,90,-59,91v-18,0,-31,-7,-39,-20r-184,-285r-124,106r-26,144v-3,41,-70,77,-101,39v-9,-11,-12,-24,-9,-39","w":715},"L":{"d":"157,-2v-12,0,-30,-4,-38,-16v-8,-11,-12,-25,-9,-40r104,-589v3,-41,69,-77,101,-39v9,11,12,24,9,39r-94,534r271,0v29,-1,52,24,46,55v-5,28,-34,56,-66,56r-324,0","w":619},"M":{"d":"495,-277v-23,29,-75,33,-93,0r-108,-200r-74,420v-5,41,-69,78,-102,39v-9,-11,-12,-24,-9,-39r104,-589v3,-45,81,-80,107,-32r150,276r248,-277v31,-42,106,-22,96,33r-104,589v-3,42,-70,78,-102,39v-9,-11,-12,-24,-9,-39r74,-420","w":868},"N":{"d":"110,-55r103,-587v1,-47,80,-83,106,-35r246,452r73,-417v5,-41,69,-77,102,-39v9,11,12,24,9,39r-104,587v-3,47,-81,78,-107,29r-244,-448r-74,419v-3,41,-69,77,-101,39v-9,-11,-12,-24,-9,-39","w":790},"O":{"d":"361,1v-180,0,-304,-159,-271,-350v30,-176,202,-350,395,-350v178,0,302,160,270,350v-30,175,-202,350,-394,350xm465,-588v-129,0,-244,121,-264,239v-22,128,58,241,180,240v130,-1,244,-122,264,-240v22,-129,-60,-239,-180,-239","w":850},"P":{"d":"197,-18v-22,21,-60,24,-79,1v-9,-11,-12,-24,-9,-39r104,-590v5,-28,34,-55,67,-55r177,0v114,-4,198,95,177,214v-19,109,-130,215,-252,215r-124,0r-38,216v-3,15,-10,27,-23,38xm401,-383v84,1,161,-102,105,-177v-16,-21,-39,-30,-68,-30r-124,0r-36,207r123,0","w":583},"Q":{"d":"270,106v-50,27,-102,-23,-72,-74v9,-16,21,-27,38,-34v-111,-58,-180,-187,-151,-343v19,-101,64,-190,147,-264v84,-75,176,-111,273,-111v205,1,324,172,289,375v-17,99,-63,188,-147,263v-52,46,-98,69,-155,92v84,49,133,51,213,-2v28,-18,67,-16,81,10v18,33,0,67,-25,83v-120,82,-235,84,-358,3v-39,-26,-96,-18,-133,2xm484,-600v-139,0,-261,131,-282,255v-23,138,66,256,192,256v63,0,123,-24,180,-74v58,-52,91,-114,103,-182v26,-140,-61,-255,-193,-255","w":844},"R":{"d":"550,-117v30,11,36,48,17,77v-18,28,-64,44,-96,20v-40,-29,-38,-75,-27,-156v5,-38,-6,-53,-29,-72v-11,-9,-29,-16,-52,-24r-118,0r-39,217v-3,41,-70,77,-101,39v-9,-11,-12,-24,-9,-39r104,-590v4,-29,34,-56,66,-55r178,0v113,-4,198,97,176,214v-12,66,-46,122,-106,165v32,32,52,84,41,145v-5,24,-6,44,-5,59xm301,-589r-37,207v80,-4,155,13,202,-30v38,-35,62,-99,26,-147v-35,-46,-119,-25,-191,-30","w":625},"S":{"d":"488,-266v-26,-20,-69,-36,-128,-47v-90,-17,-165,-49,-196,-114v-11,-24,-13,-50,-8,-79v22,-131,208,-234,366,-179v59,21,67,28,113,63v48,37,-19,120,-69,83v-45,-32,-77,-57,-146,-61v-70,-4,-155,40,-164,94v-5,27,5,37,24,52v23,19,63,34,117,43v94,16,179,54,210,121v11,26,13,54,8,84v-17,115,-161,208,-299,206v-88,-1,-167,-32,-233,-98v-43,-42,31,-119,77,-77v38,35,104,75,174,75v79,0,170,-45,182,-106v6,-30,-11,-48,-28,-60","w":667},"T":{"d":"65,-606v-29,-40,12,-94,56,-94r425,0v29,-1,51,24,46,55v-5,28,-34,55,-65,55r-158,0r-94,534v-3,41,-69,79,-101,40v-9,-11,-12,-25,-9,-40r94,-534r-158,0v-15,0,-27,-5,-36,-16","w":648},"U":{"d":"663,-645v1,-38,67,-78,101,-39v9,11,13,24,10,39r-63,356v-20,146,-176,289,-340,289v-153,0,-266,-130,-238,-289r62,-356v3,-41,70,-77,102,-39v9,11,12,24,9,39r-63,356v-20,98,54,178,147,178v101,0,194,-88,210,-178","w":814},"V":{"d":"310,-35v-13,20,-37,39,-69,32v-16,-3,-30,-16,-33,-32r-145,-589v-8,-46,34,-91,85,-74v14,4,22,16,25,31r115,468r279,-468v12,-23,44,-43,78,-30v26,11,35,44,17,73","w":750},"W":{"d":"299,-18v-17,23,-76,22,-84,-8v-1,-2,-3,-5,-4,-9r-144,-589v-8,-46,34,-89,85,-72v14,5,22,15,25,29r114,468r186,-310v18,-42,93,-49,105,0r76,310r280,-468v13,-22,43,-42,77,-29v26,11,34,44,17,72r-365,606v-23,26,-80,19,-89,-17r-77,-313r-193,322v-5,1,-4,7,-9,8","w":1102},"X":{"d":"125,-1v-45,1,-58,-56,-29,-88r238,-262r-145,-262v-22,-46,20,-93,68,-87v15,2,25,9,32,21r130,234r212,-234v18,-21,55,-32,79,-12v23,19,20,56,-1,78r-238,262r145,262v30,59,-68,125,-101,65r-129,-234r-212,234v-13,15,-30,23,-49,23","w":722},"Y":{"d":"592,-611r-257,283r-48,274v-4,40,-69,77,-101,39v-9,-11,-13,-24,-10,-39r49,-274r-157,-283v-20,-47,21,-92,68,-87v15,2,26,9,33,22r131,236r214,-236v17,-22,55,-33,79,-12v23,20,20,55,-1,77","w":604},"Z":{"d":"118,1v-27,-1,-39,-15,-46,-35v-2,-26,5,-40,16,-53r455,-501r-321,0v-29,1,-51,-25,-46,-56v5,-27,34,-56,65,-55r442,1v29,5,45,41,28,71v-1,6,-6,11,-10,16r-455,501r322,0v29,-1,50,25,45,56v-5,28,-34,55,-65,55r-430,0","w":667},"[":{"d":"103,65r126,-710v4,-31,35,-60,69,-60r206,0v25,-1,45,22,40,48v-4,23,-30,47,-57,47r-149,0r-112,640r149,0v25,-1,44,21,39,47v-4,23,-29,49,-56,48r-206,0v-32,1,-55,-27,-49,-60","w":430},"\\":{"d":"367,-76v14,41,-11,76,-50,76v-25,0,-42,-11,-51,-33r-245,-584v-17,-45,21,-88,71,-71v14,6,24,15,30,29"},"]":{"d":"500,-645r-126,710v-4,31,-35,60,-69,60r-206,0v-25,1,-45,-22,-40,-48v4,-23,30,-47,57,-47r149,0r112,-640r-149,0v-25,1,-44,-21,-39,-47v4,-23,29,-49,56,-48r206,0v32,-1,55,27,49,60","w":430},"^":{"d":"279,-625v-42,40,-87,97,-133,128v-17,11,-66,17,-63,-11v1,-9,8,-19,18,-30r122,-130v35,-45,104,-54,132,0r68,130v13,26,4,51,-27,50v-39,-1,-47,-15,-64,-44"},"_":{"d":"18,160v-24,1,-42,-20,-36,-47v5,-23,30,-47,57,-47r604,0v25,-1,42,21,37,47v-5,23,-31,47,-58,47r-604,0","w":600},"`":{"d":"163,-711v1,-21,46,-39,72,-39v20,0,36,10,48,29r57,88v16,21,11,44,-22,43v-28,0,-51,-9,-70,-27r-68,-64v-11,-10,-17,-20,-17,-30"},"a":{"d":"470,-16v-28,28,-85,15,-84,-28v-98,64,-231,58,-296,-31v-37,-51,-46,-109,-37,-175v18,-124,144,-249,281,-249v48,0,90,14,125,42v8,-33,67,-60,94,-27v8,10,11,23,8,38r-68,391v-3,15,-12,28,-23,39xm315,-394v-109,0,-207,145,-135,246v42,58,130,48,183,0v51,-47,86,-138,36,-205v-21,-27,-49,-41,-84,-41","w":619},"b":{"d":"204,-41v-10,34,-68,61,-96,27v-9,-11,-12,-24,-9,-39r102,-592v3,-41,69,-77,100,-39v9,11,12,24,9,39r-31,186v103,-62,235,-55,303,33v38,49,49,107,40,177v-22,168,-251,331,-418,208xm402,-392v-76,0,-147,72,-159,143v-14,78,37,144,111,143v108,-1,210,-141,138,-244v-21,-29,-53,-42,-90,-42","w":660},"c":{"d":"470,-55v-105,74,-263,77,-342,-19v-42,-50,-56,-110,-45,-181v20,-130,160,-257,306,-255v61,0,113,17,152,55v47,46,-31,130,-82,86v-56,-48,-147,-36,-204,11v-58,48,-92,138,-37,206v46,57,141,56,201,11v25,-18,61,-14,74,10v16,29,-2,61,-23,76","w":571},"d":{"d":"512,-15v-30,29,-85,15,-86,-27v-101,65,-234,57,-302,-31v-38,-49,-49,-107,-40,-176v22,-166,249,-332,415,-208r30,-189v4,-40,69,-76,100,-38v9,11,12,23,9,38r-102,592v-3,15,-12,28,-24,39xm352,-391v-78,0,-146,72,-159,142v-14,75,39,141,109,141v74,0,149,-73,159,-141v12,-79,-37,-142,-109,-142","w":660},"e":{"d":"570,-268v-4,33,-29,54,-62,54r-319,0v-4,115,160,145,229,73v20,-20,57,-20,72,-2v17,20,14,49,-4,66v-57,52,-106,75,-206,77v-131,2,-221,-113,-197,-250v22,-125,147,-250,288,-250v129,0,217,99,199,232xm482,-299v-5,-55,-62,-106,-128,-106v-73,0,-134,56,-155,106r283,0","w":609},"f":{"d":"366,-605v-19,19,-54,11,-74,22v-8,5,-17,39,-20,65v29,0,53,-2,66,16v30,40,-13,95,-56,95r-30,0r-62,352v-3,41,-69,77,-101,39v-9,-11,-12,-24,-9,-39r62,-352v-28,1,-49,1,-62,-17v-30,-40,12,-95,55,-94r26,0v16,-105,65,-182,183,-182v29,0,52,26,46,56v-3,15,-13,27,-24,39","w":362},"g":{"d":"486,-456v8,-35,68,-62,96,-28v8,11,11,23,8,38r-68,386v-20,153,-213,302,-386,218v-24,-12,-29,-46,-12,-72v13,-21,46,-40,76,-25v86,44,186,-26,207,-94v-102,63,-230,55,-297,-35v-37,-49,-48,-108,-38,-178v19,-128,147,-255,286,-254v50,0,93,15,128,44xm201,-143v44,61,131,49,187,0v52,-46,87,-141,37,-207v-46,-60,-130,-50,-187,0v-53,47,-86,139,-37,207","w":660},"h":{"d":"534,-56v-3,37,-67,78,-102,39v-9,-11,-12,-24,-9,-39r43,-227v12,-58,-32,-107,-88,-107v-60,0,-116,54,-126,107r-43,227v-5,41,-68,77,-101,39v-9,-11,-13,-24,-10,-39r44,-227r60,-363v3,-42,70,-76,102,-39v9,11,12,24,9,39r-27,173v86,-46,199,-36,254,35v34,43,48,94,37,155","w":613},"i":{"d":"99,-54r73,-391v3,-41,70,-77,101,-39v9,11,12,24,9,39r-72,391v-3,42,-70,76,-102,39v-9,-11,-12,-24,-9,-39xm314,-644v-4,40,-28,76,-69,77v-29,1,-51,-26,-45,-56v-3,-56,64,-101,104,-60v10,10,11,24,10,39","w":281},"j":{"d":"301,-684v14,16,9,39,6,61v-5,43,-70,81,-103,41v-14,-16,-9,-40,-6,-62v6,-42,69,-78,103,-40xm163,-444v1,-39,68,-79,103,-40v9,11,13,24,10,40r-96,529v-7,58,-70,113,-133,113v-30,0,-51,-26,-46,-57v5,-28,35,-56,66,-56","w":249},"k":{"d":"209,-55v-1,38,-68,79,-101,39v-9,-11,-12,-24,-9,-39r104,-590v3,-41,70,-77,101,-39v9,11,12,24,9,39r-61,347r242,-206v23,-20,60,-24,78,0v20,25,9,60,-13,78r-176,150r120,186v34,56,-61,128,-98,70r-115,-178r-65,56","w":560},"l":{"d":"209,-644v3,-41,70,-77,102,-39v9,11,12,24,9,39r-104,589v-3,42,-70,78,-102,39v-9,-11,-12,-24,-9,-39","w":249},"m":{"d":"678,-395v-59,0,-112,51,-121,103r-41,236v-4,40,-67,75,-98,38v-8,-10,-11,-23,-9,-38r42,-238v11,-56,-31,-101,-85,-101v-56,0,-111,51,-120,103r-42,236v-3,40,-65,76,-96,38v-8,-11,-12,-23,-9,-38r68,-391v5,-28,32,-53,63,-53v22,0,36,10,43,30v87,-50,205,-38,256,39v82,-82,230,-98,304,-8v33,41,45,90,35,147r-42,236v-2,40,-66,76,-96,38v-8,-11,-12,-23,-9,-38r41,-236v12,-57,-29,-103,-84,-103","w":951},"n":{"d":"410,-55r42,-236v10,-57,-30,-103,-85,-103v-59,0,-110,50,-120,103r-43,236v-2,40,-67,76,-97,38v-9,-11,-12,-23,-9,-38r69,-392v5,-27,32,-53,63,-53v23,0,37,10,42,31v83,-49,195,-40,250,30v33,41,46,90,35,148r-42,236v-2,40,-65,76,-96,39v-9,-10,-12,-24,-9,-39","w":613},"o":{"d":"181,-425v100,-93,258,-108,342,0v38,48,47,108,37,176v-19,127,-145,251,-283,251v-127,0,-222,-114,-195,-251v13,-67,45,-126,99,-176xm295,-104v76,0,148,-72,159,-145v6,-41,-2,-74,-23,-102v-45,-59,-130,-49,-185,0v-51,45,-85,141,-36,205v21,28,50,42,85,42","w":625},"p":{"d":"224,-484v29,-28,86,-17,86,26v101,-63,236,-57,304,32v38,50,50,108,40,177v-19,126,-150,253,-288,252v-51,0,-93,-16,-128,-43r-30,175v-5,40,-68,77,-100,39v-9,-11,-13,-24,-10,-39r103,-580v3,-15,11,-28,23,-39xm297,-149v78,98,234,4,248,-100v11,-79,-39,-143,-109,-142v-37,0,-72,13,-104,41v-32,28,-49,63,-56,101v-7,39,-2,72,21,100","w":660},"q":{"d":"499,-457v9,-34,68,-60,96,-27v9,10,12,24,9,39r-102,577v-3,41,-68,76,-99,38v-9,-11,-12,-23,-9,-38r31,-173v-97,61,-235,56,-301,-32v-37,-50,-50,-107,-40,-176v19,-127,146,-252,287,-250v50,0,93,14,128,42xm302,-108v75,0,147,-71,159,-142v13,-77,-37,-141,-110,-141v-110,0,-210,141,-137,242v21,29,52,41,88,41","w":660},"r":{"d":"272,-440v40,-32,104,-60,160,-60v28,0,50,24,44,53v-5,26,-32,54,-62,54v-53,0,-85,27,-119,66v-25,28,-44,56,-57,85r-33,189v-4,40,-67,73,-98,37v-9,-10,-12,-22,-9,-37r70,-394v2,-40,67,-73,97,-37v10,12,12,28,7,44","w":439},"s":{"d":"220,-345v14,20,39,26,79,34v69,14,124,39,148,89v9,19,11,42,7,67v-12,84,-118,156,-219,154v-63,-1,-118,-23,-164,-69v-46,-47,36,-126,83,-80v20,19,61,42,99,42v40,0,89,-19,97,-47v1,-14,-5,-16,-12,-24v-32,-25,-125,-31,-161,-53v-44,-28,-71,-58,-63,-121v6,-43,33,-81,78,-109v92,-57,183,-50,269,18v39,31,1,93,-35,96v-15,1,-27,0,-38,-8v-34,-25,-62,-38,-85,-38v-37,-1,-72,17,-83,41r0,8","w":492},"t":{"d":"164,-646v3,-37,67,-78,102,-39v9,11,12,24,9,39r-22,146v28,-1,50,-2,62,16v29,41,-11,96,-56,95r-26,0r-52,277v29,-1,52,26,46,56v-5,28,-34,55,-65,55v-59,0,-104,-50,-92,-111r53,-277v-29,0,-53,2,-66,-17v-29,-40,12,-95,56,-94r29,0","w":400},"u":{"d":"479,-484v20,-19,58,-22,75,0v8,10,11,22,8,37r-41,237v-14,106,-128,209,-245,209v-111,0,-192,-94,-172,-209r41,-237v4,-40,65,-73,97,-38v9,10,12,23,9,38r-42,237v-11,56,31,102,85,102v59,0,112,-51,121,-102r42,-237v3,-15,10,-27,22,-37","w":613},"v":{"d":"252,-31v-14,32,-76,44,-94,8v-1,-4,-2,-7,-3,-8r-95,-390v-8,-43,32,-85,81,-69v13,4,20,15,23,28r68,274r163,-274v12,-21,42,-41,74,-28v24,10,31,43,15,69","w":582},"w":{"d":"255,-34v-10,23,-43,39,-74,28v-10,-7,-18,-14,-22,-28r-94,-386v-8,-43,32,-85,79,-69v13,4,21,15,24,28r67,272r100,-168v14,-23,32,-32,55,-32v24,0,39,9,44,32r41,168r163,-272v11,-21,42,-39,73,-27v25,9,32,43,16,68r-231,386v-11,33,-83,48,-93,8r-45,-179","w":861},"x":{"d":"116,-1v-45,2,-55,-54,-28,-83r148,-163r-90,-162v-31,-57,64,-119,96,-62r75,135r124,-135v16,-21,51,-31,74,-12v23,18,19,53,-1,74r-148,162r90,163v30,56,-64,119,-96,62r-75,-136r-122,136v-14,14,-30,21,-47,21","w":570},"y":{"d":"537,-447r-68,385v-20,152,-215,302,-385,216v-24,-12,-29,-47,-12,-72v14,-22,47,-39,77,-24v81,39,173,-18,198,-78v-83,42,-187,28,-239,-38v-33,-42,-46,-91,-36,-149r42,-240v4,-40,68,-73,99,-37v9,10,12,22,9,37r-43,240v-12,57,31,104,86,104v59,0,114,-52,123,-104r41,-240v7,-38,58,-69,92,-43v13,10,19,24,16,43","w":588},"z":{"d":"106,1v-40,1,-55,-45,-35,-75v0,-2,1,-3,3,-3r4,-6r280,-309r-182,0v-28,1,-49,-25,-44,-54v5,-27,32,-53,62,-53r300,1r17,8v12,11,20,34,12,55v-4,7,-7,15,-13,20r-280,309r182,0v28,-1,49,25,44,54v-5,27,-32,53,-62,53r-288,0","w":554},"{":{"d":"325,148v-71,-16,-116,-41,-141,-70v-38,-44,-19,-138,-7,-196v15,-73,-8,-106,-75,-108v-28,0,-48,-19,-42,-48v5,-27,28,-47,59,-48v74,-4,101,-39,114,-109v1,-6,2,-30,10,-72v24,-122,94,-164,230,-193v30,-7,54,11,48,41v-3,21,-15,36,-35,41v-106,27,-128,69,-141,180v-10,90,-53,138,-132,160v61,22,94,55,80,137v-8,44,-32,117,-9,155v11,18,38,34,82,48v33,10,24,61,-1,75v-12,7,-25,10,-40,7","w":480},"|":{"d":"126,85r149,-840v4,-36,61,-67,89,-34v8,9,11,21,8,34r-150,840v-4,35,-62,67,-89,34v-7,-9,-10,-21,-7,-34","w":286},"}":{"d":"254,-696v71,16,117,41,142,70v38,44,18,138,6,196v-15,73,8,106,75,108v28,0,48,19,42,48v-5,27,-28,47,-59,48v-74,4,-101,39,-114,109v-1,6,-2,30,-10,72v-24,122,-94,164,-230,193v-30,7,-54,-11,-48,-41v3,-21,15,-36,35,-41v106,-27,128,-69,141,-180v10,-90,53,-138,132,-160v-61,-22,-94,-55,-80,-137v8,-44,32,-117,9,-155v-11,-18,-38,-34,-82,-48v-33,-10,-24,-61,1,-75v12,-7,25,-10,40,-7","w":480},"~":{"d":"344,-239v-29,0,-121,-41,-143,-40v-20,0,-37,10,-47,32v-15,33,-71,21,-69,-14v2,-41,27,-73,44,-91v15,-16,36,-22,62,-22v29,0,121,40,143,39v20,0,37,-10,47,-31v16,-35,69,-21,69,13v0,42,-27,73,-44,91v-15,16,-36,23,-62,23","w":460},"\u00a1":{"d":"210,-57v-1,38,-68,79,-102,39v-9,-11,-12,-24,-9,-39r65,-370v5,-41,70,-78,102,-39v9,11,12,24,9,39xm287,-586v-22,21,-59,23,-79,1v-14,-16,-8,-39,-5,-61v5,-41,68,-76,101,-39v14,16,11,40,6,61v-3,15,-10,27,-23,38","w":252},"\u00a2":{"d":"410,-139v37,-27,95,-2,78,49v-5,15,-13,28,-27,37v-78,51,-161,70,-254,40v-24,37,-45,104,-108,83v-26,-9,-35,-44,-18,-72r41,-69v-44,-51,-58,-111,-47,-182v21,-132,160,-258,309,-256r45,-76v13,-22,44,-42,78,-29v25,9,32,45,16,71r-36,59v27,17,59,29,59,67v0,45,-59,80,-95,49v-5,-4,-12,-9,-23,-16r-161,271v52,14,101,4,143,-26xm314,-393v-78,24,-158,105,-125,210","w":581},"\u00a3":{"d":"78,-12v-21,-29,0,-66,33,-75r53,-15r31,-176v-28,0,-54,3,-66,-15v-27,-38,11,-91,53,-89r32,0r16,-92v23,-138,118,-235,272,-236v80,0,138,28,180,81v47,59,-53,145,-101,85v-44,-56,-120,-68,-176,-24v-46,37,-54,114,-66,186r202,0v27,-1,48,24,43,52v-4,27,-33,52,-62,52r-202,0r-30,171r276,0v28,-1,50,24,45,54v-5,27,-33,54,-64,53r-438,0v-14,0,-25,-3,-31,-12","w":644},"\u00a5":{"d":"394,-266r-13,73r154,0v40,-2,47,56,17,76v-11,8,-21,13,-33,13r-154,0v-7,36,-7,69,-33,90v-25,20,-64,24,-84,0v-20,-23,-4,-60,-1,-90r-154,0v-40,2,-46,-56,-17,-76v11,-8,21,-13,33,-13r154,0r13,-73r-154,0v-23,1,-40,-20,-36,-44v4,-23,26,-45,51,-45r119,0r-139,-252v-27,-48,15,-101,64,-100v23,0,41,11,52,34r129,261r222,-260v30,-35,71,-51,102,-20v23,23,6,64,-13,85r-231,252r121,0v23,-1,42,20,37,45v-4,22,-27,44,-52,44r-154,0","w":686},"\u00a8":{"d":"331,-651v-1,-52,84,-97,122,-51v50,60,-53,151,-113,95v-11,-10,-13,-26,-9,-44xm132,-651v-1,-52,84,-97,122,-51v50,60,-52,151,-112,95v-11,-10,-14,-26,-10,-44"},"\u00a9":{"d":"777,-352v0,196,-167,364,-363,364v-196,0,-361,-166,-361,-362v0,-194,168,-362,363,-362v195,0,361,166,361,360xm91,-350v0,178,145,326,323,326v179,0,325,-150,325,-328v0,-176,-146,-324,-323,-324v-178,0,-325,150,-325,326xm513,-263v23,-21,57,-1,57,26v0,11,-4,19,-11,25v-41,35,-87,53,-140,53v-108,0,-192,-87,-192,-196v0,-107,85,-196,194,-196v51,0,93,17,130,43v28,20,15,69,-20,67v-7,0,-15,-3,-24,-10v-27,-21,-56,-32,-86,-32v-67,-1,-118,60,-118,129v0,66,52,129,118,127v33,0,65,-11,92,-36","w":830},"\u00ab":{"d":"492,-56v-22,20,-61,18,-76,-7r-99,-166v-17,-31,-7,-48,13,-70r155,-163v21,-25,60,-35,81,-9v18,22,5,51,-12,69r-129,137r81,140v18,24,4,53,-14,69xm241,-56v-23,20,-62,19,-77,-7r-99,-166v-16,-29,-6,-49,13,-70r155,-163v24,-25,60,-36,81,-9v18,22,7,50,-11,69r-130,137r82,140v16,23,4,54,-14,69","w":515},"\u00ad":{"d":"323,-344v0,19,-15,37,-35,36r-186,0v-19,1,-36,-17,-36,-36v0,-19,17,-37,36,-36r186,0v20,-1,35,17,35,36","w":408},"\u00ae":{"d":"382,-536v0,94,-80,176,-174,176v-95,0,-174,-80,-174,-175v0,-93,81,-175,174,-175v94,0,174,80,174,174xm54,-535v0,84,70,156,154,156v84,0,154,-73,154,-157v0,-83,-70,-155,-154,-155v-84,0,-154,73,-154,156xm254,-523v18,12,20,33,21,60v14,3,18,27,0,30v-27,5,-33,-20,-33,-48v-4,-19,-12,-21,-29,-28r-34,0r0,64v0,9,-8,16,-17,16v-11,0,-16,-5,-16,-16r0,-173v0,-28,45,-14,69,-16v55,-5,85,77,39,111xm245,-571v0,-17,-14,-30,-30,-30r-36,0r0,60r36,0v15,1,30,-15,30,-30","w":416},"\u00b0":{"d":"407,-545v0,87,-81,164,-166,164v-85,0,-167,-78,-167,-164v0,-84,83,-161,167,-161v85,0,166,77,166,161xm146,-545v0,53,43,98,95,98v52,0,94,-45,94,-98v0,-51,-42,-95,-94,-95v-53,0,-95,44,-95,95","w":450},"\u00b4":{"d":"314,-750v26,0,71,18,72,39v0,10,-6,20,-17,30r-67,64v-19,18,-43,27,-71,27v-32,0,-36,-22,-22,-43r57,-88v12,-19,28,-29,48,-29"},"\u00b8":{"d":"240,160v-22,0,-71,-24,-70,-44v0,-8,3,-16,8,-23r71,-103r91,0r-61,141v-8,19,-21,29,-39,29"},"\u00bb":{"d":"154,-472v22,-20,61,-18,76,7r99,166v17,31,7,48,-13,70r-155,163v-21,25,-60,35,-81,9v-18,-22,-5,-51,12,-69r129,-137r-81,-140v-18,-24,-4,-53,14,-69xm405,-472v23,-20,62,-19,77,7r99,166v16,29,6,49,-13,70r-155,163v-24,25,-60,36,-81,9v-18,-22,-7,-50,11,-69r130,-137r-82,-140v-16,-23,-4,-54,14,-69","w":515},"\u00bf":{"d":"418,-628v-3,36,-61,73,-94,37v-13,-14,-8,-36,-6,-56v5,-39,64,-72,94,-37v13,14,8,36,6,56xm377,-394v-4,28,-30,55,-61,55v-96,-2,-187,119,-120,203v48,60,149,37,191,-25v14,-21,46,-34,73,-18v24,13,25,47,7,70v-43,58,-120,108,-211,110v-117,3,-203,-100,-182,-221v18,-103,108,-195,207,-215v10,-38,8,-82,35,-105v21,-17,55,-21,72,0v8,10,11,21,8,36","w":534},"\u00c0":{"d":"240,-165r-72,129v-16,29,-43,43,-77,33v-26,-8,-35,-43,-19,-72r325,-589v17,-44,96,-52,106,0r117,589v9,50,-49,95,-94,65v-8,-7,-14,-15,-16,-26r-26,-129r-244,0xm301,-275r161,0r-43,-215xm396,-911v1,-21,46,-39,72,-39v20,0,36,10,48,29r57,88v16,21,11,44,-22,43v-28,0,-51,-9,-70,-27r-68,-64v-11,-10,-17,-20,-17,-30","w":790},"\u00c1":{"d":"239,-165r-72,129v-16,29,-43,43,-77,33v-26,-8,-35,-43,-19,-72r325,-589v17,-44,96,-52,106,0r117,589v10,50,-50,95,-95,65v-8,-7,-13,-15,-15,-26r-26,-129r-244,0xm300,-275r161,0r-43,-215xm472,-950v26,0,71,18,72,39v0,10,-6,20,-17,30r-67,64v-19,18,-43,27,-71,27v-32,0,-36,-22,-22,-43r57,-88v12,-19,28,-29,48,-29","w":646},"\u00c2":{"d":"240,-165r-72,129v-16,29,-43,43,-77,33v-26,-8,-35,-43,-19,-72r325,-589v17,-44,96,-52,106,0r117,589v9,50,-49,95,-94,65v-8,-7,-14,-15,-16,-26r-26,-129r-244,0xm301,-275r161,0r-43,-215xm510,-862v-42,26,-87,73,-148,72v-14,0,-25,-6,-21,-20v1,-5,7,-13,19,-24r91,-83v31,-28,55,-31,103,-29v23,0,39,10,49,29r41,83v15,26,-1,44,-30,44v-53,0,-78,-43,-104,-72","w":790},"\u00c3":{"d":"240,-165r-72,129v-16,29,-43,43,-77,33v-26,-8,-35,-43,-19,-72r325,-589v17,-44,96,-52,106,0r117,589v9,50,-49,95,-94,65v-8,-7,-14,-15,-16,-26r-26,-129r-244,0xm301,-275r161,0r-43,-215xm589,-795v-30,0,-121,-41,-144,-40v-19,0,-35,11,-46,32v-16,33,-70,21,-70,-13v0,-39,28,-75,45,-92v16,-15,36,-22,61,-22v30,0,121,41,144,40v19,0,35,-11,46,-32v16,-33,70,-21,70,13v0,39,-28,74,-45,91v-16,15,-36,23,-61,23","w":790},"\u00c4":{"d":"240,-165r-72,129v-16,29,-43,43,-77,33v-26,-8,-35,-43,-19,-72r325,-589v17,-44,96,-52,106,0r117,589v9,50,-49,95,-94,65v-8,-7,-14,-15,-16,-26r-26,-129r-244,0xm301,-275r161,0r-43,-215xm527,-851v-1,-52,84,-97,122,-51v50,60,-53,151,-113,95v-11,-10,-13,-26,-9,-44xm328,-851v-1,-52,84,-97,122,-51v50,60,-52,151,-112,95v-11,-10,-14,-26,-10,-44","w":790},"\u00c5":{"d":"319,-275r162,0r-43,-215xm593,-3v-28,9,-59,-6,-64,-32r-27,-130r-243,0r-71,130v-17,28,-43,42,-77,32v-26,-8,-35,-43,-20,-72r304,-553v-29,-19,-50,-60,-43,-106v13,-90,160,-172,233,-86v21,24,29,55,22,88v-9,43,-34,78,-79,103r111,554v6,33,-20,64,-46,72xm440,-698v41,41,116,-22,80,-70v-41,-41,-116,22,-80,70","w":790},"\u00c6":{"d":"49,-20v-19,-19,-7,-54,7,-72r439,-577v20,-29,46,-43,79,-43r481,0v29,-1,50,25,45,55v-5,28,-32,55,-64,55r-324,0r-32,182r279,0v28,-1,50,26,45,56v-5,27,-34,55,-65,54r-279,0r-33,188r329,0v29,-1,50,25,45,55v-5,28,-32,55,-64,55r-390,0v-33,1,-57,-27,-51,-62r19,-107r-264,0r-106,141v-24,34,-67,48,-96,20xm333,-290r201,0r55,-315r-20,0","w":1045},"\u00c7":{"d":"639,-76v-143,104,-362,105,-470,-26v-57,-69,-77,-150,-62,-248v27,-179,219,-350,420,-350v85,0,155,24,209,76v48,46,-30,132,-83,87v-94,-80,-240,-62,-333,18v-56,48,-90,104,-102,169v-25,132,75,239,205,239v59,0,114,-16,164,-52v39,-28,97,1,80,51v-5,15,-15,26,-28,36xm363,160v-22,0,-71,-24,-70,-44v0,-8,3,-16,8,-23r71,-103r91,0r-61,141v-8,19,-21,29,-39,29","w":738},"\u00c8":{"d":"156,2v-30,1,-53,-24,-47,-55r104,-590v4,-29,34,-55,67,-55r324,0v29,-1,52,24,46,55v-5,28,-34,56,-65,56r-271,0r-33,184r234,0v29,-1,50,24,45,55v-5,28,-34,55,-65,55r-233,0r-33,184r271,0v29,-1,52,26,46,56v-5,28,-34,55,-65,55r-325,0xm340,-911v1,-21,46,-39,72,-39v20,0,36,10,48,29r57,88v16,21,11,44,-22,43v-28,0,-51,-9,-70,-27r-68,-64v-11,-10,-17,-20,-17,-30","w":670},"\u00c9":{"d":"156,2v-30,1,-53,-24,-47,-55r104,-590v4,-29,34,-55,67,-55r324,0v29,-1,52,24,46,55v-5,28,-34,56,-65,56r-271,0r-33,184r234,0v29,-1,50,24,45,55v-5,28,-34,55,-65,55r-233,0r-33,184r271,0v29,-1,52,26,46,56v-5,28,-34,55,-65,55r-325,0xm493,-950v26,0,71,18,72,39v0,10,-6,20,-17,30r-67,64v-19,18,-43,27,-71,27v-32,0,-36,-22,-22,-43r57,-88v12,-19,28,-29,48,-29","w":670},"\u00ca":{"d":"156,2v-30,1,-53,-24,-47,-55r104,-590v4,-29,34,-55,67,-55r324,0v29,-1,52,24,46,55v-5,28,-34,56,-65,56r-271,0r-33,184r234,0v29,-1,50,24,45,55v-5,28,-34,55,-65,55r-233,0r-33,184r271,0v29,-1,52,26,46,56v-5,28,-34,55,-65,55r-325,0xm505,-862v-42,26,-87,73,-148,72v-14,0,-25,-6,-21,-20v1,-5,7,-13,19,-24r91,-83v31,-28,55,-31,103,-29v23,0,40,10,49,29r41,83v15,26,-1,44,-30,44v-53,0,-78,-43,-104,-72","w":670},"\u00cb":{"d":"156,2v-30,1,-53,-24,-47,-55r104,-590v4,-29,34,-55,67,-55r324,0v29,-1,52,24,46,55v-5,28,-34,56,-65,56r-271,0r-33,184r234,0v29,-1,50,24,45,55v-5,28,-34,55,-65,55r-233,0r-33,184r271,0v29,-1,52,26,46,56v-5,28,-34,55,-65,55r-325,0xm509,-851v-1,-52,84,-97,122,-51v50,60,-53,151,-113,95v-11,-10,-13,-26,-9,-44xm310,-851v-1,-52,84,-97,122,-51v50,60,-52,151,-112,95v-11,-10,-14,-26,-10,-44","w":670},"\u00cc":{"d":"131,-54v-4,40,-69,77,-101,39v-9,-11,-13,-24,-10,-39r104,-590v5,-41,69,-77,102,-39v9,11,12,24,9,39xm117,-911v1,-21,46,-39,72,-39v20,0,36,10,48,29r57,88v16,21,11,44,-22,43v-28,0,-51,-9,-70,-27r-68,-64v-11,-10,-17,-20,-17,-30","w":274},"\u00cd":{"d":"227,-54v-4,40,-69,77,-101,39v-9,-11,-13,-24,-10,-39r104,-590v5,-41,69,-77,102,-39v9,11,12,24,9,39xm301,-950v26,0,71,18,72,39v0,10,-6,20,-17,30r-67,64v-19,18,-43,27,-71,27v-32,0,-36,-22,-22,-43r57,-88v12,-19,28,-29,48,-29","w":274},"\u00ce":{"d":"148,-54v-4,40,-70,77,-102,39v-9,-11,-12,-24,-9,-39r104,-590v5,-41,68,-77,101,-39v9,11,13,24,10,39xm221,-862v-42,26,-87,73,-148,72v-14,0,-25,-6,-21,-20v1,-5,7,-13,19,-24r91,-83v31,-28,55,-31,103,-29v23,0,40,10,49,29r41,83v15,26,-1,44,-30,44v-53,0,-78,-43,-104,-72","w":274},"\u00cf":{"d":"156,-54v-4,40,-70,77,-102,39v-9,-11,-12,-24,-9,-39r104,-590v5,-41,68,-77,101,-39v9,11,13,24,10,39xm280,-851v-1,-52,84,-97,122,-51v50,60,-52,151,-112,95v-11,-10,-14,-26,-10,-44xm81,-851v-1,-52,84,-97,122,-51v50,60,-53,151,-113,95v-11,-10,-13,-26,-9,-44","w":274},"\u00d0":{"d":"371,-700v185,-6,324,158,288,350v-25,134,-119,247,-228,303v-59,31,-121,47,-184,47r-118,0v-29,1,-51,-26,-45,-56r46,-261v-34,1,-79,6,-70,-36v3,-18,23,-36,44,-36r38,0r45,-256v4,-28,35,-55,66,-55r118,0xm267,-111v135,2,261,-118,281,-239v22,-133,-71,-243,-197,-240r-63,0r-35,201v23,1,50,-5,59,11v17,28,-10,61,-39,61r-33,0r-36,206r63,0","w":812},"\u00d1":{"d":"110,-55r103,-587v1,-47,80,-83,106,-35r246,452r73,-417v5,-41,69,-77,102,-39v9,11,12,24,9,39r-104,587v-3,47,-81,78,-107,29r-244,-448r-74,419v-3,41,-69,77,-101,39v-9,-11,-12,-24,-9,-39xm641,-795v-30,0,-121,-41,-144,-40v-19,0,-35,11,-46,32v-16,33,-70,21,-70,-13v0,-39,28,-75,45,-92v16,-15,36,-22,61,-22v30,0,121,41,144,40v19,0,35,-11,46,-32v16,-33,70,-21,70,13v0,39,-28,74,-45,91v-16,15,-36,23,-61,23","w":790},"\u00d2":{"d":"361,1v-180,0,-304,-159,-271,-350v30,-176,202,-350,395,-350v178,0,302,160,270,350v-30,175,-202,350,-394,350xm465,-588v-129,0,-244,121,-264,239v-22,128,58,241,180,240v130,-1,244,-122,264,-240v22,-129,-60,-239,-180,-239xm543,-911v1,-21,46,-39,72,-39v20,0,36,10,48,29r57,88v16,21,11,44,-22,43v-28,0,-51,-9,-70,-27r-68,-64v-11,-10,-17,-20,-17,-30","w":850},"\u00d3":{"d":"361,1v-180,0,-304,-159,-271,-350v30,-176,202,-350,395,-350v178,0,302,160,270,350v-30,175,-202,350,-394,350xm465,-588v-129,0,-244,121,-264,239v-22,128,58,241,180,240v130,-1,244,-122,264,-240v22,-129,-60,-239,-180,-239xm490,-950v26,0,71,18,72,39v0,10,-6,20,-17,30r-67,64v-19,18,-43,27,-71,27v-32,0,-36,-22,-22,-43r57,-88v12,-19,28,-29,48,-29","w":850},"\u00d4":{"d":"361,1v-180,0,-304,-159,-271,-350v30,-176,202,-350,395,-350v178,0,302,160,270,350v-30,175,-202,350,-394,350xm465,-588v-129,0,-244,121,-264,239v-22,128,58,241,180,240v130,-1,244,-122,264,-240v22,-129,-60,-239,-180,-239xm584,-862v-42,26,-87,73,-148,72v-14,0,-25,-6,-21,-20v1,-5,7,-13,19,-24r91,-83v31,-28,55,-31,103,-29v23,0,39,10,49,29r41,83v15,26,-1,44,-30,44v-53,0,-78,-43,-104,-72","w":850},"\u00d5":{"d":"361,1v-180,0,-304,-159,-271,-350v30,-176,202,-350,395,-350v178,0,302,160,270,350v-30,175,-202,350,-394,350xm465,-588v-129,0,-244,121,-264,239v-22,128,58,241,180,240v130,-1,244,-122,264,-240v22,-129,-60,-239,-180,-239xm629,-795v-30,0,-121,-41,-144,-40v-19,0,-35,11,-46,32v-16,33,-70,21,-70,-13v0,-39,28,-75,45,-92v16,-15,36,-22,61,-22v30,0,121,41,144,40v19,0,35,-11,46,-32v16,-33,70,-21,70,13v0,39,-28,74,-45,91v-16,15,-36,23,-61,23","w":850},"\u00d6":{"d":"361,1v-180,0,-304,-159,-271,-350v30,-176,202,-350,395,-350v178,0,302,160,270,350v-30,175,-202,350,-394,350xm465,-588v-129,0,-244,121,-264,239v-22,128,58,241,180,240v130,-1,244,-122,264,-240v22,-129,-60,-239,-180,-239xm601,-851v-1,-52,84,-97,122,-51v50,60,-53,151,-113,95v-11,-10,-13,-26,-9,-44xm402,-851v-1,-52,84,-97,122,-51v50,60,-52,151,-112,95v-11,-10,-14,-26,-10,-44","w":850},"\u00d7":{"d":"568,-481r-147,128r114,128v43,52,-43,132,-88,78r-110,-132r-146,131v-21,21,-58,24,-77,2v-20,-24,-8,-58,13,-77r147,-128r-115,-128v-42,-53,44,-129,88,-77r111,131r146,-131v22,-21,58,-25,77,-2v20,24,9,58,-13,77","w":620},"\u00d9":{"d":"651,-645v1,-38,67,-78,101,-39v9,11,13,24,10,39r-63,356v-20,146,-176,289,-340,289v-153,0,-266,-130,-238,-289r62,-356v3,-41,70,-77,102,-39v9,11,12,24,9,39r-63,356v-20,98,54,178,147,178v101,0,194,-88,210,-178xm393,-911v1,-21,46,-39,72,-39v20,0,36,10,48,29r57,88v16,21,11,44,-22,43v-28,0,-51,-9,-70,-27r-68,-64v-11,-10,-17,-20,-17,-30","w":760},"\u00da":{"d":"651,-645v1,-38,67,-78,101,-39v9,11,13,24,10,39r-63,356v-20,146,-176,289,-340,289v-153,0,-266,-130,-238,-289r62,-356v3,-41,70,-77,102,-39v9,11,12,24,9,39r-63,356v-20,98,54,178,147,178v101,0,194,-88,210,-178xm551,-950v26,0,71,18,72,39v0,10,-6,20,-17,30r-67,64v-19,18,-43,27,-71,27v-32,0,-36,-22,-22,-43r57,-88v12,-19,28,-29,48,-29","w":760},"\u00db":{"d":"651,-645v1,-38,67,-78,101,-39v9,11,13,24,10,39r-63,356v-20,146,-176,289,-340,289v-153,0,-266,-130,-238,-289r62,-356v3,-41,70,-77,102,-39v9,11,12,24,9,39r-63,356v-20,98,54,178,147,178v101,0,194,-88,210,-178xm557,-862v-42,26,-87,73,-148,72v-14,0,-25,-6,-21,-20v1,-5,7,-13,19,-24r91,-83v31,-28,55,-31,103,-29v23,0,40,10,49,29r41,83v15,26,-1,44,-30,44v-53,0,-78,-43,-104,-72","w":760},"\u00dc":{"d":"651,-645v1,-38,67,-78,101,-39v9,11,13,24,10,39r-63,356v-20,146,-176,289,-340,289v-153,0,-266,-130,-238,-289r62,-356v3,-41,70,-77,102,-39v9,11,12,24,9,39r-63,356v-20,98,54,178,147,178v101,0,194,-88,210,-178xm554,-851v-1,-52,84,-97,122,-51v50,60,-52,151,-112,95v-11,-10,-14,-26,-10,-44xm355,-851v-1,-52,84,-97,122,-51v50,60,-53,151,-113,95v-11,-10,-13,-26,-9,-44","w":760},"\u00dd":{"d":"592,-611r-257,283r-48,274v-4,40,-69,77,-101,39v-9,-11,-13,-24,-10,-39r49,-274r-157,-283v-20,-47,21,-92,68,-87v15,2,26,9,33,22r131,236r214,-236v17,-22,55,-33,79,-12v23,20,20,55,-1,77xm457,-950v26,0,71,18,72,39v0,10,-6,20,-17,30r-67,64v-19,18,-43,27,-71,27v-32,0,-36,-22,-22,-43r57,-88v12,-19,28,-29,48,-29","w":716},"\u00df":{"d":"619,-182v-17,119,-135,198,-260,201v-31,1,-52,-19,-46,-50v4,-25,21,-43,51,-48v79,-14,126,-46,135,-106v9,-51,-23,-87,-96,-106v-56,-14,-40,-83,0,-103v68,-35,105,-75,114,-128v10,-59,-26,-97,-84,-96v-73,1,-122,60,-134,128r-80,452v-4,44,-75,82,-110,42v-9,-11,-13,-25,-10,-42r79,-448v22,-137,126,-235,279,-235v121,0,204,72,183,190v-13,73,-60,130,-141,171v95,34,132,93,120,178","w":620},"\u00e0":{"d":"494,-16v-28,28,-86,15,-85,-28v-98,64,-231,58,-296,-31v-37,-51,-46,-109,-37,-175v18,-124,144,-249,281,-249v48,0,90,14,125,42v8,-33,67,-60,94,-27v8,10,11,23,8,38r-68,391v-3,15,-11,28,-22,39xm338,-394v-109,0,-207,145,-135,246v42,58,130,48,183,0v51,-47,86,-138,36,-205v-21,-27,-49,-41,-84,-41xm341,-711v1,-21,46,-39,72,-39v20,0,36,10,48,29r57,88v16,21,11,44,-22,43v-28,0,-51,-9,-70,-27r-68,-64v-11,-10,-17,-20,-17,-30","w":574},"\u00e1":{"d":"494,-16v-28,28,-86,15,-85,-28v-98,64,-231,58,-296,-31v-37,-51,-46,-109,-37,-175v18,-124,144,-249,281,-249v48,0,90,14,125,42v8,-33,67,-60,94,-27v8,10,11,23,8,38r-68,391v-3,15,-11,28,-22,39xm338,-394v-109,0,-207,145,-135,246v42,58,130,48,183,0v51,-47,86,-138,36,-205v-21,-27,-49,-41,-84,-41xm461,-750v26,0,71,18,72,39v0,10,-6,20,-17,30r-67,64v-19,18,-43,27,-71,27v-32,0,-36,-22,-22,-43r57,-88v12,-19,28,-29,48,-29","w":574},"\u00e2":{"d":"494,-16v-28,28,-86,15,-85,-28v-98,64,-231,58,-296,-31v-37,-51,-46,-109,-37,-175v18,-124,144,-249,281,-249v48,0,90,14,125,42v8,-33,67,-60,94,-27v8,10,11,23,8,38r-68,391v-3,15,-11,28,-22,39xm338,-394v-109,0,-207,145,-135,246v42,58,130,48,183,0v51,-47,86,-138,36,-205v-21,-27,-49,-41,-84,-41xm496,-662v-42,26,-87,73,-148,72v-14,0,-25,-6,-21,-20v1,-5,7,-13,19,-24r91,-83v31,-28,55,-31,103,-29v23,0,39,10,49,29r41,83v15,26,-1,44,-30,44v-53,0,-78,-43,-104,-72","w":574},"\u00e3":{"d":"494,-16v-28,28,-86,15,-85,-28v-98,64,-231,58,-296,-31v-37,-51,-46,-109,-37,-175v18,-124,144,-249,281,-249v48,0,90,14,125,42v8,-33,67,-60,94,-27v8,10,11,23,8,38r-68,391v-3,15,-11,28,-22,39xm338,-394v-109,0,-207,145,-135,246v42,58,130,48,183,0v51,-47,86,-138,36,-205v-21,-27,-49,-41,-84,-41xm550,-595v-30,0,-121,-41,-144,-40v-19,0,-35,11,-46,32v-16,33,-70,21,-70,-13v0,-39,27,-75,44,-92v16,-15,37,-22,62,-22v30,0,121,41,144,40v19,0,35,-11,46,-32v16,-33,70,-21,70,13v0,39,-27,74,-44,91v-16,15,-37,23,-62,23","w":574},"\u00e4":{"d":"494,-16v-28,28,-86,15,-85,-28v-98,64,-231,58,-296,-31v-37,-51,-46,-109,-37,-175v18,-124,144,-249,281,-249v48,0,90,14,125,42v8,-33,67,-60,94,-27v8,10,11,23,8,38r-68,391v-3,15,-11,28,-22,39xm338,-394v-109,0,-207,145,-135,246v42,58,130,48,183,0v51,-47,86,-138,36,-205v-21,-27,-49,-41,-84,-41xm540,-651v-1,-52,84,-97,122,-51v50,60,-52,151,-112,95v-11,-10,-14,-26,-10,-44xm341,-651v-1,-52,84,-97,122,-51v50,60,-53,151,-113,95v-11,-10,-13,-26,-9,-44","w":574},"\u00e5":{"d":"552,-695v-10,63,-81,125,-150,125v-65,0,-118,-57,-106,-125v10,-61,81,-123,150,-123v64,0,117,56,106,123xm464,-728v-27,-33,-84,-3,-88,35v-3,27,14,47,39,47v39,0,77,-48,49,-82xm482,-16v-28,28,-86,15,-85,-28v-98,64,-231,58,-296,-31v-37,-51,-46,-109,-37,-175v18,-124,144,-249,281,-249v48,0,90,14,125,42v8,-33,67,-60,94,-27v8,10,11,23,8,38r-68,391v-3,15,-11,28,-22,39xm326,-394v-109,0,-207,145,-135,246v42,58,130,48,183,0v51,-47,86,-138,36,-205v-21,-27,-49,-41,-84,-41","w":574},"\u00e6":{"d":"957,-274v-5,34,-30,56,-64,56r-325,0v-4,117,164,148,234,74v32,-34,90,-9,84,32v-2,13,-6,24,-15,33v-57,53,-107,78,-210,79v-59,0,-108,-19,-146,-57v-4,29,-33,56,-64,56v-26,1,-45,-19,-46,-44v-100,66,-237,59,-303,-32v-38,-51,-47,-110,-38,-179v21,-169,250,-336,416,-212v8,-35,69,-61,96,-27v10,12,12,27,8,44v53,-39,110,-59,170,-59v130,0,221,102,203,236xm333,-403v-77,0,-150,76,-161,147v-12,79,35,147,109,146v80,-1,146,-74,160,-146v15,-77,-36,-147,-108,-147xm867,-305v-5,-56,-63,-108,-131,-108v-75,0,-137,56,-158,108r289,0","w":954},"\u00e7":{"d":"470,-55v-105,74,-263,77,-342,-19v-42,-50,-56,-110,-45,-181v20,-130,160,-257,306,-255v61,0,113,17,152,55v47,46,-31,130,-82,86v-56,-48,-147,-36,-204,11v-58,48,-92,138,-37,206v46,57,141,56,201,11v25,-18,61,-14,74,10v16,29,-2,61,-23,76xm265,160v-22,0,-71,-24,-70,-44v0,-8,3,-16,8,-23r71,-103r91,0r-61,141v-8,19,-21,29,-39,29","w":571},"\u00e8":{"d":"573,-268v-4,33,-28,53,-62,54r-319,0v-4,115,160,145,229,73v20,-20,57,-20,72,-2v17,20,14,49,-4,66v-57,52,-106,75,-206,77v-131,2,-221,-113,-197,-250v22,-125,147,-250,288,-250v129,0,217,99,199,232xm485,-299v-5,-55,-62,-106,-128,-106v-73,0,-134,56,-155,106r283,0xm362,-711v1,-21,46,-39,72,-39v20,0,36,10,48,29r57,88v16,21,11,44,-22,43v-28,0,-51,-9,-70,-27r-68,-64v-11,-10,-17,-20,-17,-30","w":584},"\u00e9":{"d":"573,-268v-4,33,-28,53,-62,54r-319,0v-4,115,160,145,229,73v20,-20,57,-20,72,-2v17,20,14,49,-4,66v-57,52,-106,75,-206,77v-131,2,-221,-113,-197,-250v22,-125,147,-250,288,-250v129,0,217,99,199,232xm485,-299v-5,-55,-62,-106,-128,-106v-73,0,-134,56,-155,106r283,0xm435,-750v26,0,71,18,72,39v0,10,-6,20,-17,30r-67,64v-19,18,-43,27,-71,27v-32,0,-36,-22,-22,-43r57,-88v12,-19,28,-29,48,-29","w":584},"\u00ea":{"d":"573,-268v-4,33,-28,53,-62,54r-319,0v-4,115,160,145,229,73v20,-20,57,-20,72,-2v17,20,14,49,-4,66v-57,52,-106,75,-206,77v-131,2,-221,-113,-197,-250v22,-125,147,-250,288,-250v129,0,217,99,199,232xm485,-299v-5,-55,-62,-106,-128,-106v-73,0,-134,56,-155,106r283,0xm448,-662v-42,26,-87,73,-148,72v-14,0,-25,-6,-21,-20v1,-5,7,-13,19,-24r91,-83v31,-28,55,-31,103,-29v23,0,39,10,49,29r41,83v15,26,-1,44,-30,44v-53,0,-78,-43,-104,-72","w":584},"\u00eb":{"d":"573,-268v-4,33,-28,53,-62,54r-319,0v-4,115,160,145,229,73v20,-20,57,-20,72,-2v17,20,14,49,-4,66v-57,52,-106,75,-206,77v-131,2,-221,-113,-197,-250v22,-125,147,-250,288,-250v129,0,217,99,199,232xm485,-299v-5,-55,-62,-106,-128,-106v-73,0,-134,56,-155,106r283,0xm485,-651v-1,-52,84,-97,122,-51v50,60,-53,151,-113,95v-11,-10,-13,-26,-9,-44xm286,-651v-1,-52,84,-97,122,-51v50,60,-52,151,-112,95v-11,-10,-14,-26,-10,-44","w":584},"\u00ec":{"d":"7,-54r73,-410v3,-41,70,-76,101,-38v9,11,12,23,9,38r-72,410v-3,42,-70,76,-102,39v-9,-11,-12,-24,-9,-39xm47,-711v1,-21,46,-39,72,-39v20,0,36,10,48,29r57,88v16,21,11,44,-22,43v-28,0,-51,-9,-70,-27r-68,-64v-11,-10,-17,-20,-17,-30","w":249},"\u00ed":{"d":"105,-54r73,-410v3,-41,70,-76,101,-38v9,11,12,23,9,38r-72,410v-3,42,-70,76,-102,39v-9,-11,-12,-24,-9,-39xm294,-750v26,0,71,18,72,39v0,10,-6,20,-17,30r-67,64v-19,18,-43,27,-71,27v-32,0,-36,-22,-22,-43r57,-88v12,-19,28,-29,48,-29","w":249},"\u00ee":{"d":"20,-54r73,-410v3,-41,70,-76,101,-38v9,11,12,23,9,38r-72,410v-3,42,-69,76,-101,39v-9,-11,-13,-24,-10,-39xm212,-662v-42,26,-87,73,-148,72v-14,0,-25,-6,-21,-20v1,-5,7,-13,19,-24r91,-83v31,-28,55,-31,103,-29v23,0,39,10,49,29r41,83v15,26,-1,44,-30,44v-53,0,-78,-43,-104,-72","w":249},"\u00ef":{"d":"12,-54r73,-410v3,-41,70,-76,101,-38v9,11,12,23,9,38r-72,410v-3,42,-69,76,-101,39v-9,-11,-13,-24,-10,-39xm232,-651v-1,-52,84,-97,122,-51v50,60,-52,151,-112,95v-11,-10,-14,-26,-10,-44xm33,-651v-1,-52,84,-97,122,-51v50,60,-53,151,-113,95v-11,-10,-13,-26,-9,-44","w":249},"\u00f0":{"d":"482,-445r-81,-143r-117,48v-26,11,-54,-7,-49,-35v3,-17,13,-28,32,-36r97,-40v-19,-42,17,-87,59,-87v26,0,43,21,52,43v37,-13,70,-36,111,-42v20,-3,35,18,32,39v-3,17,-14,29,-32,36r-77,31v39,75,102,165,117,251v24,139,-23,240,-103,314v-101,94,-304,111,-394,2v-43,-51,-58,-112,-48,-185v17,-128,130,-238,269,-237v47,0,91,14,132,41xm330,-91v92,0,165,-74,177,-156v13,-86,-47,-150,-133,-150v-93,0,-162,69,-175,151v-14,86,46,155,131,155","w":628},"\u00f1":{"d":"410,-55r42,-236v10,-57,-30,-103,-85,-103v-59,0,-110,50,-120,103r-43,236v-2,40,-67,76,-97,38v-9,-11,-12,-23,-9,-38r69,-392v5,-27,32,-53,63,-53v23,0,37,10,42,31v83,-49,195,-40,250,30v33,41,46,90,35,148r-42,236v-2,40,-65,76,-96,39v-9,-10,-12,-24,-9,-39xm488,-595v-30,0,-121,-41,-144,-40v-19,0,-35,11,-46,32v-16,33,-70,21,-70,-13v0,-39,27,-75,44,-92v16,-15,37,-22,62,-22v30,0,121,41,144,40v19,0,35,-11,46,-32v16,-33,70,-21,70,13v0,39,-27,74,-44,91v-16,15,-37,23,-62,23","w":613},"\u00f2":{"d":"169,-425v100,-93,258,-108,342,0v38,48,47,108,37,176v-19,127,-145,251,-283,251v-127,0,-222,-114,-195,-251v13,-67,45,-126,99,-176xm283,-104v76,0,148,-72,159,-145v6,-41,-2,-74,-23,-102v-45,-59,-130,-49,-185,0v-51,45,-85,141,-36,205v21,28,50,42,85,42xm322,-711v1,-21,46,-39,72,-39v20,0,36,10,48,29r57,88v16,21,11,44,-22,43v-28,0,-51,-9,-70,-27r-68,-64v-11,-10,-17,-20,-17,-30","w":640},"\u00f3":{"d":"169,-425v100,-93,258,-108,342,0v38,48,47,108,37,176v-19,127,-145,251,-283,251v-127,0,-222,-114,-195,-251v13,-67,45,-126,99,-176xm283,-104v76,0,148,-72,159,-145v6,-41,-2,-74,-23,-102v-45,-59,-130,-49,-185,0v-51,45,-85,141,-36,205v21,28,50,42,85,42xm355,-750v26,0,71,18,72,39v0,10,-6,20,-17,30r-67,64v-19,18,-43,27,-71,27v-32,0,-36,-22,-22,-43r57,-88v12,-19,28,-29,48,-29","w":640},"\u00f4":{"d":"169,-425v100,-93,258,-108,342,0v38,48,47,108,37,176v-19,127,-145,251,-283,251v-127,0,-222,-114,-195,-251v13,-67,45,-126,99,-176xm283,-104v76,0,148,-72,159,-145v6,-41,-2,-74,-23,-102v-45,-59,-130,-49,-185,0v-51,45,-85,141,-36,205v21,28,50,42,85,42xm442,-662v-42,26,-87,73,-148,72v-14,0,-25,-6,-21,-20v1,-5,7,-13,19,-24r91,-83v31,-28,55,-31,103,-29v23,0,39,10,49,29r41,83v15,26,-1,44,-30,44v-53,0,-78,-43,-104,-72","w":640},"\u00f5":{"d":"169,-425v100,-93,258,-108,342,0v38,48,47,108,37,176v-19,127,-145,251,-283,251v-127,0,-222,-114,-195,-251v13,-67,45,-126,99,-176xm283,-104v76,0,148,-72,159,-145v6,-41,-2,-74,-23,-102v-45,-59,-130,-49,-185,0v-51,45,-85,141,-36,205v21,28,50,42,85,42xm495,-595v-30,0,-121,-41,-144,-40v-19,0,-35,11,-46,32v-16,33,-70,21,-70,-13v0,-39,28,-75,45,-92v16,-15,36,-22,61,-22v30,0,121,41,144,40v19,0,35,-11,46,-32v16,-33,70,-21,70,13v0,39,-28,74,-45,91v-16,15,-36,23,-61,23","w":640},"\u00f6":{"d":"169,-425v100,-93,258,-108,342,0v38,48,47,108,37,176v-19,127,-145,251,-283,251v-127,0,-222,-114,-195,-251v13,-67,45,-126,99,-176xm283,-104v76,0,148,-72,159,-145v6,-41,-2,-74,-23,-102v-45,-59,-130,-49,-185,0v-51,45,-85,141,-36,205v21,28,50,42,85,42xm453,-651v-1,-52,84,-97,122,-51v50,60,-53,151,-113,95v-11,-10,-13,-26,-9,-44xm254,-651v-1,-52,84,-97,122,-51v50,60,-52,151,-112,95v-11,-10,-14,-26,-10,-44","w":640},"\u00f7":{"d":"517,-300r-404,0v-28,1,-49,-24,-44,-52v4,-26,30,-53,59,-52r404,0v28,-1,50,24,45,52v-4,26,-31,52,-60,52xm312,-610v28,-24,72,-27,97,0v54,63,-53,164,-112,100v-27,-29,-12,-77,15,-100xm251,-194v27,-25,74,-28,97,0v39,48,-9,119,-66,119v-38,0,-68,-31,-59,-71v4,-18,13,-35,28,-48","w":620},"\u00f9":{"d":"479,-484v20,-19,58,-22,75,0v8,10,11,22,8,37r-41,237v-14,106,-128,209,-245,209v-111,0,-192,-94,-172,-209r41,-237v4,-40,65,-73,97,-38v9,10,12,23,9,38r-42,237v-11,56,31,102,85,102v59,0,112,-51,121,-102r42,-237v3,-15,10,-27,22,-37xm254,-711v1,-21,46,-39,72,-39v20,0,36,10,48,29r57,88v16,21,11,44,-22,43v-28,0,-51,-9,-70,-27r-68,-64v-11,-10,-17,-20,-17,-30","w":613},"\u00fa":{"d":"479,-484v20,-19,58,-22,75,0v8,10,11,22,8,37r-41,237v-14,106,-128,209,-245,209v-111,0,-192,-94,-172,-209r41,-237v4,-40,65,-73,97,-38v9,10,12,23,9,38r-42,237v-11,56,31,102,85,102v59,0,112,-51,121,-102r42,-237v3,-15,10,-27,22,-37xm399,-750v26,0,71,18,72,39v0,10,-6,20,-17,30r-67,64v-19,18,-43,27,-71,27v-32,0,-36,-22,-22,-43r57,-88v12,-19,28,-29,48,-29","w":613},"\u00fb":{"d":"479,-484v20,-19,58,-22,75,0v8,10,11,22,8,37r-41,237v-14,106,-128,209,-245,209v-111,0,-192,-94,-172,-209r41,-237v4,-40,65,-73,97,-38v9,10,12,23,9,38r-42,237v-11,56,31,102,85,102v59,0,112,-51,121,-102r42,-237v3,-15,10,-27,22,-37xm424,-662v-42,26,-87,73,-148,72v-14,0,-25,-6,-21,-20v1,-5,7,-13,19,-24r91,-83v31,-28,55,-31,103,-29v23,0,39,10,49,29r41,83v15,26,-1,44,-30,44v-53,0,-78,-43,-104,-72","w":613},"\u00fc":{"d":"479,-484v20,-19,58,-22,75,0v8,10,11,22,8,37r-41,237v-14,106,-128,209,-245,209v-111,0,-192,-94,-172,-209r41,-237v4,-40,65,-73,97,-38v9,10,12,23,9,38r-42,237v-11,56,31,102,85,102v59,0,112,-51,121,-102r42,-237v3,-15,10,-27,22,-37xm425,-651v-1,-52,84,-97,122,-51v50,60,-53,151,-113,95v-11,-10,-13,-26,-9,-44xm226,-651v-1,-52,84,-97,122,-51v50,60,-52,151,-112,95v-11,-10,-14,-26,-10,-44","w":613},"\u00fd":{"d":"537,-447r-68,385v-20,152,-215,302,-385,216v-24,-12,-29,-47,-12,-72v14,-22,47,-39,77,-24v81,39,173,-18,198,-78v-83,42,-187,28,-239,-38v-33,-42,-46,-91,-36,-149r42,-240v4,-40,68,-73,99,-37v9,10,12,22,9,37r-43,240v-12,57,31,104,86,104v59,0,114,-52,123,-104r41,-240v7,-38,58,-69,92,-43v13,10,19,24,16,43xm392,-750v26,0,71,18,72,39v0,10,-6,20,-17,30r-67,64v-19,18,-43,27,-71,27v-32,0,-36,-22,-22,-43r57,-88v12,-19,28,-29,48,-29","w":588},"\u00ff":{"d":"537,-447r-68,385v-20,152,-215,302,-385,216v-24,-12,-29,-47,-12,-72v14,-22,47,-39,77,-24v81,39,173,-18,198,-78v-83,42,-187,28,-239,-38v-33,-42,-46,-91,-36,-149r42,-240v4,-40,68,-73,99,-37v9,10,12,22,9,37r-43,240v-12,57,31,104,86,104v59,0,114,-52,123,-104r41,-240v7,-38,58,-69,92,-43v13,10,19,24,16,43xm426,-651v-1,-52,84,-97,122,-51v50,60,-52,151,-112,95v-11,-10,-14,-26,-10,-44xm227,-651v-1,-52,84,-97,122,-51v50,60,-53,151,-113,95v-11,-10,-13,-26,-9,-44","w":588},"\u0152":{"d":"587,-112v-82,83,-253,149,-392,82v-108,-52,-176,-181,-151,-331v30,-178,207,-363,407,-360v100,1,182,47,224,112v5,-32,7,-59,29,-76v13,-10,27,-16,42,-16r327,0v28,-1,50,25,45,55v-5,28,-35,56,-65,56r-271,0r-32,183r233,0v28,-1,50,26,45,55v-5,28,-34,56,-65,56r-233,0r-32,184r271,0v28,-1,50,26,45,56v-5,27,-35,56,-65,55r-325,-1v-28,5,-53,-23,-47,-54xm345,-115v128,-1,249,-126,269,-246v22,-130,-61,-246,-183,-246v-134,0,-252,123,-273,246v-22,135,62,247,187,246","w":1152},"\u0153":{"d":"954,-274v-5,34,-30,56,-64,56r-325,0v-4,117,164,148,234,74v32,-34,91,-9,85,32v-2,13,-7,24,-16,33v-57,53,-107,78,-210,79v-85,0,-147,-42,-179,-99v-50,57,-131,101,-211,101v-131,0,-221,-116,-198,-255v21,-125,149,-255,288,-255v77,0,142,38,175,100v63,-68,135,-102,218,-102v130,0,221,102,203,236xm287,-106v78,0,148,-73,161,-147v13,-78,-36,-146,-109,-146v-113,0,-212,148,-139,251v21,29,52,42,87,42xm864,-305v-5,-56,-63,-108,-131,-108v-75,0,-137,56,-158,108r289,0","w":1055},"\u0178":{"d":"592,-611r-257,283r-48,274v-4,40,-69,77,-101,39v-9,-11,-13,-24,-10,-39r49,-274r-157,-283v-20,-47,21,-92,68,-87v15,2,26,9,33,22r131,236r214,-236v17,-22,55,-33,79,-12v23,20,20,55,-1,77xm417,-851v-1,-52,84,-97,122,-51v50,60,-53,151,-113,95v-11,-10,-13,-26,-9,-44xm218,-851v-1,-52,84,-97,122,-51v50,60,-52,151,-112,95v-11,-10,-14,-26,-10,-44","w":716},"\u02c6":{"d":"314,-662v-42,26,-87,73,-148,72v-14,0,-25,-6,-21,-20v1,-5,7,-13,19,-24r91,-83v31,-28,55,-31,103,-29v23,0,39,10,49,29r41,83v15,26,-1,44,-30,44v-53,0,-78,-43,-104,-72"},"\u02dc":{"d":"365,-595v-30,0,-121,-41,-144,-40v-19,0,-35,11,-46,32v-16,33,-70,21,-70,-13v0,-39,28,-75,45,-92v16,-15,36,-22,61,-22v30,0,121,41,144,40v19,0,35,-11,46,-32v16,-33,70,-21,70,13v0,39,-28,74,-45,91v-16,15,-36,23,-61,23"},"\u2013":{"d":"117,-249v-29,1,-50,-26,-42,-57v8,-28,39,-58,72,-58r312,0v30,-1,51,26,42,58v-7,27,-39,57,-72,57r-312,0","w":528},"\u2014":{"d":"116,-249v-29,1,-49,-26,-40,-57v8,-28,40,-58,73,-58r682,0v29,-1,51,26,41,58v-8,27,-41,57,-74,57r-682,0","w":898},"\u2018":{"d":"149,-417v-50,0,-72,-42,-72,-98v0,-65,17,-113,50,-146v28,-28,59,-43,94,-43v21,0,31,9,31,28v0,13,-8,22,-24,27v-47,15,-70,44,-68,89v31,10,57,34,57,76v0,38,-29,68,-68,67","w":230},"\u2019":{"d":"233,-617v0,112,-52,199,-143,199v-21,0,-31,-9,-31,-28v0,-13,8,-22,23,-27v47,-15,70,-45,68,-90v-32,-8,-57,-32,-57,-75v0,-38,29,-68,68,-67v46,0,72,39,72,88","w":230},"\u201a":{"d":"228,-55v0,111,-54,200,-143,200v-21,0,-31,-9,-31,-28v0,-15,8,-23,23,-27v48,-14,70,-45,68,-90v-31,-10,-57,-34,-57,-76v0,-38,29,-68,68,-67v48,0,72,37,72,88","w":230},"\u201c":{"d":"309,-505v0,-112,52,-199,143,-199v21,0,32,9,32,28v0,13,-8,22,-24,27v-47,15,-70,44,-68,89v31,10,57,34,57,76v0,38,-29,68,-68,67v-46,0,-72,-39,-72,-88xm149,-417v-50,0,-72,-42,-72,-98v0,-65,17,-113,50,-146v28,-28,59,-43,94,-43v21,0,31,9,31,28v0,13,-8,22,-24,27v-47,15,-70,44,-68,89v31,10,57,34,57,76v0,38,-29,68,-68,67","w":410},"\u201d":{"d":"233,-617v0,112,-52,199,-143,199v-21,0,-31,-9,-31,-28v0,-13,8,-22,23,-27v47,-15,70,-45,68,-90v-32,-8,-57,-32,-57,-75v0,-38,29,-68,68,-67v46,0,72,39,72,88xm393,-705v50,0,72,42,72,98v0,65,-17,113,-50,146v-28,28,-59,43,-94,43v-21,0,-31,-9,-31,-28v0,-13,8,-22,24,-27v47,-15,70,-45,68,-90v-32,-8,-57,-32,-57,-75v0,-38,29,-68,68,-67","w":410},"\u201e":{"d":"228,-55v0,111,-54,200,-143,200v-21,0,-31,-9,-31,-28v0,-15,8,-23,23,-27v48,-14,70,-45,68,-90v-31,-10,-57,-34,-57,-76v0,-38,29,-68,68,-67v48,0,72,37,72,88xm460,-55v0,111,-53,200,-144,200v-21,0,-31,-9,-31,-28v0,-15,8,-22,24,-27v48,-14,70,-45,68,-90v-31,-10,-57,-34,-57,-76v0,-38,29,-68,68,-67v46,0,72,39,72,88","w":410},"\u2026":{"d":"132,-99v26,0,49,23,49,49v0,26,-23,50,-49,50v-26,0,-50,-24,-50,-50v0,-26,24,-49,50,-49xm350,-99v26,0,49,23,49,49v0,26,-23,50,-49,50v-26,0,-50,-24,-50,-50v0,-26,24,-49,50,-49xm568,-99v26,0,49,23,49,49v0,26,-23,50,-49,50v-26,0,-50,-24,-50,-50v0,-26,24,-49,50,-49","w":680},"\u2122":{"d":"28,-660v-13,-17,5,-41,25,-41r182,0v22,-1,25,31,9,41v-20,13,-56,3,-85,6r-40,229v-3,21,-28,32,-43,17v-4,-5,-5,-10,-4,-17r40,-229r-69,0v-6,0,-11,-2,-15,-6xm383,-692r65,119r106,-119v12,-17,45,-10,41,14r-45,252v0,19,-29,33,-42,17v-4,-5,-6,-10,-5,-17r31,-179r-76,85v-10,13,-32,14,-40,0r-46,-85r-31,179v-1,29,-54,35,-48,0r44,-252v1,-19,36,-34,46,-14","w":690}}});
